35 24
8 -0.191563 0.103091 -0.0833582 0.000997772 -0.0736581 -0.02133 -0.0379597 -0.0661153 0.0573895 -0.00953434 0.0162125 0.0104844 0.0414639 0.0232306 0.0759969 0.0363202 0.0397298 0.0768771 0.0451873 0.0075198 -0.00901926 0.0456517 0.0567988 0.0844217
0 -1.8463 0.914978 -0.805296 -0.150413 -0.487043 -0.28736 -0.107825 -0.176127 0.841315 -0.172986 0.740431 -0.672843 0.160685 0.0917119 -0.143456 -0.0275256 -0.069569 -0.251048 0.659506 0.240809 0.197065 -0.635979 -0.650135 -0.551719
34 0.184311 -0.0681232 0.220876 0.0643758 0.22263 0.142652 -0.0581636 -0.0932881 -0.199704 0.0576238 -0.215226 0.249344 -0.102119 -0.098802 0.421592 0.111281 0.143683 0.339605 -0.0712541 -0.00987486 -0.0793321 0.300722 0.36025 0.306865
17 -0.0168136 0.0152217 0.076051 0.0128596 0.0602872 0.0336435 0.00755442 -0.0104405 -0.0458332 0.00136278 -0.0496711 0.0624271 -0.0189181 0.00879041 0.0958722 0.0379269 0.0424055 0.0893541 -0.0174698 -0.0140119 -0.00450329 0.0417443 0.100968 0.110676
28 0.117706 -0.0583439 0.00282528 0.0122183 -0.0320872 -0.023891 0.0268175 0.0151623 -0.0610965 0.00734346 0.000781568 -0.00814513 -0.0140285 0.00427273 -0.00658501 -0.0208811 -0.0114768 -0.00554684 0.001709 0.0119579 -0.00957794 -0.0144829 -0.0498172 -0.0231744
10 0.0293062 -0.0117074 0.00828634 -0.0188932 -0.00687139 0.000843017 -0.00287259 -0.0160587 0.000583492 0.0127835 -0.0118692 -0.0159221 0.0129941 0.00271611 -0.00826821 -0.00697786 0.0221656 0.0174294 0.0337497 0.00477262 -0.0105932 -0.00443466 -0.0223248 -0.00492661
20 0.0936447 -0.0441176 0.00462186 -0.0164014 -0.000330273 0.00304851 0.0291294 0.00766576 -0.0315738 -0.00815926 -0.011743 0.0193177 0.0108548 0.0129847 -0.00504346 -0.0151938 -0.0074846 -0.0130368 -0.0248021 -0.0184971 0.0119385 -0.0397205 -0.0285241 -0.000610296
32 0.256833 -0.0999938 0.10627 0.0424546 0.100697 0.0546399 0.0592368 0.127773 -0.0434522 -0.00656628 -0.0167882 0.0381992 -0.0284791 -0.0276035 -0.0737353 -0.0279016 -0.0125575 -0.0883224 0.0282522 0.010417 0.0330751 -0.0677538 -0.140578 -0.121844
33 0.197361 -0.0968397 0.0858993 -0.00454 0.0267222 0.0444948 0.0505299 0.027354 -0.0249151 -0.00515681 -0.0141873 0.00622597 -0.0137531 -0.0223205 0.033976 0.00106331 -0.0106736 -0.00433002 0.0781309 0.0428147 0.0142288 -0.0208792 -0.136475 -0.106705
24 0.242738 -0.103646 0.082243 0.0026654 0.0739021 0.0426109 0.0189412 0.0615405 -0.0667449 0.00434991 -0.036248 0.0254876 -0.0350917 -0.00481285 -0.0589018 -0.0229182 -0.00132346 -0.0355631 -0.0330683 -0.0232447 -0.00819427 -0.0112115 -0.0493463 -0.0449444
1 0.270776 -0.126938 0.0551812 0.0201905 0.0418877 0.0431336 -0.00553946 0.0310461 -0.0897667 0.01274 -0.0237346 0.0527904 -0.00986822 -0.040689 -0.0484772 0.00740713 -0.000968539 -0.0223947 0.0193958 0.00561518 0.00196782 -0.0398174 -0.101839 -0.091366
9 0.146516 -0.0754814 0.034122 0.0081864 0.00568845 0.00124398 0.024743 0.0463304 0.00256609 -0.017318 0.0203562 0.0125974 -0.00177881 0.0180324 -0.0539197 0.00647973 -0.004179 -0.0356406 -0.00277718 -0.0146376 0.00285794 -0.0384039 -0.0491569 -0.0693727
21 0.132788 -0.042089 0.0450202 -0.000745489 0.0274739 0.0296325 -0.00275024 0.0215794 -0.011212 0.0253754 -0.0190055 0.0184277 -0.034108 -0.0257531 -0.0165624 -0.0231849 0.00722537 -0.0107795 0.0218178 0.0220548 -0.00372048 -0.0284691 -0.0569019 -0.0504368
26 0.413717 -0.201764 0.187412 0.0167751 0.129904 0.0614557 0.0575079 0.133447 -0.0933111 0.0328309 -0.0672668 0.068631 -0.0374452 -0.0445325 -0.108493 -0.0204449 -0.0557871 -0.0995159 -0.0281005 -0.0201697 0.0348254 -0.0634641 -0.113372 -0.123349
27 0.07664 -0.0309668 -0.00902346 -0.0037705 -0.000382694 0.00812478 0.0137929 -0.0150417 0.0326464 0.0102647 -0.00771019 -0.0142814 0.0153247 0.0241798 -0.00623164 0.0175578 0.0046242 -0.00278534 0.020558 0.0253864 -0.0153826 -0.0218172 -0.0434882 -0.0202778
29 0.158922 -0.0718694 0.0748093 0.0209751 0.0825239 0.0482527 0.0403415 0.0577922 -0.00252911 0.0138157 -0.00782473 -0.00517437 -0.0367389 0.00309336 -0.0974664 -0.0098801 -0.000210321 -0.0533586 -0.0091324 0.0160226 0.0189237 -0.0390351 -0.0150651 -0.0314959
15 0.0873455 -0.0508498 0.0381637 -0.00905058 0.036493 0.0174112 0.0042213 0.0338288 -0.00499289 -0.0174452 0.0270097 -0.00560753 0.0171959 0.0142529 -0.060373 0.00149312 -0.0332867 -0.0682424 0.0303371 -0.000462 0.0143198 -0.0483681 -0.0317073 -0.0275371
25 0.289556 -0.144541 0.127948 0.0149521 0.129976 0.0811652 0.0474021 0.103317 -0.137483 0.0329308 -0.0726494 0.0384326 -0.0404553 -0.0323463 -0.072464 -0.0181304 -0.0438371 -0.0726426 -0.00655841 0.000972343 0.0131429 -0.0408384 -0.0708918 -0.0645236
7 0.157695 -0.0862323 0.057426 0.0179436 0.0486986 0.0251265 0.00803505 0.0512426 -0.070998 0.0125811 -0.0487121 0.0619179 -0.0310283 0.00517089 -0.0110024 -0.0204049 0.00536543 -0.0137256 0.00294611 -0.0183917 0.0153138 0.00313004 -0.000750446 0.0162062
19 0.0899189 -0.056544 0.0298753 -0.00561526 0.0484266 0.0206314 -0.00865511 -0.00747078 -0.0288685 0.0132632 -0.0283542 0.00527773 -0.00729985 0.0141731 -0.0194698 0.0159826 0.00800271 -0.0118129 0.0442059 0.00703404 0.00807391 -0.0054688 -0.0711983 -0.0269451
18 -0.369902 0.168904 -0.102315 -0.0350135 -0.144276 -0.0829199 -0.0658703 -0.105107 0.134445 -0.013265 0.0886147 -0.0934565 0.0400535 0.0299565 0.11298 0.0344007 0.0328525 0.102554 0.0605917 0.0303486 -0.0258649 0.0211169 0.0179777 0.036345
30 0.153588 -0.0738224 0.0389202 0.0165032 -0.00119462 0.0137486 0.0181529 -0.0155771 -0.0144987 0.0125155 -0.0257251 -0.00883575 0.0135352 -0.0077336 0.0168695 0.0102144 -0.00420101 -0.00489043 0.0146884 0.0297991 0.0240876 -0.0418069 -0.0960802 -0.052228
5 0.0617747 -0.0495917 0.0503292 0.0210252 0.0426608 0.0116985 0.0367795 0.011182 -0.0448111 0.0120012 -0.00895191 0.038897 -0.0164993 0.00488057 -0.0198015 0.0115497 -0.00494145 -0.0127014 0.0041446 0.00250952 -0.0132972 0.00393929 -0.00859497 -0.00178305
13 -0.198541 0.0863815 -0.0883577 -0.00296364 -0.074262 -0.0459403 -0.0377285 -0.0679905 0.0818532 -0.00997621 0.0567587 -0.0430714 0.0207841 0.00370708 0.076011 0.0143762 0.0260019 0.0464332 0.0633215 0.00805858 -0.021546 0.00599116 0.00377567 -0.00607983
31 0.202705 -0.0974699 0.022329 0.0106265 0.0644391 0.0367367 0.0246519 0.000563197 -0.0278135 0.00591836 -0.0318556 0.0130826 -0.0232847 0.00701243 -0.00358351 0.00576132 0.00646597 -0.0208521 -0.00188025 0.00257924 -0.0038081 -0.0323779 -0.0897651 -0.0699843
16 0.079878 -0.051814 0.00293761 -0.0119993 0.0146485 -0.0139392 -0.0132009 -0.00113675 -0.00958313 0.00823638 -0.0185939 0.0015521 -0.012428 -0.00940262 -0.00402304 -0.00695277 0.00190737 0.0235171 0.0105089 0.0091655 -0.00699066 -0.0207722 -0.0322788 -0.0213425
22 -0.337002 0.156016 -0.0982807 -0.00822839 -0.101322 -0.0697597 -0.075857 -0.0842132 0.102011 -0.0144932 0.0517819 -0.0360898 0.039604 0.0276298 0.163549 0.0255703 0.0107495 0.110398 0.0695599 0.0451002 -0.00995213 0.0288066 0.0274985 0.00616393
23 0.0399294 -0.0422105 -0.0325125 0.0127711 -0.00674185 -0.00788132 -0.00767578 -0.00902098 0.0461771 -0.0260566 -0.000648579 -0.00852799 0.0222351 -0.00422381 -0.0299292 -0.0279001 -0.00142433 -0.0128281 0.0261103 -0.00493036 0.0243987 -0.0479184 -0.0333132 -0.0253679
14 0.0653661 -0.0362039 0.00987577 -0.0041005 0.0209969 -0.00362836 0.0147733 0.0161453 -0.0190758 -0.0111278 -0.00736291 0.0235915 -0.00774473 -0.00591715 -0.0249663 0.0158361 -0.00417925 -0.0249434 -0.0271054 -0.00810114 -0.0119672 -0.0266401 -0.0395988 -0.0200712
3 0.249633 -0.0957616 0.0356456 0.00454764 0.0436024 0.0145579 0.0354368 0.0819415 -0.0692535 0.0061237 -0.0145357 0.0471296 -0.00829509 -0.0203486 -0.108905 -0.00629434 -0.0177566 -0.0572893 -0.0459125 -0.0335452 0.00543034 0.0139433 0.00827942 -0.00237183
4 0.139025 -0.0774906 0.0429454 0.0225849 0.0411448 0.0148819 0.0152233 0.0468549 -0.0258868 0.0111865 -0.00110025 -0.00959894 -0.0232744 -0.0224385 -0.0677042 0.00605093 -0.0281409 -0.0239932 -0.031808 -0.0252572 0.00324343 -0.0246209 -0.0510387 -0.0352896
11 -0.176657 0.0860003 -0.0356547 0.000126097 -0.0252267 -0.0194981 -0.0554001 -0.0554402 0.0814898 -0.00518895 0.00578022 -0.00489143 0.00451979 0.000543169 0.110673 0.011488 0.025446 0.0835272 0.0239751 0.0292393 -0.0203747 0.066802 0.0384845 0.0215063
2 0.310699 -0.130112 0.0246308 0.0155999 0.0469189 0.0579947 0.0337498 0.069356 -0.127848 0.00705459 -0.0270913 0.0540858 -0.0440241 -0.0166287 -0.129331 -0.0482987 -0.0244115 -0.0749073 -0.0587645 -0.0254268 0.0172388 -0.0376126 -0.0295653 -0.0240215
6 0.104502 -0.0398663 0.0369982 0.00787972 0.0428572 0.00736136 -0.015067 -0.0159197 -0.025986 0.0214396 -0.038045 0.0193912 -0.00373393 0.00849636 -0.0187191 -0.0050164 0.00727188 -0.0439498 0.0161327 0.0187259 0.00324254 -0.0353019 -0.0690328 -0.0282191
12 -0.345315 0.179869 -0.115088 -0.0207214 -0.110348 -0.0672421 -0.0605266 -0.0757423 0.0530057 -0.0271022 0.0576831 -0.0434009 0.0094591 0.00122289 0.143209 0.0305765 0.0340489 0.111021 0.0358289 0.0281149 -0.0229746 0.0386132 0.0590864 0.0588752
