34 128
17 0.148749 -0.0208866 0.413862 -0.417769 -0.248179 0.0276404 0.271109 -0.0223823 -0.0736054 0.111788 0.125217 0.13985 0.126003 0.161927 -0.125005 0.1948 -0.087249 0.224031 -0.0152139 0.456819 -0.00301509 0.0410099 0.232444 -0.0251299 0.217703 -0.290575 0.140935 -0.0184281 -0.0221907 -0.053311 -0.109092 0.020471 0.0374949 -0.0475438 0.101393 -0.016387 -0.0840062 -0.00589927 -0.116665 0.115305 0.0346448 -0.165916 -0.0252987 -0.0579503 0.12223 0.196665 -0.0444215 0.14254 0.168786 0.0927204 0.0529865 -0.0976879 -0.0380879 -0.458581 0.177921 -0.364598 0.0751132 0.27994 0.291757 0.152562 -0.178575 -0.173904 -0.07613 -0.0257759 0.0770993 -0.156011 0.126497 -0.0902738 -0.152564 0.0754571 -0.107119 -0.156939 -0.248006 -0.530346 -0.140269 0.259535 0.0612301 -0.0737484 -0.0107429 0.0352312 0.00535726 0.0382839 -0.105867 0.0349781 -0.2832 -0.475913 -0.145054 -0.0737081 -0.565758 0.13371 0.590686 0.369248 0.635382 0.339399 -0.562287 -0.48812 0.148876 -1.73392 -0.345754 0.850869 -0.0918643 -0.491465 -0.095008 0.249465 0.252883 -0.313133 0.0897298 0.623806 0.604424 -0.388243 1.07177 0.1687 1.18806 -0.718022 -3.83862 -0.156739 -1.03481 -1.37597 -0.0228651 -0.140658 -1.69321 -0.179487 0.935412 1.06134 -0.0221442 -0.644293 0.382439 -0.114202
6 0.18465 -0.00111277 0.426148 -0.437562 -0.19505 -0.038446 0.316474 -0.0204787 -0.0884754 0.138349 0.118023 0.152277 0.111502 0.169695 -0.113794 0.202887 -0.0748813 0.213736 -0.00828651 0.438812 0.000775527 0.0959404 0.268569 -0.00670966 0.222409 -0.327206 0.14413 -0.0308669 -0.0112363 -0.0686675 -0.120258 0.0215118 0.00953959 -0.0568912 0.0979139 -0.0115334 -0.0953951 -0.00591544 -0.096681 0.0979236 0.0443755 -0.157245 -0.00235959 -0.0341035 0.134663 0.192919 -0.0410287 0.121341 0.188537 0.0881276 0.0581925 -0.0709472 -0.0328574 -0.456956 0.193654 -0.372728 0.0492157 0.324436 0.307608 0.233618 -0.293279 -0.252416 -0.0399127 -0.102372 0.032546 -0.147687 0.0878243 -0.104298 -0.128462 0.0498322 -0.156038 -0.127346 -0.233884 -0.436284 -0.118027 0.231373 0.0491859 -0.0815669 0.0175979 0.0342971 0.00356439 0.0422269 -0.141475 0.0403951 -0.286495 -0.526524 -0.123623 -0.01858 -0.534175 0.117965 0.527333 0.335432 0.616517 0.369269 -0.548026 -0.495221 0.145028 -1.65911 -0.350611 0.844949 -0.0747503 -0.442388 -0.0837585 0.207479 0.245985 -0.325441 0.0807402 0.598136 0.583567 -0.395692 1.04166 0.16725 1.25932 -0.756464 -4.02503 -0.168693 -1.03646 -1.35703 -0.0330908 -0.273934 -1.74918 -0.183794 0.963759 1.09156 -0.0231115 -0.659692 0.412623 -0.124469
1 0.0279142 -0.00915096 0.215884 -0.226614 -0.0744744 -0.00683288 0.0946863 -0.0157793 0.0872968 -0.00198752 0.0443463 0.0795499 0.0298962 0.0286896 -0.0517759 0.090458 -0.0237068 0.105178 -0.00872747 0.258958 -0.00222963 0.0838252 0.137662 -0.0084752 0.146521 -0.165926 0.0844828 -0.000172849 -0.00303813 -0.0328245 0.00364278 0.00231975 0.0154355 -0.0181458 0.0385329 -0.0310006 -0.0749492 0.00928874 -0.0637037 0.0641968 0.0391589 -0.127599 0.0134829 0.00945818 0.10204 0.142702 -0.0211497 0.080556 0.140431 0.0584185 0.0396343 -0.0647464 -0.0261036 -0.274978 0.106136 -0.230542 0.0679259 0.224046 0.26328 0.16512 -0.252056 -0.23505 -0.016151 -0.133184 0.0866012 -0.111508 0.146158 -0.0878881 -0.124741 0.0763965 -0.048299 -0.165764 -0.244808 -0.453083 -0.144386 0.246943 -0.00168814 -0.0688413 0.0289562 0.0332114 0.0115013 0.0571424 -0.165686 0.0337777 -0.22747 -0.471259 -0.147219 -0.0974974 -0.458095 0.106501 0.438111 0.274808 0.479502 0.309265 -0.453007 -0.424131 0.115012 -1.35446 -0.316297 0.68725 -0.0506171 -0.295655 -0.0436207 0.0867551 0.190752 -0.296687 0.0336575 0.429959 0.4551 -0.339432 0.903205 0.141522 1.26032 -0.68404 -4.00482 -0.147838 -0.877973 -1.15615 -0.0129653 -0.338282 -1.61351 -0.0599543 0.911289 0.909737 0.0110252 -0.499278 0.274642 -0.112233
4 0.066813 -0.0256455 0.156435 -0.149557 -0.198822 0.0361844 0.119646 -0.0274021 0.114908 -0.0390082 0.0380727 0.0777455 0.0794209 0.156883 -0.0569001 0.116054 -0.0328886 0.118113 -0.00893798 0.312156 -0.0234498 0.103125 0.180637 0.0032461 0.167485 -0.240241 0.10202 -0.0220782 -0.0843076 0.0204239 0.0862046 -0.0207911 0.167325 0.020639 0.0695592 -0.0402009 -0.0316378 0.0037546 -0.0404698 0.0494808 -0.0258392 -0.145727 0.00154301 -0.0375356 0.0324775 0.0535839 -0.0360209 0.0855888 -0.0632056 0.0508577 0.0133378 -0.0642661 -0.0327211 -0.186354 0.0357585 -0.128161 0.0752904 0.127398 0.214659 0.103889 -0.0420856 -0.0732735 -0.0673191 -0.000610336 0.184655 -0.0594808 0.197014 -0.0296527 -0.172073 0.134355 0.114245 -0.216129 -0.240399 -0.541905 -0.179737 0.276172 0.0286643 -0.0687111 0.00903824 0.0526031 0.0268883 0.0678158 -0.132694 0.0465736 -0.191254 -0.433366 -0.158068 -0.179321 -0.423242 0.1122 0.36304 0.24479 0.471342 0.356662 -0.427944 -0.39911 0.099062 -1.35889 -0.285827 0.660083 -0.0633338 -0.266346 -0.0225606 0.0784629 0.172535 -0.245377 0.0535643 0.374179 0.546887 -0.352701 0.873953 0.132997 1.19063 -0.622925 -3.7058 -0.136348 -0.902254 -1.26552 -0.0135174 -0.113512 -1.5362 -0.0273897 0.843492 0.826271 0.00266965 -0.561998 0.283897 -0.105652
3 0.0523503 0.020111 0.187184 -0.232579 -0.0251944 -0.0699284 0.0235144 -0.00155946 0.0961122 0.0438858 0.0323206 0.101778 0.0341701 0.112978 -0.0345024 0.144545 -0.0912261 0.155021 0.00169386 0.333557 -0.0155074 0.102621 0.113094 -0.0109129 0.144208 -0.182799 0.0746659 -0.0247348 0.0304266 -0.0555679 -0.0173951 0.00433945 -0.0314763 -0.0121488 0.0395982 -0.0243775 0.00349241 0.0173218 -0.0591232 0.148488 -0.0449113 -0.117714 -0.00858138 -0.062087 0.111808 0.0956945 -0.0414777 0.0206525 -0.00251765 0.080697 -0.00035811 -0.0980886 0.0127726 -0.238499 -0.0155614 -0.0758509 0.0827737 0.114505 0.218926 0.0563169 -0.141802 -0.114614 -0.0458203 0.0457117 0.121286 -0.0749138 0.147249 -0.0260796 -0.112561 0.0555539 0.0217043 -0.186877 -0.193768 -0.482142 -0.107364 0.231304 0.0568427 -0.0682481 -0.0100573 0.0166239 0.0139734 -0.00194273 -0.185293 -0.00903352 -0.175159 -0.292843 -0.0678404 0.0065885 -0.383357 0.0861734 0.350538 0.203544 0.447526 0.324122 -0.52063 -0.471576 0.106516 -1.46002 -0.338613 0.855711 -0.0577249 -0.295698 -0.053665 0.131845 0.214118 -0.259896 0.0573166 0.51049 0.660055 -0.401845 0.934947 0.150547 1.14114 -0.724569 -3.64473 -0.162837 -0.838927 -1.14447 -0.0361234 -0.264697 -1.35952 -0.110205 0.717764 0.769032 -0.019499 -0.44834 0.297573 -0.0632894
9 0.151611 0.012411 0.0660997 -0.0507184 -0.172049 -0.0560798 0.215669 -0.0292865 0.0330746 0.0912051 0.0324316 0.121947 0.0791665 0.23543 -0.0896728 0.207739 -0.158377 0.223886 -0.0271355 0.4871 -0.0199955 0.00557282 0.146257 -0.0115304 0.190774 -0.194015 0.104444 0.0132989 -0.0484107 -0.0162112 0.00202851 0.0201709 0.0693432 0.00593794 0.0674804 -0.0361091 -0.0860928 0.00447226 -0.0227504 0.0164226 0.0174643 -0.142936 0.0312168 -0.0156368 0.0994644 0.100656 -0.0564105 0.0707017 -6.69554e-05 0.0634108 0.0110518 -0.0366714 -0.0132649 -0.201518 0.04835 -0.126559 0.0417671 0.118811 0.190134 0.0942123 -0.0172866 -0.0438383 -0.0701689 0.0347085 0.131896 -0.0655254 0.145168 -0.0216218 -0.164724 0.0999633 0.0836736 -0.193374 -0.205602 -0.502905 -0.154194 0.268976 0.0765288 -0.0602668 -0.0536873 0.0534653 -0.0146682 0.0701989 -0.00562256 0.0782105 -0.148124 -0.177316 -0.111496 -0.132275 -0.425957 0.117272 0.41887 0.280603 0.528583 0.411082 -0.451642 -0.409169 0.0715579 -1.1997 -0.250745 0.671976 -0.168129 -0.407949 -0.0715963 0.13532 0.138482 -0.20314 0.0676243 0.397592 0.631741 -0.371765 0.818039 0.122162 0.976339 -0.538708 -3.12462 -0.129493 -0.789023 -1.13916 -0.0244953 -0.112273 -1.24669 -0.068856 0.685223 0.69988 -0.0199349 -0.473967 0.268097 -0.0803239
33 0.0194768 0.00435947 0.0947732 -0.0820197 -0.0840589 0.0158552 0.103916 -0.0192765 0.0362846 0.0136431 0.0410065 0.0669082 0.00829347 0.0518814 -0.050843 0.078389 -0.0327081 0.0696766 -0.0274978 0.230091 0.00883473 -0.0948685 0.0201878 -0.0363769 0.0867172 -0.0168494 0.0474912 0.0109379 -0.0403059 0.0510587 -0.000979549 -0.0162975 0.0902941 0.00551531 0.0497985 -0.0301059 -0.061303 0.0147425 -0.073767 0.0588423 -0.0212912 -0.0889962 -0.0737587 -0.0988564 0.00675694 0.04939 -0.00703367 0.0559268 -0.0239694 0.0415129 0.0265517 -0.0928486 -0.033063 -0.218815 0.0571827 -0.190547 0.0933896 0.176609 0.225292 0.0737275 -0.025944 -0.04423 -0.0914953 0.0905133 0.0943114 -0.116053 0.123265 -0.066455 -0.105361 0.0820928 -0.0434632 -0.143266 -0.209937 -0.499875 -0.14254 0.23941 0.038083 -0.043506 -0.0143592 0.038263 0.00305693 0.0238442 -0.171314 0.0112651 -0.203421 -0.415113 -0.0898512 0.00526328 -0.380032 0.0664145 0.439838 0.271195 0.413316 0.190354 -0.468643 -0.439859 0.140643 -1.49437 -0.311155 0.723542 0.0404438 -0.247153 -0.0488013 0.148223 0.214469 -0.288635 0.0442234 0.425146 0.406762 -0.290165 0.856865 0.135238 1.17328 -0.699013 -3.88979 -0.147739 -0.876335 -1.12812 -0.018061 -0.32715 -1.53254 -0.120502 0.878273 0.9461 -0.00957064 -0.595616 0.345612 -0.0960652
23 0.117679 -0.00223069 0.126071 -0.105916 -0.157363 -3.53971e-05 0.162288 -0.0148865 -0.037722 0.0811597 0.0683321 0.101875 0.0753873 0.0983253 -0.082769 0.126486 -0.0765574 0.157459 -0.00842262 0.319987 -0.00470696 0.0379468 0.152027 -0.0184761 0.162453 -0.250376 0.104574 -0.0262364 -0.0100488 -0.038876 -0.0797748 0.0217885 0.0259857 -0.0250354 0.0561148 -0.0171873 -0.0634088 -0.00827649 -0.0378188 0.0232947 0.055631 -0.108474 -0.00105797 -0.0214428 0.0848784 0.121891 -0.0293772 0.0800455 0.0814761 0.0480225 0.0314664 -0.0745838 -0.0112079 -0.248583 0.0843564 -0.174378 0.0683624 0.144671 0.185612 0.0372024 0.095913 0.0483063 -0.102553 0.12589 0.136972 -0.0877301 0.129008 -0.0353829 -0.142382 0.0900047 -0.00857012 -0.135937 -0.172493 -0.45925 -0.122574 0.21712 0.0562199 -0.0432791 -0.0142138 0.0201427 0.0133487 -0.00298744 -0.0830418 -0.00170967 -0.164693 -0.212297 -0.103951 -0.0576124 -0.418899 0.0979098 0.487247 0.285262 0.449878 0.206532 -0.416647 -0.33029 0.114184 -1.52513 -0.291546 0.831819 -0.16467 -0.529167 -0.0961561 0.249056 0.217219 -0.218882 0.0978256 0.569363 0.573329 -0.302499 0.900542 0.135617 0.974692 -0.672059 -3.4668 -0.150763 -0.851209 -1.17142 -0.0269537 0.0380903 -1.42047 -0.22973 0.790227 0.992202 -0.0417558 -0.523931 0.322842 -0.0821196
21 0.139314 0.0108298 0.115377 -0.0979259 -0.154205 -0.0357782 0.164507 -0.0189538 0.0407098 0.0581951 0.0513179 0.105636 0.0769157 0.144861 -0.0961312 0.164857 -0.126026 0.205876 -0.0239286 0.445652 -0.0136526 0.0254355 0.116847 -0.0336869 0.166553 -0.175264 0.0955985 0.00502436 -0.0405499 -0.0134883 -0.0101327 0.0114184 0.0724046 0.00230938 0.0636581 -0.03826 -0.0849857 0.00602911 -0.0489289 0.0541689 0.0300226 -0.148671 0.00302066 -0.024646 0.109926 0.125442 -0.040743 0.0625639 0.025746 0.0780388 0.0127167 -0.058446 -0.00402164 -0.214771 0.0371598 -0.127876 0.0599563 0.103573 0.164397 0.0243837 0.0829805 0.054636 -0.104246 0.128635 0.146306 -0.066923 0.140867 -0.0198292 -0.137319 0.0878241 0.0317599 -0.165946 -0.185682 -0.4999 -0.129947 0.227221 0.0821798 -0.0387302 -0.0488307 0.0335291 -0.00661276 0.0376882 -0.0019112 0.0418226 -0.150414 -0.168865 -0.123182 -0.127392 -0.445117 0.110282 0.47533 0.294461 0.448468 0.265818 -0.391308 -0.325632 0.0924587 -1.338 -0.277644 0.772396 -0.183961 -0.507309 -0.111147 0.237008 0.203096 -0.196877 0.0855222 0.529163 0.612801 -0.333662 0.886321 0.135496 0.950232 -0.60055 -3.27203 -0.144233 -0.822621 -1.16585 -0.0193175 0.0948968 -1.40381 -0.176786 0.742444 0.88806 -0.0387651 -0.509353 0.300336 -0.0775172
34 -0.0976178 -0.0304948 0.194599 -0.22478 -0.0654379 0.0255274 0.0200762 -0.0162197 0.129612 -0.0470138 0.0249042 0.0559578 0.0184601 0.0843008 -0.0166319 0.0749192 -0.0230166 0.0675759 -0.00635121 0.207088 -0.011799 0.0381838 0.107691 0.0127943 0.0950988 -0.0879045 0.0496587 0.000482952 -0.0300181 0.0137595 0.0724248 -0.0166583 0.0766098 0.010633 0.0419774 -0.0411249 -0.0424859 0.0260815 -0.0632848 0.0761579 -0.0525406 -0.137479 -0.0134462 -0.0637345 0.0556314 0.0663434 -0.0388122 0.0376185 -0.0273275 0.0952714 -0.0248632 -0.0463586 0.00348038 -0.242212 -0.00656463 -0.13177 0.073065 0.155573 0.257891 0.14646 -0.0963296 -0.0602061 -0.0839991 0.0260714 0.0804734 -0.144506 0.150433 -0.0554103 -0.0889872 0.0566616 -0.0899573 -0.080273 -0.169244 -0.411594 -0.0769328 0.16146 0.08849 -0.0469316 0.0436189 0.016973 0.0722479 -0.0452036 -0.285238 -0.0763395 -0.224377 -0.401127 -0.157632 -0.0892657 -0.467922 0.0844109 0.462847 0.274279 0.444443 0.124592 -0.481123 -0.346688 0.174536 -1.66388 -0.351578 0.844736 0.0785356 -0.25994 -0.00401897 0.206432 0.279729 -0.30812 0.107469 0.572608 0.497719 -0.268475 0.931769 0.121595 1.14662 -0.757479 -3.82384 -0.156601 -0.888838 -1.16458 -0.0466548 -0.376502 -1.55823 -0.196235 0.87665 0.931255 -0.014078 -0.576894 0.411883 -0.129648
20 0.159989 -0.0136151 0.252178 -0.236471 -0.303436 0.113098 0.00889608 -0.00712124 -0.0421346 0.0525061 0.093767 0.0876249 0.135521 0.165914 -0.125009 0.163154 -0.0830965 0.181814 0.0038841 0.364166 0.00611364 -0.0194842 0.134883 -0.0298956 0.131929 -0.288733 0.101525 -0.055316 -0.00337224 -0.0257918 -0.116931 0.00186672 0.0770787 -0.0312433 0.0701357 0.00579404 -0.0178183 -0.0170349 -0.0694302 0.0489275 0.0478082 -0.0817264 -0.0725007 -0.0874598 0.0291763 0.101528 -0.0125273 0.102601 0.0154861 0.0344085 0.0492363 -0.165606 -0.0315437 -0.297094 0.0979086 -0.207336 0.101397 0.143882 0.169647 0.00229341 0.211947 0.113963 -0.116967 0.203157 0.159822 -0.0842714 0.136001 -0.0339879 -0.154903 0.128254 0.068207 -0.200838 -0.207929 -0.608812 -0.163707 0.254118 0.0445699 -0.0497314 -0.0242413 0.0265669 0.0147749 -0.0128634 -0.146491 -0.0158574 -0.195174 -0.355165 -0.0901118 0.0079019 -0.36295 0.0689428 0.440051 0.248661 0.38428 0.119099 -0.42476 -0.357492 0.125346 -1.436 -0.276388 0.741449 -0.0512342 -0.362877 -0.0615561 0.195437 0.191514 -0.215406 0.0542973 0.428938 0.444288 -0.279373 0.815949 0.123558 0.942397 -0.640422 -3.26911 -0.124282 -0.826687 -1.09734 -0.0123669 0.0644445 -1.31882 -0.1818 0.714396 0.879453 -0.0355951 -0.534672 0.331946 -0.0607309
2 0.0495898 0.011822 0.146518 -0.141453 -0.130847 -0.0195487 0.230312 -0.00997783 0.0715499 0.0333286 0.0480359 0.102436 0.0427723 0.0948547 -0.0417973 0.134163 -0.0680978 0.134531 -0.013413 0.344247 -0.0147772 0.0533596 0.0910229 -0.0227842 0.116273 -0.16849 0.0707626 -0.03497 -0.013975 -0.02679 -0.00633335 -0.0144203 0.0648728 0.00299774 0.0644932 -0.0142791 0.0168665 -6.01548e-05 -0.0360389 0.101145 -0.0442726 -0.0942204 -0.0419503 -0.101308 0.0654681 0.0708098 -0.0260351 0.0538759 -0.0603932 0.0559789 0.0277496 -0.100167 -0.0117487 -0.178928 0.0198855 -0.108532 0.0870437 0.144343 0.219743 0.0697527 -0.109708 -0.108006 -0.0726977 0.0906321 0.172961 -0.0603718 0.181407 -0.0247414 -0.143188 0.0927867 0.0589369 -0.2329 -0.228847 -0.559343 -0.147561 0.288697 0.056936 -0.0629331 -0.00901361 0.0270778 -0.00622146 0.0206893 -0.163772 0.0115894 -0.212849 -0.358164 -0.0894411 -0.0159478 -0.459327 0.097646 0.433443 0.26684 0.473277 0.3298 -0.5027 -0.467837 0.103739 -1.47523 -0.351536 0.877419 -0.0721422 -0.322118 -0.0769629 0.156016 0.217776 -0.262307 0.063317 0.522071 0.659721 -0.395518 0.925627 0.147052 1.15269 -0.701176 -3.72996 -0.161815 -0.892988 -1.21639 -0.0338622 -0.314407 -1.42596 -0.0924651 0.739958 0.785793 -0.0156328 -0.433176 0.277561 -0.07662
8 0.0393104 -0.00626143 0.230416 -0.231021 -0.13192 -0.0144931 0.147007 -0.00739586 0.0793531 0.0143786 0.0342374 0.0790912 0.0846708 0.202119 -0.0992672 0.196041 -0.136844 0.20921 -0.0152375 0.480877 -0.00971279 0.0187631 0.12148 -0.0292954 0.125492 -0.11517 0.0760847 0.00078155 -0.0319616 -0.0240646 -0.0274587 -0.00823535 0.0826745 -0.0119639 0.0891276 -0.00716669 -0.0135127 -0.00613867 -0.0804758 0.136009 -0.0567388 -0.10135 -0.0438983 -0.0979779 0.0539705 0.0834044 -0.0250505 0.0819325 0.00541466 0.0441917 0.0369278 -0.0775483 -0.0323311 -0.253451 0.071987 -0.190077 0.0831977 0.139134 0.189541 0.0540347 -0.174906 -0.17936 -0.0528882 0.0110895 0.137426 -0.0587235 0.153319 -0.0333108 -0.130562 0.0827967 0.0475637 -0.216084 -0.249899 -0.562088 -0.186475 0.329486 0.0584639 -0.0627771 -0.107591 0.0576481 -0.0485308 0.112626 0.070734 0.116567 -0.170628 -0.186665 -0.127384 -0.169603 -0.541115 0.154454 0.497538 0.33338 0.571694 0.45542 -0.54644 -0.541141 0.0896085 -1.39742 -0.314933 0.795167 -0.118556 -0.358851 -0.0879996 0.129096 0.171232 -0.220472 0.0426504 0.413158 0.685542 -0.439607 0.950937 0.168128 1.1228 -0.603919 -3.35538 -0.142341 -0.83571 -1.15755 -0.00293236 -0.0105921 -1.38068 -0.0394853 0.74541 0.772008 -0.0116725 -0.530262 0.30312 -0.0677177
14 0.149038 0.00676849 0.244535 -0.247742 -0.183122 0.0143234 0.0828418 -0.0100393 -0.120124 0.112922 0.0888122 0.100983 0.0922856 0.163045 -0.13019 0.180171 -0.107395 0.181145 -0.0080767 0.390499 0.0219655 -0.0845639 0.118564 -0.0355008 0.117015 -0.179414 0.0877102 -0.0196915 0.0143017 -0.0221554 -0.168017 0.0246238 -0.0105132 -0.0374986 0.056745 0.0063026 -0.0854702 -0.00497389 -0.0862873 0.0558517 0.014035 -0.037214 -0.0907193 -0.103363 0.015854 0.0754114 0.00887432 0.0774064 0.047849 0.00248592 0.0625126 -0.121204 -0.0524252 -0.262195 0.129894 -0.25483 0.0943556 0.161428 0.164916 0.0117528 0.0368559 -0.0547236 -0.0593568 0.0737476 0.0872827 -0.0688865 0.102741 -0.0640606 -0.138952 0.104228 0.0371907 -0.188292 -0.240412 -0.566115 -0.224174 0.329891 0.0156488 -0.059622 -0.0955293 0.0660463 -0.040699 0.0717106 -0.0387491 0.0850754 -0.166689 -0.259378 -0.0431784 0.0354317 -0.314381 0.0712685 0.344566 0.223512 0.45184 0.298335 -0.538897 -0.53349 0.105884 -1.46719 -0.261364 0.683139 -0.103422 -0.369324 -0.0750888 0.11616 0.126164 -0.219745 0.0114968 0.295001 0.503249 -0.354899 0.888876 0.157938 1.13085 -0.662639 -3.46118 -0.131092 -0.803752 -1.0652 0.00591806 -0.0429326 -1.23916 -0.0753582 0.738474 0.80613 -0.0165045 -0.576245 0.312354 -0.0566686
11 0.186101 0.0114794 0.356314 -0.363295 -0.242068 -0.0241943 0.313803 -0.0250039 0.00246727 0.0923397 0.107205 0.159919 0.0960626 0.180685 -0.0928113 0.211423 -0.0946991 0.216622 -0.0225474 0.492382 -0.0158784 0.111012 0.247413 -0.0198205 0.265196 -0.343339 0.163562 -0.0404363 -0.0312899 -0.0422616 -0.0474385 0.017507 0.0228826 -0.0303093 0.0771164 -0.0465287 -0.110174 0.0106173 -0.0840161 0.0885522 0.0464626 -0.217876 0.0145204 -0.0347895 0.154515 0.178449 -0.0559474 0.0967693 0.0949735 0.105662 0.027997 -0.0789161 -0.0132129 -0.377944 0.0894864 -0.245438 0.0752547 0.215419 0.270217 0.137809 -0.148242 -0.12454 -0.0857316 0.0324884 0.141676 -0.114106 0.16587 -0.0557177 -0.173881 0.0969038 -0.0158716 -0.211289 -0.246301 -0.575023 -0.136684 0.28124 0.091431 -0.0753294 -0.00410925 0.0357499 0.00536219 0.0304159 -0.140459 0.0203051 -0.268113 -0.466689 -0.143434 -0.071684 -0.548466 0.123727 0.543813 0.3407 0.547298 0.315171 -0.487747 -0.427275 0.131437 -1.5833 -0.350919 0.845531 -0.040309 -0.407881 -0.064707 0.210744 0.263101 -0.313042 0.0948201 0.597097 0.596771 -0.371954 0.982774 0.144018 1.19 -0.745791 -3.84829 -0.161179 -1.04865 -1.41344 -0.0397107 -0.293905 -1.63131 -0.176882 0.874289 0.983315 -0.03736 -0.657035 0.393441 -0.123239
5 0.12841 -0.00898108 0.310899 -0.318684 -0.203683 -0.0247702 0.242712 -0.0282355 -0.0209093 0.0926865 0.0739931 0.132678 0.103353 0.196904 -0.0912362 0.194486 -0.0910994 0.203106 -0.0056891 0.450105 -0.0203352 0.115004 0.265092 0.0140509 0.223003 -0.30685 0.138456 -0.0223437 -0.0376802 -0.0410254 -0.0278196 0.0158591 0.063007 -0.022285 0.0919555 -0.0347361 -0.0981726 -0.000572839 -0.0718378 0.0758665 0.0239254 -0.186706 0.028702 -0.0185439 0.132268 0.168435 -0.05906 0.119512 0.102825 0.0977153 0.0327634 -0.063886 -0.0243827 -0.401402 0.13591 -0.287646 0.0553641 0.251118 0.297997 0.212516 -0.187042 -0.173995 -0.0610981 -0.0626367 0.0980777 -0.130234 0.152457 -0.0693414 -0.177564 0.0989648 -0.0361352 -0.173691 -0.246316 -0.524115 -0.143805 0.260146 0.0682441 -0.0794027 0.0136704 0.0444334 0.0305771 0.0348168 -0.171217 0.0231136 -0.256911 -0.486404 -0.143861 -0.0902031 -0.464125 0.104686 0.448369 0.287496 0.598114 0.374634 -0.547513 -0.477565 0.136658 -1.6896 -0.348847 0.853441 -0.0898524 -0.422856 -0.05635 0.173974 0.218832 -0.312625 0.0834854 0.543127 0.61952 -0.392929 1.04223 0.153309 1.25214 -0.713077 -3.98633 -0.158411 -1.07225 -1.47702 -0.0351186 -0.202816 -1.75267 -0.119647 0.954185 0.993903 -0.0144173 -0.63379 0.368058 -0.123066
7 0.177482 -0.00442388 0.391005 -0.396593 -0.13219 -0.0509511 0.344938 -0.0312855 -0.127595 0.152101 0.124583 0.149821 0.0836466 0.111916 -0.10699 0.171598 -0.0596941 0.191238 -0.0176856 0.406442 0.00279619 0.0707475 0.280405 -0.00394861 0.23326 -0.304693 0.158037 -0.0162914 -0.0110541 -0.0589563 -0.11626 0.0348795 -0.0106218 -0.0603398 0.0832399 -0.0264134 -0.148256 -0.00467034 -0.117606 0.0848521 0.0738413 -0.184015 0.00940312 -0.0111238 0.152732 0.223387 -0.0450308 0.14393 0.23633 0.100319 0.0565843 -0.0661207 -0.0359608 -0.504124 0.232912 -0.432086 0.0496193 0.357896 0.334043 0.262352 -0.309293 -0.269583 -0.041741 -0.14656 0.0166939 -0.181558 0.0965875 -0.124694 -0.13962 0.06131 -0.192805 -0.104349 -0.240057 -0.433992 -0.125311 0.222189 0.0336084 -0.0819402 0.0326828 0.0420719 0.0189284 0.0393316 -0.177296 0.0283188 -0.301265 -0.585189 -0.141864 -0.0519444 -0.508998 0.111245 0.525022 0.334446 0.649449 0.365808 -0.577427 -0.516849 0.155679 -1.74603 -0.345326 0.80377 -0.0788868 -0.439899 -0.0685101 0.17996 0.224112 -0.335048 0.0715213 0.569918 0.549651 -0.388652 1.05257 0.16667 1.32437 -0.737603 -4.13754 -0.160939 -1.08308 -1.43226 -0.0188634 -0.232876 -1.84274 -0.140736 1.03708 1.11182 -0.003423 -0.674367 0.384869 -0.126656
12 0.111407 -0.000719947 0.207367 -0.192925 -0.230553 0.0196944 0.135984 -0.0136753 0.108376 0.00686202 0.036131 0.0916424 0.118346 0.279836 -0.106969 0.233204 -0.158111 0.244646 -0.0134815 0.591665 -0.0253851 0.0143664 0.122039 -0.0372432 0.137769 -0.160436 0.0912376 -0.0112767 -0.0731803 -0.00114848 0.0514621 -0.0323603 0.21295 0.0307353 0.12438 -0.0168688 0.0763941 -0.00909228 -0.0963294 0.230267 -0.166811 -0.128816 -0.103592 -0.208573 0.000398204 0.0269329 -0.037711 0.110575 -0.2272 0.0445591 0.0162303 -0.167178 -0.0418059 -0.183406 -0.00530927 -0.0818557 0.0838015 0.098666 0.195415 0.0554671 -0.00373046 -0.0492331 -0.0824007 0.100524 0.192909 -0.0415902 0.195489 -0.00639933 -0.196111 0.132149 0.13373 -0.253972 -0.225142 -0.577242 -0.163222 0.287608 0.0891622 -0.0612623 -0.0560144 0.0457789 -0.0144813 0.0477405 -0.0627514 0.0444201 -0.167305 -0.229818 -0.0882364 -0.0713122 -0.392458 0.0949013 0.377296 0.252829 0.524893 0.400978 -0.481832 -0.454473 0.0788028 -1.22852 -0.259081 0.67705 -0.137551 -0.386191 -0.076384 0.146807 0.153168 -0.209657 0.0600202 0.401931 0.632631 -0.374384 0.883497 0.135283 0.93404 -0.556433 -2.89931 -0.128605 -0.825868 -1.16335 -0.0348436 -0.192108 -1.16848 -0.0839589 0.631411 0.674929 -0.026721 -0.467194 0.282152 -0.0709275
13 0.0660066 0.018617 0.288814 -0.341745 -0.0477536 -0.100875 0.118858 0.0158454 0.0502193 0.0809456 0.0605444 0.122357 0.0678786 0.141152 -0.0338721 0.164922 -0.118094 0.182227 0.00325816 0.399337 -0.02105 0.0953762 0.10344 -0.0161338 0.0859399 -0.13804 0.0490421 -0.0227666 0.0349766 -0.100298 -0.0587832 -0.00229706 0.0159847 -0.0136374 0.0875072 -0.00262482 0.0521657 0.00502136 -0.0831687 0.2552 -0.129062 -0.0688611 -0.0596625 -0.145389 0.0813957 0.0751046 -0.0279354 0.0470208 -0.0627591 0.0346405 0.0269183 -0.134001 -0.0111228 -0.201694 0.00258951 -0.0583885 0.0788729 0.080085 0.180572 0.0195085 -0.210698 -0.223133 -0.0104826 0.00567011 0.154285 -0.0158782 0.164003 -0.00524705 -0.144874 0.0746181 0.118794 -0.2705 -0.237498 -0.551116 -0.154137 0.29615 0.0573898 -0.0798394 -0.115453 0.043269 -0.0496403 0.0750459 -0.00475657 0.0817408 -0.118478 -0.0650132 -0.0429989 -0.0490487 -0.401021 0.115037 0.322548 0.213266 0.588763 0.554203 -0.649901 -0.639795 0.0609108 -1.42196 -0.310702 0.856687 -0.266253 -0.536555 -0.140879 0.191801 0.1701 -0.209616 0.0524671 0.489023 0.840087 -0.502026 1.03366 0.188014 1.11613 -0.660141 -3.26972 -0.152745 -0.818061 -1.15317 -0.0281505 -0.162601 -1.28159 -0.069158 0.663006 0.708638 -0.0253303 -0.479066 0.297426 -0.038666
18 0.141309 -0.0179726 0.316841 -0.324093 -0.301625 0.112783 -0.14122 -0.0100403 0.177098 -0.0939731 0.0327405 0.0470799 0.133231 0.241301 -0.141945 0.199014 -0.0975038 0.198066 0.00886801 0.480166 8.91963e-05 0.0575033 0.15042 -0.0250787 0.125511 -0.217292 0.0920624 -0.0320873 -0.0395404 -0.00791035 -0.0323852 -0.032756 0.162554 -0.0188591 0.100751 0.0135366 0.0389661 -0.0176296 -0.0931539 0.139359 -0.059918 -0.0738844 -0.0883246 -0.125545 -0.0073126 0.0650556 -0.0092694 0.136321 -0.0762362 0.0249169 0.0453063 -0.181005 -0.059777 -0.251357 0.0434799 -0.169698 0.138559 0.110436 0.19144 -0.0177752 0.0274653 -0.0521244 -0.0927671 0.0920422 0.191113 -0.0743238 0.195614 -0.0358495 -0.162352 0.130878 0.0875566 -0.224624 -0.248202 -0.63238 -0.208885 0.323658 0.0350297 -0.0673959 -0.0505523 0.056894 -0.0038653 0.065548 -0.0700617 0.0515952 -0.198738 -0.363189 -0.134794 -0.131529 -0.475457 0.122087 0.491839 0.30431 0.50686 0.320796 -0.501771 -0.462908 0.114813 -1.4182 -0.289176 0.701557 -0.0434916 -0.29319 -0.0571823 0.128138 0.192418 -0.235287 0.045971 0.410841 0.519751 -0.34317 0.872998 0.140632 1.06094 -0.602056 -3.31282 -0.129448 -0.825032 -1.12349 0.00517254 0.067415 -1.30311 -0.0711759 0.735108 0.789318 -0.00568027 -0.506795 0.270692 -0.0642654
10 0.0660466 -0.0141369 0.0968313 -0.0192466 -0.185608 0.0151907 0.488177 -0.0225111 -0.206042 0.144094 0.119749 0.110598 0.106135 0.151919 -0.0809225 0.122767 -0.0545535 0.129415 -0.0130681 0.288695 -0.00803008 -0.046746 0.120638 -0.0139493 0.0570563 -0.187641 0.0554827 -0.0469913 -0.0836525 0.0152027 -0.0197548 -0.015022 0.179109 0.0106988 0.0901095 0.0235278 -0.00212528 -0.0217899 -0.0346789 0.0198872 -0.0264081 -0.0724873 -0.0705176 -0.123141 -0.0324344 0.0182335 -0.00704125 0.0872374 -0.0611332 0.00633979 0.0422683 -0.0473227 -0.0358006 -0.208352 0.129439 -0.228187 0.0206756 0.224133 0.192586 0.169592 0.0974162 0.047144 -0.0687196 0.0490141 0.0751521 -0.0759968 0.0677216 -0.0506344 -0.123662 0.0847176 -0.00667944 -0.130213 -0.162587 -0.362434 -0.108713 0.183488 0.0645499 -0.0353214 -0.0280486 0.0330884 -0.018225 0.0386115 -0.027974 0.050882 -0.169495 -0.210739 -0.105971 -0.0761797 -0.409145 0.0865331 0.434951 0.287888 0.534547 0.301782 -0.48879 -0.459047 0.104861 -1.58565 -0.299643 0.826459 -0.19513 -0.468489 -0.111267 0.173516 0.127508 -0.18717 0.0460327 0.340226 0.386348 -0.26937 0.681496 0.117391 0.834154 -0.468114 -3.11976 -0.128009 -0.752581 -1.0307 -0.0113578 0.0332701 -1.38191 -0.109715 0.714126 0.844976 -0.0278515 -0.488719 0.308996 -0.0865832
32 0.11474 0.00845519 0.137949 -0.123685 -0.170304 0.000812127 0.196794 -0.0231871 0.0521544 0.0484827 0.0673093 0.116359 0.0416043 0.130722 -0.0785329 0.153891 -0.106002 0.164803 -0.036932 0.415549 -0.00142585 -0.0927756 0.0537541 -0.0558162 0.154507 -0.0818411 0.0814163 0.0135024 -0.0391585 0.0199395 -0.0105626 -0.00377841 0.0756346 0.00611113 0.0627784 -0.039847 -0.0855678 0.0218789 -0.0909482 0.0987027 -0.0203295 -0.154442 -0.0689018 -0.116685 0.0743475 0.102758 -0.0270816 0.058101 -0.0411108 0.0685293 0.0139333 -0.103578 -0.0172398 -0.250344 0.0329487 -0.177518 0.0785577 0.138384 0.202014 0.0597829 0.0253447 -0.000692658 -0.100279 0.116705 0.120313 -0.099114 0.126581 -0.0465403 -0.110402 0.0818977 0.00857863 -0.168789 -0.210679 -0.517666 -0.142238 0.249254 0.0583602 -0.0387561 -0.0374589 0.0387068 -0.0101615 0.0320837 -0.0881448 0.0250521 -0.195146 -0.305301 -0.109279 -0.0461209 -0.44109 0.0956793 0.470015 0.29061 0.436383 0.213684 -0.446906 -0.388794 0.119676 -1.36731 -0.293694 0.732075 -0.0337549 -0.350313 -0.0684266 0.184804 0.219023 -0.263721 0.0685134 0.479709 0.499082 -0.308128 0.926158 0.143098 1.07641 -0.69385 -3.72603 -0.15458 -0.876178 -1.15304 -0.022389 -0.235011 -1.52422 -0.168327 0.85822 0.980408 -0.0319009 -0.615591 0.391933 -0.10627
29 0.0750305 -0.000822594 0.306608 -0.228054 -0.253076 0.0605587 0.489265 -0.0136573 -0.0375194 0.00609604 0.125279 0.0979145 0.0883773 0.0613555 -0.11338 0.124923 -0.0133442 0.118766 -0.0348486 0.381921 0.00936251 -0.0120449 0.055936 -0.0884115 0.054795 -0.0942476 0.0597393 -0.0439254 -0.0969417 0.0397636 -0.0428501 -0.0547615 0.207739 0.00293907 0.100092 0.0280081 0.0377579 -0.028433 -0.0930806 0.147257 -0.0530089 -0.0358888 -0.150457 -0.163607 -0.0547481 0.0247088 0.0316994 0.117883 -0.0441234 0.00375537 0.084775 -0.115837 -0.0718661 -0.173983 0.10005 -0.242157 0.0789652 0.227786 0.182285 0.090013 -0.0837163 -0.114888 -0.0768641 0.0582937 0.116944 -0.0647018 0.106623 -0.0727447 -0.0919406 0.0727058 -0.0491885 -0.18274 -0.208689 -0.386086 -0.123058 0.225193 0.0179736 -0.0145484 -0.0150451 0.023566 -0.0634815 0.0736287 0.0306424 0.0757694 -0.204109 -0.288423 -0.120099 -0.0762514 -0.455617 0.0970247 0.507989 0.322511 0.394072 0.219689 -0.271658 -0.289494 0.0909997 -1.09385 -0.248344 0.593953 -0.141953 -0.500258 -0.151862 0.225333 0.225677 -0.218969 0.0443014 0.465889 0.448239 -0.293554 0.792261 0.127681 0.923934 -0.599642 -3.4244 -0.150625 -0.760368 -0.974943 0.00513457 -0.106186 -1.20199 -0.149518 0.64251 0.829487 -0.027411 -0.43605 0.248412 -0.095519
31 0.181201 -0.0240494 0.236978 -0.271444 -0.18282 0.0588228 -0.284804 -0.0114852 0.157141 -0.0719142 0.00557824 0.0362674 0.0911298 0.124182 -0.0931456 0.10686 -0.0603787 0.130914 0.00968959 0.248683 -0.00181314 0.0629911 0.124814 -0.0056301 0.139042 -0.168454 0.080636 0.00959643 0.00861485 -0.032252 -0.0409469 0.00971578 0.0252925 -0.0390704 0.0351189 -0.0163593 -0.0796335 0.0042252 -0.0649191 0.049362 0.0464514 -0.0951238 0.0146427 0.0345223 0.0667799 0.117886 -0.0178369 0.0868996 0.0504893 0.052093 0.00789717 -0.124764 -0.0225517 -0.238098 0.0354629 -0.134985 0.125922 0.0607342 0.153569 -0.0708395 0.12329 0.0437934 -0.100908 0.112621 0.161158 -0.0882988 0.168527 -0.0221989 -0.106777 0.0868404 0.0196928 -0.117587 -0.184094 -0.505624 -0.151057 0.215927 0.0410199 -0.0567206 -0.0547208 0.0385511 0.026409 0.0414749 -0.0254041 0.0314211 -0.137788 -0.20475 -0.159407 -0.198758 -0.46827 0.135934 0.530342 0.306272 0.422813 0.189705 -0.438201 -0.34402 0.121023 -1.42385 -0.267307 0.729444 -0.102844 -0.387345 -0.071759 0.203265 0.213745 -0.210286 0.0762819 0.515012 0.509245 -0.294849 0.879854 0.14054 0.987367 -0.600837 -3.24491 -0.124431 -0.712723 -0.966086 0.00540372 0.243493 -1.31321 -0.152706 0.765562 0.881991 -0.00970084 -0.479563 0.263298 -0.0632885
16 0.1249 0.00105519 0.0617721 -0.0542917 -0.118433 -0.039347 0.0967418 -0.0247933 0.0667971 0.0393048 0.0265528 0.0930038 0.065195 0.156355 -0.0713532 0.145431 -0.10385 0.171847 -0.0169518 0.387462 -0.0158951 0.0316602 0.133799 -0.0135931 0.184093 -0.17915 0.0959526 0.0112694 -0.030371 -0.0194221 0.0033782 0.0175419 0.0502124 -0.00155167 0.0589159 -0.0371599 -0.0793106 0.00819043 -0.046543 0.0552616 0.00583704 -0.151823 0.0231548 -0.0198674 0.104845 0.115796 -0.0457481 0.0643626 0.0194346 0.0798556 -6.3249e-05 -0.0629324 -0.00291699 -0.228228 0.0312036 -0.116469 0.0650146 0.105683 0.190261 0.0470858 0.0788115 0.0484601 -0.0993597 0.116296 0.138449 -0.0774038 0.143429 -0.0162934 -0.130514 0.0774021 0.00937863 -0.132232 -0.165177 -0.434219 -0.110112 0.203501 0.0895651 -0.0506613 -0.0349528 0.029647 0.0095701 0.0270965 -0.0338247 0.0246725 -0.158851 -0.163746 -0.13318 -0.143452 -0.466589 0.120855 0.501159 0.305778 0.503413 0.299665 -0.468723 -0.380874 0.105681 -1.47775 -0.301928 0.83687 -0.148799 -0.462008 -0.0895185 0.227253 0.206632 -0.220205 0.0944399 0.549481 0.599108 -0.326088 0.905277 0.13316 0.957524 -0.614819 -3.2334 -0.142901 -0.795774 -1.12052 -0.0267122 0.019927 -1.42057 -0.183958 0.760452 0.89611 -0.0338265 -0.495746 0.31084 -0.0822564
30 0.152661 0.0123439 0.234921 -0.24866 -0.108717 -0.0408925 0.143638 -0.0124105 -0.0731795 0.138474 0.0975361 0.132032 0.0652605 0.152856 -0.0771716 0.166365 -0.11123 0.190148 -0.0162255 0.375369 0.000513282 -0.106929 0.0908247 -0.0458438 0.151493 -0.106634 0.0787243 0.0013475 0.00604599 -0.0345655 -0.0699732 0.000664231 0.0393839 -0.0243278 0.0765481 -0.0251051 -0.0471345 0.0180932 -0.134358 0.193385 -0.0820196 -0.144462 -0.0934277 -0.168478 0.0573465 0.0993236 -0.0228906 0.0611338 -0.0368367 0.0683942 0.0211855 -0.137077 -0.0174396 -0.334102 0.063164 -0.212565 0.086206 0.183756 0.222095 0.0739271 8.59964e-05 -0.0124779 -0.0912279 0.118157 0.0876613 -0.120226 0.11028 -0.0503535 -0.107812 0.0538191 -0.0871441 -0.14221 -0.192113 -0.480726 -0.100848 0.221439 0.0983954 -0.0602654 -0.0780343 0.0313972 -0.00697975 0.0144825 -0.0845942 0.0181307 -0.210041 -0.2825 -0.0767644 0.0109288 -0.459747 0.0957121 0.490506 0.297749 0.574795 0.306191 -0.629942 -0.569538 0.140253 -1.74751 -0.339461 0.894875 -0.0500162 -0.335138 -0.0682714 0.172375 0.190181 -0.252245 0.0546324 0.445837 0.500571 -0.345907 0.941479 0.158395 1.09009 -0.730014 -3.65968 -0.16483 -0.935255 -1.20309 -0.0362478 -0.173148 -1.70667 -0.253155 0.914399 1.12717 -0.0467171 -0.704453 0.482727 -0.0970104
19 0.14512 0.0109126 0.153223 -0.144213 -0.129603 -0.0198597 0.0798696 -0.00680241 -0.0486853 0.0879355 0.0668893 0.0945584 0.079624 0.102948 -0.076328 0.12411 -0.0858275 0.156702 0.00239425 0.306767 -0.00525671 0.0408338 0.1194 -0.0158546 0.120342 -0.207447 0.0784204 -0.030094 0.0121375 -0.0571323 -0.0999998 0.02334 -0.0068877 -0.03406 0.0435389 0.00151611 -0.0404789 -0.00953817 -0.0429732 0.0581869 0.0345775 -0.0771535 -0.0129343 -0.0276903 0.0839638 0.109472 -0.0243972 0.0591275 0.0654107 0.0472311 0.0307728 -0.0869554 -0.00465312 -0.234969 0.059252 -0.131112 0.0675781 0.135627 0.178593 0.0328897 0.112299 0.0538802 -0.0861353 0.126584 0.121711 -0.071327 0.112737 -0.0260685 -0.125978 0.0731012 -0.000426528 -0.143099 -0.161549 -0.446738 -0.107012 0.195476 0.0564256 -0.0489714 -0.0261247 0.0197138 0.0137426 -0.0114785 -0.0771856 -0.00929614 -0.158531 -0.189579 -0.0842244 -0.0171605 -0.395273 0.0892274 0.473483 0.267411 0.458638 0.228335 -0.477362 -0.392738 0.111251 -1.53738 -0.302561 0.861999 -0.164969 -0.481607 -0.0991708 0.237163 0.194341 -0.201534 0.0831204 0.527089 0.50465 -0.286786 0.86697 0.138193 0.95159 -0.643399 -3.43519 -0.148196 -0.813392 -1.11647 -0.0249181 0.036598 -1.40184 -0.228016 0.753633 0.944244 -0.0422955 -0.51062 0.326963 -0.0717831
15 0.187831 0.000835531 0.0960908 -0.0777041 -0.167804 -0.018284 0.0484616 -0.0231686 0.0390981 0.0433269 0.0301972 0.0775538 0.0775028 0.138702 -0.0888042 0.133099 -0.100289 0.163091 -0.0144866 0.338363 -0.0127717 0.000577842 0.0961612 -0.0231897 0.142946 -0.148556 0.0734843 0.0102469 -0.0358126 -0.00833562 -0.0186566 0.0120369 0.0708413 -0.00591457 0.0536314 -0.0305167 -0.091894 0.00475357 -0.0368743 0.0117388 0.0560423 -0.125648 0.0269025 0.0118268 0.0943943 0.113114 -0.0379223 0.0616391 0.0224845 0.0612855 0.00692609 -0.0580429 -0.00397227 -0.211588 0.0356794 -0.123094 0.062616 0.119801 0.174861 0.0401881 0.108809 0.060335 -0.0965399 0.105756 0.130789 -0.0829874 0.126085 -0.0261302 -0.125657 0.0775673 0.000151636 -0.134115 -0.17574 -0.468898 -0.118518 0.210808 0.0752587 -0.0426567 -0.0219095 0.0279544 0.0140077 0.00901958 -0.0520909 0.0144953 -0.166763 -0.212053 -0.128041 -0.115244 -0.430672 0.10313 0.491176 0.294567 0.477171 0.227831 -0.442869 -0.343989 0.109657 -1.50374 -0.293805 0.829149 -0.170484 -0.504135 -0.0938011 0.241768 0.204696 -0.214681 0.0986724 0.55908 0.544396 -0.291955 0.857226 0.12318 0.912688 -0.596955 -3.37138 -0.146563 -0.800374 -1.11482 -0.0293181 0.0579709 -1.42313 -0.227318 0.760079 0.930295 -0.0383441 -0.512034 0.322979 -0.0891575
26 0.227341 0.0295396 0.390257 -0.377905 -0.21327 -0.00338743 0.143566 -0.0110791 0.247314 -0.0713718 0.0728882 0.120111 0.0502897 0.167929 -0.114003 0.216546 -0.137414 0.230521 -0.0496518 0.616228 0.000846164 -0.113873 -0.00109885 -0.127902 0.150689 0.0431896 0.0707756 0.0252626 -0.081682 0.0467932 0.0468188 -0.069242 0.20823 0.0200472 0.12668 -0.0390749 0.0326933 0.0295556 -0.237685 0.41263 -0.236907 -0.191518 -0.235509 -0.347179 -0.0214254 0.0427459 0.00148824 0.109766 -0.240385 0.0811295 0.0312274 -0.239155 -0.0523537 -0.280332 -0.0525121 -0.17421 0.147838 0.144644 0.207857 0.00453645 -0.125546 -0.108604 -0.127005 0.166006 0.157692 -0.119962 0.183614 -0.0510449 -0.095966 0.0719918 -0.0620485 -0.219619 -0.234808 -0.562931 -0.11615 0.264108 0.0997418 -0.0357945 -0.0636369 0.0294935 -0.0467358 0.0494834 -0.036753 0.0340005 -0.248614 -0.303147 -0.149885 -0.105377 -0.548974 0.112584 0.602248 0.372247 0.56502 0.285303 -0.53115 -0.470895 0.153004 -1.5276 -0.334846 0.835112 -0.0363097 -0.465629 -0.121936 0.265821 0.296696 -0.265286 0.0751788 0.578123 0.654786 -0.399481 1.08299 0.180689 1.12204 -0.774777 -3.7314 -0.175863 -1.00991 -1.29107 -0.0139359 -0.169383 -1.64531 -0.238006 0.849084 1.07412 -0.0514316 -0.664447 0.442623 -0.107512
25 0.165428 0.0153776 0.309618 -0.278492 -0.210597 0.0179673 0.163289 -0.0069741 0.203454 -0.0828581 0.0511402 0.0764909 0.0489096 0.108295 -0.0947059 0.151659 -0.0769102 0.151069 -0.0437122 0.467824 0.00453153 -0.0657447 -0.0145395 -0.105581 0.0892451 0.0561711 0.0430717 0.0212062 -0.0879505 0.0512702 0.0587375 -0.0662668 0.224944 0.0275528 0.105186 -0.0181558 0.038547 0.0128838 -0.168405 0.296997 -0.18588 -0.132144 -0.188362 -0.264927 -0.0343335 0.0245108 0.00741381 0.105297 -0.205314 0.0541193 0.0361898 -0.197343 -0.0537819 -0.204248 -0.0301022 -0.150977 0.125816 0.143556 0.196294 0.0177294 -0.0764909 -0.0872326 -0.107748 0.130108 0.149907 -0.0954947 0.167294 -0.0498693 -0.0938831 0.0782841 -0.0268462 -0.194204 -0.210306 -0.479845 -0.121736 0.243721 0.0759396 -0.0209609 -0.0486552 0.0287345 -0.0378213 0.0495041 -0.0316074 0.0349918 -0.222761 -0.267046 -0.153535 -0.123127 -0.470916 0.097205 0.538926 0.330517 0.511425 0.245331 -0.468015 -0.406298 0.137582 -1.45637 -0.323285 0.804168 -0.083775 -0.514154 -0.130659 0.27442 0.288324 -0.255308 0.0818384 0.597785 0.687962 -0.391851 1.09117 0.178777 1.08768 -0.74085 -3.82439 -0.177443 -0.947078 -1.23469 -0.008708 -0.133009 -1.54001 -0.223989 0.812121 1.02536 -0.0468059 -0.610281 0.402192 -0.107726
28 0.0668612 -0.00289129 0.162277 -0.125376 -0.129179 -0.00373016 0.364937 -0.0214142 -0.0707532 0.0964039 0.0995923 0.11471 0.0462694 0.138322 -0.0713238 0.133605 -0.0938338 0.155018 -0.0411979 0.381269 0.00159079 -0.178345 0.0514922 -0.0526591 0.101245 -0.010224 0.0531943 0.0132682 -0.0779222 0.039966 0.0144578 -0.025399 0.159195 0.0156713 0.0957414 -0.0282299 -0.0389782 0.0178892 -0.161497 0.218595 -0.14601 -0.166254 -0.1644 -0.271375 -0.017725 0.0437128 -0.0136078 0.0882473 -0.15451 0.0562732 0.0198509 -0.122415 -0.0342809 -0.295072 0.0551761 -0.242258 0.0800428 0.191618 0.214363 0.0838431 0.069306 0.0579242 -0.121211 0.15705 0.0978045 -0.128861 0.121244 -0.0545725 -0.116379 0.079798 -0.0696868 -0.14151 -0.193354 -0.464304 -0.11602 0.227162 0.103644 -0.0402354 -0.0731529 0.0460697 -0.0233854 0.0386852 -0.0744021 0.0368803 -0.219555 -0.283604 -0.112307 -0.0539915 -0.454835 0.0838268 0.467134 0.308587 0.528862 0.246511 -0.60716 -0.575802 0.150052 -1.8007 -0.333168 0.86532 -0.0505689 -0.305196 -0.068528 0.124275 0.150821 -0.213788 0.0317368 0.313467 0.472083 -0.337069 0.834645 0.149649 0.966485 -0.578497 -3.33891 -0.149363 -0.932076 -1.21853 -0.0109139 -0.0651999 -1.61584 -0.14756 0.830841 0.984648 -0.024933 -0.603772 0.405234 -0.0971089
22 0.197885 -0.0142408 0.278193 -0.293254 -0.289894 0.0684223 -0.141506 -0.0192405 0.203613 -0.0763624 -0.000718842 0.0553612 0.121089 0.272712 -0.139494 0.221021 -0.132994 0.222399 -0.00862894 0.507551 -0.0102128 0.0254774 0.151046 -0.0246637 0.177588 -0.181903 0.106354 0.00716897 -0.0471026 0.00335052 0.00556767 -0.0152053 0.146352 -0.0084797 0.0877112 -0.0233604 -0.0266919 0.000102003 -0.106245 0.146995 -0.0520027 -0.132896 -0.0538181 -0.0874308 0.0474869 0.10437 -0.0304505 0.12967 -0.054605 0.0647489 0.0233494 -0.155407 -0.0433983 -0.27494 0.0375764 -0.171047 0.126946 0.105482 0.196242 -0.0178491 -0.0240842 -0.0766658 -0.0992196 0.0737635 0.172044 -0.0858626 0.194667 -0.0336046 -0.163518 0.120601 0.0636118 -0.205163 -0.243046 -0.603124 -0.197993 0.312515 0.0654172 -0.0629112 -0.0951627 0.0665232 -0.00988496 0.0876962 0.00998197 0.0789289 -0.182077 -0.284349 -0.155486 -0.191949 -0.466425 0.134901 0.464941 0.299048 0.525756 0.346335 -0.47563 -0.426992 0.103388 -1.30237 -0.257866 0.63836 -0.0612162 -0.327385 -0.0500032 0.132025 0.176184 -0.220692 0.0578158 0.424784 0.596594 -0.365906 0.9222 0.145809 1.05032 -0.576901 -3.17392 -0.121081 -0.833359 -1.16574 0.00474228 0.12299 -1.30395 -0.0746347 0.722728 0.76143 -0.0136661 -0.555612 0.294993 -0.0751825
24 0.0869939 0.00542514 0.230357 -0.192483 -0.17889 0.0191169 0.267962 -0.0112285 -0.0200094 0.0500743 0.110353 0.106127 0.0566466 0.0814142 -0.0935355 0.13151 -0.0670407 0.149764 -0.0283763 0.378843 0.00922577 -0.0571522 0.0767483 -0.0682457 0.122642 -0.136213 0.0769868 -0.0189028 -0.0458459 0.00944829 -0.0702262 -0.0170996 0.0954354 -0.015351 0.0832466 0.000881688 -0.0206151 -0.00245796 -0.106899 0.132706 -0.0280395 -0.0996942 -0.113116 -0.147895 0.0126222 0.0874316 0.00118247 0.0976348 0.000832703 0.0467963 0.0561146 -0.130051 -0.0397855 -0.294618 0.0860754 -0.25446 0.0905127 0.225397 0.224912 0.0964264 -0.0442698 -0.0615995 -0.0995045 0.107513 0.102068 -0.117692 0.110939 -0.0773467 -0.107612 0.0788731 -0.0583586 -0.180613 -0.226638 -0.521787 -0.133597 0.247606 0.054322 -0.0352864 -0.015598 0.0211521 -0.020073 0.021761 -0.0906462 0.0222116 -0.241282 -0.365863 -0.120901 -0.0348677 -0.474217 0.0924447 0.552737 0.335427 0.489769 0.205962 -0.472911 -0.417658 0.150228 -1.61837 -0.336952 0.865323 -0.0628039 -0.461709 -0.110531 0.255572 0.242547 -0.253337 0.066561 0.522385 0.485394 -0.304662 0.971333 0.157207 1.07764 -0.734658 -3.93229 -0.167971 -0.967252 -1.24263 -0.0155705 -0.147218 -1.65806 -0.252954 0.906529 1.14457 -0.0523822 -0.671779 0.438337 -0.11147
27 0.146642 -0.0063409 0.307406 -0.299293 -0.158115 0.00752461 0.205784 -0.00744143 -0.178036 0.148643 0.146085 0.126138 0.112251 0.101551 -0.0812418 0.114426 -0.049565 0.148713 0.00810463 0.271905 -0.000246786 0.0142486 0.162573 -0.0284808 0.125319 -0.278065 0.0948774 -0.0644517 0.000644305 -0.0596829 -0.122465 0.00528877 0.0471581 -0.0346045 0.0805985 0.00680705 -0.0201592 -0.00845241 -0.0976396 0.133431 -0.0137437 -0.102658 -0.0814706 -0.119893 0.0411841 0.0960082 -0.00943215 0.0781188 0.00101651 0.0318542 0.0388239 -0.135698 -0.0204894 -0.307334 0.0954373 -0.20861 0.0788187 0.184926 0.203238 0.0648872 0.129353 0.0677423 -0.101627 0.171966 0.122487 -0.096265 0.106277 -0.0446197 -0.12397 0.0801599 -0.0537292 -0.148631 -0.174941 -0.454568 -0.0965447 0.190474 0.0731998 -0.0544751 -0.027408 0.0177851 0.00922527 -0.0157668 -0.115531 -0.0128359 -0.198941 -0.30039 -0.0775997 0.0292394 -0.426839 0.0801028 0.469125 0.266389 0.477672 0.19791 -0.506468 -0.450383 0.131917 -1.73864 -0.322463 0.895501 -0.136075 -0.441125 -0.0959406 0.220235 0.189944 -0.231763 0.0650212 0.483429 0.413119 -0.285816 0.848372 0.144787 0.985283 -0.6817 -3.46889 -0.150887 -0.880844 -1.13496 -0.0302516 -0.037774 -1.62133 -0.259609 0.863459 1.11555 -0.046915 -0.635462 0.408906 -0.0910194
