34 128
27 0.300391 -0.0776588 0.275676 -0.10372 -0.268555 0.144003 -0.151262 1.96102 -0.376142 0.140309 0.00607098 -0.735627 0.0966919 -0.223667 0.102979 -0.151661 -0.29332 -0.210033 -0.683908 0.62437 0.448498 -0.132191 -0.631157 0.389921 -0.0381375 -0.237032 0.0753005 -1.58149 0.956474 0.775506 0.188733 -0.676279 0.0404224 0.493335 -0.99448 0.0546864 0.060121 0.335981 0.223505 0.107865 -0.30134 0.0464481 0.759553 -0.170924 -0.00850102 0.481647 -0.530454 -0.259244 0.161631 0.774523 0.675362 -0.0792989 -0.525191 -0.128681 -0.142129 -0.236519 0.370695 -0.138544 -1.02975 0.375452 -0.168483 -0.090655 0.103337 -0.0928654 -0.150356 0.13735 0.494936 0.0869199 -0.194732 0.605378 1.07933 0.0668162 0.182635 -0.577144 -0.598189 0.587199 0.198414 -0.52708 0.34278 0.114507 0.346213 0.00579252 -0.165508 -0.140963 0.133068 -0.556985 -0.518462 0.354932 0.503064 0.791226 0.267895 0.795924 0.161102 -0.116897 -0.7373 0.633558 0.695166 0.636912 -0.660391 0.638096 0.0575959 0.697736 -0.705201 0.27083 0.145062 0.0125447 0.0442483 -0.0781218 0.161644 0.0426145 -0.049865 0.00515693 0.0697831 -0.101852 0.0215442 -0.401876 0.0881135 -0.349014 -0.012779 0.20074 -0.419812 -0.170803 0.233096 0.195829 -0.387717 0.116314 0.0350161 0.111089
30 0.33301 -0.112052 0.247449 -0.104622 -0.289608 0.146943 -0.248052 2.03359 -0.384115 0.163009 -0.0118418 -0.802648 0.0783652 -0.208395 0.139252 -0.262078 -0.308902 -0.290451 -0.822876 0.735548 0.414878 -0.12727 -0.635988 0.43971 -0.0516876 -0.284801 0.123407 -1.77189 0.94413 0.780612 0.217341 -0.699369 0.0447139 0.563489 -1.01173 0.078631 0.0754861 0.346948 0.094937 0.164126 -0.297885 0.00845405 0.846709 -0.221748 -0.0155974 0.412078 -0.470211 -0.210256 0.194785 0.68433 0.540547 -0.0854488 -0.485695 -0.0770728 -0.133945 -0.181664 0.401926 -0.166648 -1.13436 0.533282 -0.224683 -0.0747605 0.119431 -0.11727 -0.156059 0.124625 0.553958 0.0725455 -0.213672 0.603015 1.15363 0.0903437 0.202987 -0.578994 -0.619642 0.621058 0.192419 -0.528099 0.372016 0.130797 0.363327 0.0272063 -0.216018 -0.166488 0.177314 -0.535643 -0.51205 0.345769 0.509312 0.786948 0.288703 0.818761 0.15004 -0.0164037 -0.643373 0.592122 0.7143 0.687541 -0.661432 0.560375 0.0573644 0.516643 -0.609374 0.207309 0.149618 -0.000818786 0.0320975 -0.0518572 0.169613 0.0496022 -0.0427763 0.0429341 0.0300196 -0.0633796 -0.0387293 -0.381579 0.0368004 -0.317709 -0.034639 0.164747 -0.449812 -0.157628 0.221912 0.23003 -0.30804 0.0896172 -0.0458976 0.0512179
24 0.315597 -0.0901508 0.387709 -0.129103 -0.260675 0.0591429 -0.211141 2.04091 -0.501347 0.210461 -0.0151718 -0.880893 0.139479 -0.274149 0.0859169 -0.103384 -0.489332 -0.272058 -0.922277 0.819534 0.481463 -0.146615 -0.742615 0.4716 -0.0553593 -0.33611 0.104388 -1.81026 0.875635 0.777659 0.188898 -0.667101 0.0521373 0.495816 -0.963552 0.0940328 0.00661499 0.314427 0.138247 0.0905887 -0.262348 0.0336922 0.749176 -0.148691 -0.000943848 0.443124 -0.548687 -0.302343 0.124286 0.907372 0.665496 -0.0797939 -0.488603 -0.113438 -0.112498 -0.249403 0.413736 -0.15242 -1.16057 0.509728 -0.283205 -0.0430777 0.100838 -0.101313 -0.166874 0.170591 0.526282 0.115236 -0.219445 0.689253 1.12261 0.0395716 0.212704 -0.662308 -0.728841 0.725752 0.262664 -0.536401 0.387232 0.171723 0.406064 -0.0416395 -0.208869 -0.108025 0.139846 -0.567277 -0.501864 0.300916 0.581442 0.866263 0.332565 0.827915 0.0802342 -0.0312033 -0.682673 0.659829 0.773701 0.776999 -0.75505 0.626189 0.0907684 0.531604 -0.72505 0.224358 0.221097 -0.00702134 -0.0409052 -0.0507773 0.15237 0.0721902 0.00913958 0.0247162 0.0791074 -0.118382 -0.0309549 -0.44822 0.10411 -0.483895 0.0398826 0.228678 -0.575869 -0.202839 0.227473 0.24486 -0.357185 0.116942 -0.00172014 0.0152356
34 0.273404 -0.101455 0.345777 -0.1298 -0.281302 0.0934887 -0.314518 2.02607 -0.468413 0.23245 -0.0287005 -0.838921 0.067488 -0.207468 0.154448 -0.222245 -0.418506 -0.333247 -1.0042 0.883087 0.507695 -0.134411 -0.765287 0.487362 -0.156222 -0.30917 0.131426 -1.79394 0.830827 0.708934 0.190968 -0.623041 0.0579978 0.481746 -0.897972 0.103698 0.0152499 0.274231 0.249573 0.073144 -0.231466 0.00369511 0.584575 -0.0642899 -0.0961037 0.22733 -0.336421 -0.178945 0.189111 0.610366 0.446109 -0.0861286 -0.390039 -0.0605466 -0.0867859 -0.199038 0.381541 -0.115031 -1.22767 0.457108 -0.186185 -0.053478 0.11838 -0.0716176 -0.12453 0.143656 0.4145 0.151122 -0.191942 0.50349 0.942646 0.0193722 0.221009 -0.635008 -0.584045 0.627777 0.234053 -0.342349 0.363235 0.524184 0.4356 -0.0749271 -0.191929 -0.00925028 0.114626 -0.46099 -0.378454 0.198631 0.47712 0.729143 0.340923 0.70919 -0.00545976 0.0573215 -0.503898 0.512866 0.720657 0.749779 -0.649119 0.522266 0.0987528 0.451503 -0.63549 0.186719 0.196491 0.0326567 -0.0224418 -0.0734752 0.16911 -0.0641151 0.000623565 -0.0036805 0.15027 -0.156616 -0.000377169 -0.496456 0.0404634 -0.407494 -0.098662 0.102668 -0.573857 -0.209765 0.212821 0.330764 -0.355082 0.124376 -0.0625323 -0.0576677
33 0.274343 -0.0860172 0.330542 -0.103302 -0.26401 0.0589157 -0.214961 2.17765 -0.521928 0.2064 -0.0171519 -0.833831 0.15862 -0.291871 0.102664 -0.112532 -0.465129 -0.235555 -0.865506 0.75261 0.514996 -0.147933 -0.760538 0.44197 -0.0679994 -0.329087 0.104314 -1.80567 0.887776 0.753493 0.163272 -0.575768 0.0341116 0.456293 -0.79403 0.0939997 0.0133887 0.295326 0.195556 0.0735107 -0.249193 0.048203 0.66714 -0.0923001 -0.0683425 0.324363 -0.384651 -0.229586 0.229719 0.618973 0.442027 -0.0877626 -0.418169 -0.112396 -0.103797 -0.224861 0.416972 -0.155667 -1.16153 0.452363 -0.229789 -0.0386004 0.123184 -0.0761113 -0.128106 0.159959 0.398368 0.157584 -0.173684 0.573383 1.02766 0.0514833 0.180644 -0.621557 -0.643027 0.636065 0.201593 -0.436741 0.351847 0.4368 0.392963 -0.0730308 -0.144143 -0.00905347 0.0942376 -0.456609 -0.425224 0.260831 0.477431 0.733475 0.30465 0.687664 0.0618377 -0.071832 -0.712149 0.635291 0.766825 0.743804 -0.769434 0.696277 0.0903102 0.610892 -0.641404 0.246269 0.157124 0.0297249 0.000281768 -0.068982 0.159043 -0.0508509 -0.0497242 -0.040921 0.159154 -0.157919 0.0593727 -0.424453 0.108162 -0.365338 -0.00981989 0.145829 -0.465717 -0.166472 0.182386 0.232455 -0.29682 0.071512 0.0282244 0.0489028
23 0.352947 -0.074694 0.460527 -0.174941 -0.251841 0.111944 -0.0910003 1.71913 -0.330683 0.145178 -0.0044731 -0.577328 0.182696 -0.279805 0.0499696 -0.026773 -0.430469 -0.202591 -0.756703 0.678324 0.424589 -0.125127 -0.622558 0.403471 -0.00658953 -0.247851 0.0810456 -1.3939 0.820746 0.681712 0.157634 -0.57904 0.0580184 0.377827 -0.864112 0.0454533 -0.00610007 0.327585 0.235286 0.0543236 -0.235061 0.0183032 0.564194 -0.0753793 -0.0561379 0.36541 -0.479445 -0.24011 0.115964 0.755624 0.57654 -0.0542276 -0.40954 -0.109734 -0.087153 -0.26018 0.319534 -0.0996394 -0.931694 0.364604 -0.197556 -0.0764611 0.0750388 -0.0747027 -0.160256 0.160396 0.487033 0.09438 -0.211156 0.724422 1.10711 0.041573 0.198053 -0.619689 -0.660946 0.666475 0.292348 -0.574255 0.383704 0.0539342 0.359138 -0.0151771 -0.206138 -0.171335 0.144334 -0.604573 -0.537111 0.338079 0.573481 0.855452 0.297753 0.832377 0.101515 -0.0578681 -0.614171 0.597906 0.703972 0.680438 -0.685415 0.604235 0.0769241 0.505842 -0.68467 0.200842 0.197138 0.00222161 -0.0369504 -0.056435 0.113748 0.12645 0.0523702 0.0403325 0.021225 -0.0822021 -0.0554764 -0.372227 0.11307 -0.44246 0.117693 0.287685 -0.496722 -0.197135 0.209035 0.158002 -0.378552 0.15132 0.00632896 0.0103464
31 0.319251 -0.0721858 0.393819 -0.158925 -0.279277 0.155366 -0.092506 2.02908 -0.397536 0.14799 0.00482039 -0.713968 0.123343 -0.218576 0.0620374 -0.0762575 -0.283148 -0.161152 -0.583424 0.525385 0.459317 -0.0896683 -0.557833 0.331043 -0.0257374 -0.241851 0.0461992 -1.28801 0.716675 0.637641 0.136835 -0.51449 0.00646912 0.386824 -0.616204 0.0669166 0.00725894 0.271363 0.246925 0.033896 -0.185465 0.0285288 0.476025 -0.0712931 -0.0828041 0.296165 -0.43489 -0.233501 0.109503 0.680576 0.5515 -0.0849472 -0.5464 -0.0850099 -0.182316 -0.134199 0.349717 -0.153382 -0.935074 0.399473 -0.194584 -0.0301172 0.082055 -0.0553447 -0.117848 0.138603 0.435891 0.0858365 -0.166399 0.773931 1.07323 0.0926405 0.147957 -0.539413 -0.59069 0.558895 0.180206 -0.555785 0.322933 0.0643062 0.347169 -0.0285148 -0.144351 -0.0867549 0.103678 -0.541122 -0.443614 0.27034 0.477053 0.694876 0.319323 0.688861 0.0623277 -0.0327151 -0.559545 0.539448 0.622655 0.642126 -0.584699 0.496302 0.0890598 0.472122 -0.543298 0.171345 0.135307 0.0350348 0.00601905 -0.0692817 0.128451 -0.0123866 -0.0274447 -0.0350292 0.0845116 -0.117787 0.0314635 -0.328918 0.0861882 -0.304462 0.00810789 0.148469 -0.396282 -0.140442 0.178677 0.210116 -0.286996 0.0825096 0.0408175 0.0529459
2 0.184846 -0.046192 0.358494 -0.116581 -0.234413 0.0579178 -0.158114 2.00006 -0.416924 0.179342 -0.0299814 -0.80533 0.168575 -0.251537 0.0837567 -0.0346264 -0.417319 -0.202576 -0.743901 0.610985 0.42986 -0.0936473 -0.671242 0.387126 0.0750123 -0.333201 0.0972289 -1.71023 0.830106 0.652524 0.160523 -0.568348 0.0475042 0.370752 -0.910564 0.0463016 0.0419446 0.153072 -0.0393368 0.0939564 -0.209913 0.0257517 0.648014 -0.145464 0.0215195 0.27901 -0.371256 -0.185729 0.117985 0.520609 0.412045 -0.0429855 -0.305935 -0.0834524 -0.0814689 -0.210068 0.404363 -0.133299 -1.17945 0.532727 -0.200766 -0.0526514 0.0568116 -0.082953 -0.170783 0.16851 0.490738 0.0707281 -0.164671 0.59162 0.954747 0.0498797 0.16757 -0.556394 -0.640018 0.598994 0.195278 -0.449735 0.331546 0.126936 0.340695 -0.0233672 -0.176388 -0.130641 0.109505 -0.431699 -0.458599 0.316799 0.530537 0.789229 0.26088 0.775356 0.106466 -0.070305 -0.567321 0.543018 0.683659 0.659551 -0.616487 0.545951 0.05127 0.41584 -0.541157 0.163191 0.175209 -0.00996301 -0.022784 -0.0462282 0.099927 0.110887 0.0157409 0.0254874 0.080006 -0.118323 -0.0125204 -0.437722 0.0613446 -0.363804 0.037601 0.241433 -0.505057 -0.190009 0.238688 0.216077 -0.353062 0.115212 0.0268926 0.0574643
22 0.260042 -0.0422736 0.521753 -0.213644 -0.280303 0.173004 -0.0329325 1.88694 -0.340687 0.129117 0.00572839 -0.56738 0.286312 -0.324302 -0.00372951 0.0430175 -0.38126 -0.116121 -0.6224 0.525592 0.532825 -0.059983 -0.602985 0.402757 0.148998 -0.361395 0.0754405 -1.53294 0.838432 0.641224 0.138061 -0.493795 0.0310922 0.335179 -0.62603 0.052607 0.0419592 0.227661 0.0647004 0.0939092 -0.194395 0.0273132 0.65333 -0.138213 -0.0312437 0.320262 -0.419404 -0.235854 0.107099 0.624943 0.46548 -0.0973418 -0.543323 -0.0597931 -0.176402 -0.136085 0.359412 -0.161146 -0.964536 0.488693 -0.253201 -0.0148257 0.112598 -0.0591899 -0.120774 0.168049 0.460961 0.102662 -0.161108 0.85332 1.24633 0.132193 0.157563 -0.587468 -0.661133 0.623286 0.182882 -0.515673 0.324432 0.195535 0.295208 -0.036342 -0.134834 -0.0555541 0.101059 -0.474777 -0.434893 0.27555 0.502945 0.716424 0.337742 0.717067 0.0515793 -0.0230346 -0.537574 0.530435 0.630914 0.65251 -0.579142 0.481062 0.0995149 0.326701 -0.476552 0.12389 0.121828 0.0427528 -0.0314763 -0.0552226 0.12202 0.00894353 0.0130064 -0.0403776 0.13818 -0.135776 0.0430506 -0.314312 0.092324 -0.359573 0.095721 0.18638 -0.453684 -0.155075 0.166721 0.21659 -0.295284 0.0804658 0.0457208 0.00880826
1 0.191449 -0.0350418 0.381754 -0.123368 -0.180593 0.0288866 -0.124789 2.1441 -0.540033 0.221382 -0.0269595 -0.920119 0.156377 -0.25802 0.0919814 -0.0110065 -0.518325 -0.219266 -0.874404 0.742916 0.432796 -0.119376 -0.709577 0.365097 -0.0332769 -0.309704 0.0750885 -1.67256 0.670396 0.60716 0.129784 -0.525631 0.0253413 0.386514 -0.813459 0.0606808 -0.01465 0.145169 0.124165 0.00377352 -0.168397 0.0499609 0.473068 -0.0641098 -0.0226672 0.228567 -0.351808 -0.207551 0.122041 0.62997 0.482733 -0.0420282 -0.267324 -0.13009 -0.0916369 -0.225513 0.349559 -0.095872 -1.11482 0.399915 -0.200576 -0.0319859 0.0235577 -0.0615065 -0.15733 0.172328 0.374771 0.112863 -0.158245 0.647124 0.925881 0.0613736 0.139789 -0.568113 -0.650046 0.576521 0.170233 -0.427883 0.31633 0.106318 0.424469 -0.0713751 -0.161499 -0.0638523 0.0703886 -0.489312 -0.434304 0.263486 0.524285 0.786405 0.297168 0.706592 0.0541676 -0.0942911 -0.651348 0.613367 0.75415 0.735122 -0.684674 0.631921 0.077642 0.485209 -0.563167 0.147141 0.225112 0.000114256 -0.023498 -0.0528522 0.0953555 0.119323 0.0889343 0.0274573 -0.0198743 -0.128844 -0.111155 -0.464624 0.000472329 -0.340768 -0.167711 0.073568 -0.473392 -0.176145 0.200364 0.300776 -0.328225 0.139953 -0.0455654 -0.0239318
11 0.236275 -0.0313898 0.353943 -0.127083 -0.245834 0.0635065 -0.117852 1.85044 -0.416125 0.154523 -0.0280566 -0.623522 0.243803 -0.335895 0.0202074 0.0506734 -0.55513 -0.172611 -0.766914 0.625777 0.597797 -0.098997 -0.748801 0.454537 0.130146 -0.396087 0.0962831 -1.72954 1.05577 0.808525 0.160406 -0.644828 0.0670927 0.412354 -0.98412 0.0667309 0.046528 0.189425 -0.0916793 0.124587 -0.242387 0.0538075 0.841623 -0.205096 -0.0131863 0.389897 -0.490244 -0.283386 0.135062 0.758916 0.557564 -0.0792102 -0.384953 -0.123302 -0.112755 -0.278729 0.381683 -0.102994 -1.0909 0.477057 -0.264659 -0.0394133 0.0491566 -0.0756019 -0.17276 0.205795 0.427121 0.105156 -0.169979 0.841123 1.22035 0.114666 0.131456 -0.601723 -0.734391 0.638731 0.174723 -0.539813 0.342273 0.15856 0.330953 -0.0501629 -0.165523 -0.125791 0.0865769 -0.509765 -0.522931 0.388567 0.619526 0.879833 0.279073 0.827472 0.150381 -0.234789 -0.74933 0.683769 0.782706 0.735255 -0.651107 0.609739 0.0849952 0.44341 -0.56855 0.128574 0.228794 0.00399433 -0.0470953 -0.0328169 0.0912086 0.201111 0.122203 0.0397763 0.00643059 -0.113658 -0.162443 -0.38829 0.0072627 -0.414877 -0.0494809 0.178263 -0.516666 -0.182555 0.205331 0.275335 -0.438326 0.155985 -0.0396102 -0.0301474
6 0.335828 -0.0594971 0.464423 -0.150788 -0.246156 0.0197812 0.00530576 2.23458 -0.446664 0.235305 -0.0317855 -0.668196 0.384323 -0.444178 0.10792 0.121453 -0.569777 -0.146399 -0.870243 0.711526 0.520738 -0.137906 -0.791548 0.417491 0.143993 -0.377942 0.096985 -1.80679 1.16002 0.896495 0.190082 -0.670561 0.0614391 0.381172 -1.08063 -0.00630195 0.00208809 0.194552 -0.084812 0.0704548 -0.231929 0.0562443 0.772375 -0.102906 -0.00536697 0.427404 -0.473549 -0.277278 0.190243 0.679991 0.539198 -0.0237032 -0.429144 -0.171506 -0.127287 -0.34112 0.392607 -0.0818443 -1.16167 0.483868 -0.329266 -0.054382 0.0136742 -0.0925788 -0.186527 0.192563 0.405367 0.0792813 -0.200768 0.74727 1.2147 0.111796 0.163988 -0.719539 -0.8063 0.683209 0.285306 -0.495686 0.381316 0.390687 0.419809 -0.0994412 -0.129981 0.0225561 0.0864347 -0.565732 -0.484829 0.303698 0.578911 0.893382 0.308089 0.817514 0.04379 -0.0758852 -0.726449 0.681224 0.828341 0.766146 -0.843246 0.83306 0.0814636 0.597087 -0.727703 0.195682 0.195611 0.0399118 -0.00221051 -0.0948565 0.133389 0.119562 0.0997013 0.0354909 0.0386794 -0.183999 -0.00267154 -0.520127 0.0195318 -0.385237 -0.176735 0.0973716 -0.498904 -0.235913 0.235279 0.274416 -0.365998 0.207324 -0.0598321 -0.0315303
13 0.20709 -0.0109081 0.477324 -0.166093 -0.194808 0.0710255 -0.0387576 1.66555 -0.38323 0.103936 0.00346848 -0.651167 0.375671 -0.452201 -0.0509001 0.0977572 -0.608169 -0.123545 -0.718479 0.621182 0.416949 -0.121875 -0.6118 0.440609 0.122423 -0.314496 0.106886 -1.57353 0.921809 0.643037 0.151026 -0.581439 0.0872987 0.371155 -0.998713 0.0234859 0.0477089 0.204748 -0.0447116 0.138864 -0.216334 0.0614462 0.684409 -0.152166 0.132186 0.484784 -0.480783 -0.281665 0.104281 0.722035 0.523412 -0.0761195 -0.323077 -0.0953275 -0.0767432 -0.208485 0.263978 -0.100292 -0.785368 0.357998 -0.207354 -0.0475907 0.0971658 -0.0901791 -0.117788 0.133097 0.341854 0.0736608 -0.122146 0.575642 0.979001 0.116463 0.0997137 -0.453316 -0.556556 0.484153 0.132606 -0.438385 0.276565 0.117057 0.199785 0.00249778 -0.151012 -0.199738 0.102997 -0.41129 -0.50794 0.416176 0.45051 0.681224 0.157887 0.683629 0.195991 -0.238767 -0.732123 0.598703 0.685937 0.546339 -0.618547 0.646303 0.0357666 0.413512 -0.444664 0.168454 0.112366 0.00952164 -0.0326048 -0.0234488 0.0666322 0.17924 0.0614805 0.0463448 0.00616221 -0.0506623 -0.109073 -0.273962 0.118005 -0.375081 0.191843 0.308051 -0.411203 -0.161825 0.148588 0.0902336 -0.317054 0.0877209 0.00499554 0.0391555
4 0.235992 -0.0769802 0.300351 -0.094712 -0.204926 0.0459522 -0.159545 1.79695 -0.436491 0.19384 -0.0250537 -0.7188 0.166384 -0.238781 0.0588709 -0.0123992 -0.434197 -0.193162 -0.753403 0.628481 0.439346 -0.0795856 -0.645647 0.396838 0.112151 -0.395229 0.0976919 -1.72891 0.790679 0.679567 0.168469 -0.559693 0.0434854 0.420252 -0.813497 0.0774736 0.0349486 0.179986 -0.101593 0.114963 -0.205318 0.00578619 0.738115 -0.196464 -0.0622878 0.245258 -0.376429 -0.186607 0.116851 0.570589 0.46899 -0.0553817 -0.370191 -0.0695965 -0.112732 -0.189687 0.428012 -0.151622 -1.14091 0.627856 -0.274529 -0.0243674 0.0438263 -0.0889233 -0.171031 0.17148 0.549884 0.054995 -0.169259 0.651856 1.00097 0.0744942 0.141254 -0.56868 -0.705451 0.624174 0.178636 -0.448942 0.315246 0.161484 0.317068 -0.0317465 -0.160693 -0.0793641 0.0937761 -0.404773 -0.413011 0.273485 0.511946 0.712245 0.263102 0.702899 0.0767712 -0.0630833 -0.530784 0.524638 0.669691 0.671132 -0.61636 0.526558 0.0733328 0.381091 -0.537811 0.132632 0.182046 0.00466087 -0.0116558 -0.0500791 0.101001 0.0791779 0.0247385 0.0191898 0.0687201 -0.119907 -0.0282175 -0.376015 -0.0234847 -0.295443 -0.139155 0.0784396 -0.444069 -0.155493 0.199859 0.253833 -0.261417 0.109163 -0.0515459 -0.0267649
8 0.287882 -0.0588174 0.487131 -0.185503 -0.251612 0.0827078 -0.153876 1.72539 -0.421215 0.170598 -0.013155 -0.561714 0.325979 -0.407868 0.0143642 -0.0152769 -0.496129 -0.189095 -0.796687 0.688202 0.482018 -0.109969 -0.625413 0.455106 0.0121464 -0.345274 0.121571 -1.55335 0.953183 0.728034 0.160996 -0.588751 0.0714679 0.409468 -0.751049 0.079308 0.0387794 0.211209 -0.075091 0.139042 -0.190523 0.0243851 0.694178 -0.154195 0.0651559 0.390098 -0.43305 -0.281103 0.0666906 0.693998 0.521452 -0.0874677 -0.399541 -0.069678 -0.0988093 -0.169962 0.319693 -0.130782 -0.890001 0.476057 -0.318381 -0.00357448 0.0770984 -0.0990459 -0.141777 0.168528 0.382656 0.092469 -0.137014 0.762912 1.32094 0.194334 0.0906353 -0.5518 -0.668324 0.56689 0.128471 -0.39296 0.290508 0.228428 0.233944 -0.0376907 -0.157435 -0.113179 0.0939514 -0.444713 -0.46528 0.362737 0.524901 0.706679 0.199818 0.687253 0.111513 -0.179775 -0.628175 0.54916 0.710181 0.616013 -0.684257 0.652057 0.0693506 0.284348 -0.464988 0.130982 0.134782 0.0489251 -0.0400706 -0.0508271 0.112467 -0.00117315 -0.0026321 -0.0191719 0.101139 -0.104357 -0.0736393 -0.295223 0.0478191 -0.340456 0.0804353 0.166404 -0.430726 -0.148286 0.115986 0.164158 -0.221325 0.0599046 -0.0448389 -0.0541114
5 0.320279 -0.0533673 0.485564 -0.15475 -0.234636 0.036049 -0.0361587 1.93008 -0.422327 0.192083 -0.0270364 -0.615896 0.335338 -0.398122 0.0499228 0.115059 -0.554874 -0.149713 -0.768379 0.627808 0.502925 -0.115055 -0.724616 0.409942 0.142744 -0.371345 0.0898733 -1.66901 1.03949 0.812556 0.17235 -0.617851 0.0654982 0.353616 -0.931108 0.0231888 -0.00422515 0.203491 -0.0427982 0.06868 -0.221819 0.0453318 0.719146 -0.102535 -0.0612834 0.360361 -0.419454 -0.233132 0.197635 0.62448 0.436634 -0.0352412 -0.367232 -0.147133 -0.0848844 -0.334044 0.40757 -0.101112 -1.123 0.478945 -0.313317 -0.0464924 0.0491861 -0.0819435 -0.187882 0.20817 0.430583 0.105288 -0.20056 0.816812 1.15972 0.0700086 0.168205 -0.675267 -0.791636 0.704189 0.286353 -0.539307 0.384553 0.309952 0.378626 -0.0820962 -0.145256 -0.0400056 0.0901469 -0.542015 -0.501671 0.333424 0.572974 0.860622 0.292393 0.788268 0.0730293 -0.119966 -0.658877 0.629838 0.741728 0.705764 -0.71672 0.681346 0.084189 0.474682 -0.640851 0.144305 0.220883 0.00942582 -0.0556438 -0.0523187 0.0831636 0.209942 0.136206 0.0407783 0.00899248 -0.147898 -0.0923533 -0.444804 0.0143317 -0.404436 -0.0820852 0.167751 -0.524353 -0.227347 0.22086 0.271192 -0.399061 0.204616 -0.0540495 -0.0457363
7 0.280113 -0.0431837 0.454979 -0.163344 -0.272764 0.0516654 -0.14674 2.03245 -0.487202 0.200707 -0.0261378 -0.771169 0.2666 -0.371202 0.0583506 0.00640524 -0.559362 -0.220499 -0.88002 0.723585 0.569385 -0.131531 -0.830389 0.51067 0.0803287 -0.403853 0.126723 -1.89352 1.08454 0.862117 0.180831 -0.666649 0.0748328 0.447521 -0.989967 0.0783954 0.018034 0.24428 0.0471896 0.0930913 -0.248363 0.0371683 0.725068 -0.107079 -0.101481 0.311143 -0.435678 -0.23585 0.19277 0.677182 0.456399 -0.0774872 -0.30501 -0.109797 -0.0742231 -0.30365 0.382808 -0.089095 -1.1789 0.493138 -0.259361 -0.0626305 0.060317 -0.0906414 -0.183676 0.20844 0.431195 0.122916 -0.198387 0.821428 1.31481 0.111229 0.178643 -0.67812 -0.805795 0.7281 0.240568 -0.565173 0.422351 0.307742 0.386914 -0.0510635 -0.222644 -0.157517 0.126011 -0.571962 -0.564195 0.412618 0.678897 0.977335 0.310274 0.919997 0.115931 -0.162374 -0.704943 0.675319 0.826669 0.792881 -0.704388 0.625664 0.0901481 0.388423 -0.563749 0.0979105 0.243465 0.00553522 -0.0610953 -0.0358502 0.105903 0.191439 0.131264 0.0535865 0.0075167 -0.11437 -0.206204 -0.453738 -0.021598 -0.454086 -0.0832534 0.175389 -0.636726 -0.236968 0.229792 0.333498 -0.478561 0.184133 -0.0920358 -0.0785779
18 0.256805 -0.039478 0.469448 -0.203958 -0.2615 0.156921 -0.0376759 1.65789 -0.292996 0.106829 0.0125229 -0.512842 0.249642 -0.294897 -0.00781056 0.052087 -0.374038 -0.112257 -0.587188 0.488413 0.53506 -0.0637487 -0.589599 0.408496 0.158978 -0.351217 0.0791482 -1.39992 0.883006 0.661502 0.146959 -0.53676 0.0418724 0.347901 -0.661326 0.0608604 0.0415947 0.219176 0.0821173 0.0860435 -0.188038 0.0152797 0.607844 -0.126803 -0.112231 0.250428 -0.379786 -0.205528 0.12837 0.579491 0.443386 -0.0988835 -0.460982 -0.0489887 -0.139674 -0.151584 0.315322 -0.127216 -0.91362 0.469852 -0.231121 -0.0297035 0.0933287 -0.057022 -0.124882 0.161348 0.442586 0.0898669 -0.156755 0.780151 1.16865 0.121535 0.148373 -0.556579 -0.609831 0.575303 0.187342 -0.483375 0.314557 0.279173 0.273072 -0.0270471 -0.144197 -0.0807352 0.0995726 -0.452334 -0.407352 0.277908 0.469372 0.668549 0.293933 0.67872 0.051875 -0.0434301 -0.441946 0.450672 0.56744 0.591744 -0.462774 0.365284 0.0913396 0.281077 -0.458503 0.0961032 0.140556 0.0401099 -0.0261081 -0.0515176 0.124582 0.026234 0.0294116 -0.0238568 0.13538 -0.127635 -0.0158822 -0.310494 0.0241133 -0.354195 0.011855 0.151895 -0.470108 -0.167776 0.167869 0.248088 -0.359913 0.118575 -0.0198399 -0.0381344
14 0.215768 -0.0333613 0.38858 -0.137502 -0.212683 0.0757468 -0.0393827 1.91614 -0.396505 0.120645 0.00737724 -0.716143 0.211488 -0.305636 0.0549681 -0.0250607 -0.41514 -0.117151 -0.615062 0.524371 0.414741 -0.122903 -0.577567 0.334082 0.0159774 -0.258027 0.0748538 -1.52451 0.796024 0.655391 0.145075 -0.550642 0.0163959 0.408523 -0.805854 0.0355332 0.0329374 0.292994 0.132513 0.0902081 -0.241171 0.0721437 0.665899 -0.115999 -0.0578376 0.382815 -0.413146 -0.231454 0.199963 0.610069 0.482298 -0.0859926 -0.411775 -0.120795 -0.143264 -0.210912 0.296334 -0.113267 -0.855211 0.333256 -0.187075 -0.052806 0.0926338 -0.081031 -0.128739 0.138933 0.380247 0.0850986 -0.135906 0.672 1.15441 0.15893 0.107637 -0.531277 -0.651495 0.540772 0.109335 -0.517008 0.287297 0.149373 0.277382 -0.0112249 -0.114059 -0.118266 0.0792365 -0.417966 -0.471674 0.355793 0.436401 0.67754 0.228126 0.67437 0.140835 -0.163044 -0.7139 0.587511 0.709862 0.598387 -0.638462 0.67332 0.054261 0.558972 -0.556355 0.209789 0.110432 0.0444046 0.0375419 -0.0743381 0.128903 0.0783612 -0.025562 -0.0182479 0.0911433 -0.124299 0.0196753 -0.365554 0.0868366 -0.348811 0.0239741 0.200333 -0.428737 -0.160598 0.202098 0.190169 -0.318963 0.0879515 0.00791445 0.0777698
3 0.199501 -0.0508444 0.311717 -0.0920197 -0.255905 0.0623591 -0.196307 1.95373 -0.442226 0.145462 -0.0189308 -0.754868 0.204211 -0.305226 0.0397064 -0.0636522 -0.428922 -0.18218 -0.69265 0.59024 0.446909 -0.120274 -0.667914 0.398688 0.00249913 -0.333693 0.0884455 -1.67798 0.764351 0.637265 0.140591 -0.533843 0.0261014 0.387834 -0.788903 0.0781021 0.028229 0.242165 0.0453375 0.0984369 -0.228007 0.0551481 0.672255 -0.12014 0.0170586 0.368549 -0.410054 -0.236378 0.174505 0.58266 0.354222 -0.0785077 -0.398044 -0.0805836 -0.0969508 -0.178571 0.40573 -0.18115 -1.07786 0.499684 -0.232052 -0.0200324 0.1421 -0.0742536 -0.118159 0.151468 0.407744 0.126764 -0.143488 0.603125 0.828963 0.0285154 0.171046 -0.499983 -0.585717 0.58339 0.17591 -0.509326 0.332368 0.201533 0.304086 -0.0349716 -0.143169 -0.0865672 0.103404 -0.358088 -0.453637 0.301931 0.467685 0.709211 0.292737 0.689979 0.113084 -0.0949235 -0.699012 0.640087 0.714233 0.702627 -0.667616 0.566733 0.0816457 0.461133 -0.501099 0.168262 0.157814 -0.00909751 -0.0516529 -0.0168825 0.0884338 0.133363 0.0621168 0.012097 0.0642281 -0.113486 -0.0617246 -0.349025 0.064729 -0.351036 0.0571333 0.201681 -0.46729 -0.164598 0.180136 0.230235 -0.32618 0.0894188 0.0269916 0.0365983
9 0.309819 -0.0820536 0.338795 -0.110874 -0.222305 0.0625304 -0.179145 1.53719 -0.380541 0.16927 -0.0256243 -0.53476 0.20664 -0.303855 0.028668 -0.0112222 -0.483251 -0.210152 -0.781094 0.680928 0.430986 -0.103085 -0.632887 0.4196 0.017699 -0.327835 0.0980112 -1.48015 0.792096 0.655477 0.141584 -0.522198 0.0617586 0.361798 -0.720649 0.0813378 -0.000613691 0.243034 0.0141622 0.105467 -0.213769 0.0136952 0.663905 -0.151179 0.0082623 0.340296 -0.426296 -0.239126 0.109344 0.710598 0.476696 -0.0623758 -0.428827 -0.0860669 -0.0828461 -0.199573 0.368201 -0.14478 -1.00607 0.517109 -0.297825 -0.0160454 0.0893355 -0.0870378 -0.146628 0.164057 0.481007 0.102822 -0.175542 0.695363 1.0135 0.0461975 0.150491 -0.553068 -0.659355 0.644281 0.230584 -0.519176 0.355321 0.121881 0.308927 -0.0348375 -0.192028 -0.133085 0.117204 -0.511124 -0.505204 0.325907 0.547032 0.752224 0.274253 0.742143 0.12472 -0.13315 -0.687786 0.641718 0.736598 0.705964 -0.732824 0.634935 0.0859866 0.448705 -0.632913 0.211436 0.176355 -0.00229635 -0.0533345 -0.0476318 0.128109 0.0107579 -0.0167639 -0.00771369 0.102029 -0.10248 -0.0283198 -0.30365 0.111021 -0.402135 0.129948 0.244637 -0.446579 -0.146928 0.165691 0.138144 -0.263893 0.0789505 0.0243445 0.00815146
16 0.393461 -0.118362 0.303149 -0.103571 -0.257607 0.0901533 -0.181699 1.69779 -0.369372 0.175482 -0.0146415 -0.675181 0.141252 -0.264943 0.0565279 -0.0394207 -0.448932 -0.236209 -0.820884 0.743878 0.457324 -0.132789 -0.649059 0.412161 -0.0544035 -0.263309 0.079522 -1.45664 0.859053 0.761666 0.178504 -0.637922 0.066785 0.445597 -0.952732 0.0750345 -0.0119787 0.332706 0.171619 0.0669615 -0.243977 0.016324 0.614021 -0.119914 -0.0491991 0.375541 -0.489795 -0.251084 0.109103 0.804777 0.630585 -0.0522078 -0.417279 -0.112242 -0.0819258 -0.249542 0.332865 -0.104443 -0.982458 0.425025 -0.221238 -0.0578608 0.0575842 -0.089105 -0.164002 0.156814 0.523987 0.0768306 -0.217635 0.696792 1.04471 0.0345102 0.17024 -0.610965 -0.622036 0.61085 0.26427 -0.515229 0.346278 0.0179539 0.349173 -0.0157965 -0.200433 -0.15703 0.135226 -0.594501 -0.515494 0.32045 0.5376 0.776957 0.261244 0.771513 0.0888973 -0.0314149 -0.56142 0.548708 0.658414 0.643345 -0.660139 0.562532 0.0749582 0.549393 -0.707689 0.229139 0.192644 -0.00400043 -0.0179624 -0.078828 0.15212 0.0261802 -0.0341163 0.0132861 0.107637 -0.104145 0.0410087 -0.408646 0.111008 -0.429674 0.0759443 0.254949 -0.473537 -0.173086 0.226521 0.141964 -0.355361 0.126401 0.0134825 0.0381719
28 0.26063 -0.0872835 0.206513 -0.0353138 -0.252673 0.0164313 -0.235975 1.8604 -0.449096 0.150902 -0.0236182 -0.757522 0.176329 -0.323343 0.0486991 -0.0827827 -0.447734 -0.203158 -0.76395 0.663109 0.491285 -0.142275 -0.681727 0.35816 -0.128091 -0.292732 0.0659617 -1.60201 0.875209 0.812168 0.141962 -0.574826 -0.000433827 0.46463 -0.756125 0.116379 0.0361818 0.292287 0.0504371 0.109513 -0.261266 0.0867492 0.820869 -0.168659 0.0210975 0.531542 -0.571516 -0.368021 0.195589 0.853572 0.625215 -0.114271 -0.610473 -0.15534 -0.174633 -0.240988 0.457282 -0.200576 -1.2146 0.512032 -0.304957 0.00050996 0.152813 -0.088762 -0.139902 0.19245 0.491719 0.171872 -0.173698 0.759831 1.06732 0.0769419 0.149415 -0.600005 -0.696389 0.636518 0.158792 -0.56104 0.326516 0.369254 0.376046 -0.0906217 -0.0947317 0.040306 0.0695094 -0.388943 -0.422728 0.250777 0.478763 0.740983 0.360371 0.664811 0.0821956 -0.120691 -0.834631 0.747756 0.812164 0.810105 -0.786911 0.6989 0.116598 0.674534 -0.650775 0.245831 0.18191 0.0143121 -0.020437 -0.0383275 0.149379 0.0344964 0.0132806 -0.0380371 0.154962 -0.185493 0.0428891 -0.409192 0.0709897 -0.408455 -0.104829 0.0788571 -0.52249 -0.160654 0.182231 0.341171 -0.35647 0.0695702 0.0336963 0.0435986
10 0.198971 -0.0802639 0.127508 -0.0169479 -0.165001 0.00987882 -0.0995213 1.54848 -0.379574 0.132893 -0.00384095 -0.689278 0.117598 -0.219518 0.000808055 0.096031 -0.469223 -0.114225 -0.610796 0.526273 0.402915 -0.0973731 -0.548621 0.291047 0.0215202 -0.274718 0.0510563 -1.339 0.814078 0.714473 0.146986 -0.567436 0.045647 0.416025 -0.903882 0.075271 0.0388628 0.220977 -0.0168684 0.115323 -0.252778 0.0634938 0.793887 -0.230341 -0.0306468 0.399008 -0.458261 -0.271939 0.115862 0.726012 0.672185 -0.0751908 -0.393838 -0.133513 -0.132833 -0.22088 0.353721 -0.112966 -0.979212 0.489194 -0.23097 -0.0309919 0.051341 -0.0885743 -0.158336 0.172875 0.550671 0.0629702 -0.148701 0.64942 1.08111 0.129964 0.0605152 -0.54002 -0.638755 0.501788 0.109877 -0.396637 0.252152 0.246559 0.255336 -0.0359661 -0.107008 -0.0726734 0.0600647 -0.412634 -0.403715 0.298742 0.455331 0.622924 0.193156 0.605251 0.115733 -0.170199 -0.649549 0.546391 0.653272 0.583366 -0.626921 0.627246 0.0779227 0.704597 -0.697351 0.286043 0.142513 0.0376905 0.046835 -0.102149 0.188286 -0.0980048 -0.124844 -0.0606746 0.272273 -0.194745 0.180316 -0.416297 0.0800826 -0.363887 -0.0638529 0.139993 -0.42175 -0.141453 0.22279 0.159365 -0.319804 0.0748479 0.0210428 0.0738377
32 0.261154 -0.0636074 0.29275 -0.0851991 -0.243455 0.0469492 -0.182083 1.77855 -0.390998 0.153922 -0.0206441 -0.69654 0.220505 -0.326873 0.0244959 0.00683365 -0.502671 -0.199844 -0.80352 0.693472 0.527621 -0.140124 -0.752825 0.453912 -0.00330849 -0.339968 0.0863933 -1.66787 0.871797 0.744022 0.15322 -0.580332 0.046145 0.383022 -0.846395 0.0704291 -0.0103507 0.264031 0.152475 0.0430428 -0.214531 0.0490493 0.574289 -0.0523999 -0.0266631 0.369547 -0.443083 -0.259382 0.176428 0.712171 0.44887 -0.0701224 -0.394329 -0.121778 -0.0787149 -0.255724 0.361431 -0.121312 -1.0958 0.426952 -0.246912 -0.0364569 0.112609 -0.0667635 -0.135503 0.175368 0.388843 0.149183 -0.192433 0.6861 0.911709 0.00350568 0.198654 -0.582534 -0.620076 0.630616 0.248514 -0.53514 0.388888 0.262555 0.389177 -0.0672185 -0.166296 -0.0625862 0.113014 -0.471653 -0.457754 0.254566 0.531025 0.814166 0.351702 0.748592 0.0597651 -0.0350016 -0.711691 0.687282 0.728079 0.75985 -0.677465 0.537872 0.101363 0.516072 -0.626129 0.197704 0.205255 -0.0117786 -0.0675382 -0.0312388 0.123911 0.127314 0.0710255 0.0128797 0.12198 -0.158089 0.00102786 -0.453692 0.119493 -0.499342 0.0643112 0.235699 -0.610598 -0.210722 0.214703 0.27565 -0.443231 0.129777 0.0414518 0.0287487
21 0.342081 -0.0888568 0.368899 -0.132315 -0.231026 0.0956157 -0.130248 1.68376 -0.348229 0.149679 -0.0132206 -0.537094 0.160298 -0.263055 0.0570125 -0.0519117 -0.390144 -0.200064 -0.708809 0.628462 0.419641 -0.106068 -0.588451 0.382653 0.016424 -0.276783 0.083028 -1.39936 0.83407 0.688697 0.162155 -0.581224 0.0578809 0.391469 -0.860092 0.0490073 0.0208913 0.253708 0.0621093 0.0921679 -0.231343 0.0246664 0.669609 -0.154119 -0.000630067 0.388044 -0.484861 -0.253846 0.103253 0.751933 0.587414 -0.0637043 -0.485639 -0.104428 -0.106581 -0.216504 0.378101 -0.14445 -0.980469 0.460411 -0.254147 -0.0421774 0.0851952 -0.0905171 -0.147284 0.156281 0.507383 0.0912078 -0.192351 0.713795 1.08432 0.0486133 0.162971 -0.583249 -0.645941 0.634752 0.23626 -0.537687 0.343414 0.0442715 0.315177 -0.0182367 -0.178988 -0.144488 0.125086 -0.55158 -0.513314 0.328332 0.535102 0.764949 0.265427 0.756583 0.128126 -0.104205 -0.647128 0.601289 0.671676 0.638521 -0.691691 0.62458 0.074074 0.520482 -0.667928 0.236955 0.165025 0.00485929 -0.0242634 -0.0655371 0.128218 0.0347374 -0.0269699 -0.00153622 0.0576017 -0.0842192 -0.00983303 -0.311178 0.10375 -0.364345 0.0891528 0.232551 -0.391551 -0.150779 0.179717 0.122739 -0.266662 0.09196 0.0346097 0.0438343
29 0.232787 -0.0678201 0.279542 -0.0519007 -0.118688 -0.0545314 -0.0495769 1.48234 -0.484002 0.16636 0.000999794 -0.742526 0.162142 -0.272293 -0.0578563 0.254871 -0.614886 -0.0677706 -0.693815 0.611575 0.496832 -0.105781 -0.655468 0.367333 0.0617576 -0.353762 0.0311288 -1.39189 0.718783 0.668177 0.1056 -0.521018 0.055788 0.337641 -0.813846 0.0785938 -0.0428862 0.233299 0.0353331 0.0496375 -0.211264 0.0933358 0.671982 -0.157562 -0.0387447 0.337899 -0.442609 -0.313662 0.0234502 0.857954 0.741915 -0.0628968 -0.422487 -0.174019 -0.123533 -0.26128 0.33319 -0.0905848 -0.91087 0.40113 -0.262163 0.00251818 0.0162358 -0.0633521 -0.143354 0.203267 0.405858 0.105033 -0.153838 0.768488 1.08869 0.0900191 0.0721104 -0.612663 -0.762524 0.614708 0.194235 -0.425467 0.276243 0.188368 0.327805 -0.105981 -0.0959296 -0.00377504 0.0111311 -0.446813 -0.328634 0.167879 0.466411 0.672856 0.26308 0.562557 0.0179653 -0.150514 -0.683494 0.613498 0.693088 0.671044 -0.6746 0.642679 0.101251 0.583082 -0.681485 0.22579 0.214983 0.019081 -0.0372211 -0.0821754 0.110051 0.02009 0.0255646 -0.0391592 0.174147 -0.193736 0.0895153 -0.435396 0.110337 -0.459587 -0.0611175 0.139885 -0.513843 -0.181418 0.205525 0.192678 -0.341749 0.147753 0.000677883 -0.025408
25 0.300391 -0.0876077 0.347825 -0.0911928 -0.237187 0.00893536 -0.169291 1.80985 -0.435796 0.14449 -0.0221504 -0.68087 0.261647 -0.396996 -0.0426864 0.083085 -0.606112 -0.167796 -0.8405 0.759545 0.588752 -0.149898 -0.739984 0.440047 -0.100472 -0.315114 0.051002 -1.57963 0.896003 0.822656 0.136297 -0.629689 0.0377656 0.429868 -0.863723 0.107674 -0.0251635 0.327872 0.140334 0.0642124 -0.229759 0.0920722 0.666452 -0.116671 0.0256345 0.492791 -0.544798 -0.363755 0.0938511 0.959234 0.712336 -0.105024 -0.57371 -0.161217 -0.125972 -0.267893 0.389993 -0.166628 -1.09028 0.407015 -0.271902 0.00858479 0.144869 -0.0572893 -0.126175 0.201949 0.409735 0.190416 -0.195865 0.824877 1.01556 0.0139918 0.184213 -0.632448 -0.682225 0.683457 0.257426 -0.577014 0.35697 0.230695 0.415225 -0.10491 -0.132646 0.0162692 0.0775558 -0.461464 -0.401003 0.170584 0.494397 0.7814 0.393812 0.650057 -0.00154896 -0.025929 -0.725918 0.713344 0.757162 0.813106 -0.739412 0.59746 0.135643 0.582202 -0.680883 0.224559 0.232403 -0.0120038 -0.0937145 -0.0330164 0.121869 0.138844 0.0891148 -0.0154158 0.151196 -0.1848 0.0534747 -0.470263 0.1479 -0.564339 0.0695809 0.233829 -0.652677 -0.212154 0.212979 0.276694 -0.443696 0.14395 0.0363678 -0.00667989
26 0.293364 -0.0795127 0.453739 -0.140046 -0.274702 0.0571272 -0.163251 1.7891 -0.45347 0.138932 -0.00847855 -0.693222 0.311593 -0.423451 -0.0890339 0.0875225 -0.575292 -0.159305 -0.83784 0.761915 0.557914 -0.135284 -0.701886 0.456267 -0.0569835 -0.334348 0.0671805 -1.61179 0.895629 0.788 0.136627 -0.599036 0.0404389 0.421192 -0.754409 0.121451 -0.000734305 0.344961 0.11362 0.0961367 -0.232082 0.0749268 0.695213 -0.122138 0.0774266 0.533546 -0.605228 -0.399301 0.0611673 1.01728 0.728731 -0.123257 -0.616397 -0.127168 -0.13024 -0.233659 0.42826 -0.222027 -1.12216 0.512196 -0.324444 0.0168303 0.192039 -0.0736132 -0.127217 0.20395 0.479897 0.200546 -0.19721 0.820965 1.06292 0.0104537 0.20808 -0.635681 -0.685453 0.718225 0.277403 -0.578435 0.36678 0.249075 0.37571 -0.0931208 -0.140875 -0.00408391 0.0956616 -0.41831 -0.394939 0.167329 0.502157 0.777514 0.411563 0.674815 -0.00237201 0.00636092 -0.711266 0.706365 0.751634 0.821187 -0.751979 0.565614 0.139103 0.449225 -0.596131 0.181739 0.21705 -0.0168541 -0.119716 0.00155358 0.0955518 0.178363 0.112219 -0.00957063 0.146052 -0.158691 0.0469933 -0.407612 0.167703 -0.570208 0.171415 0.264291 -0.65323 -0.204765 0.183326 0.263207 -0.395135 0.105513 0.0668911 -0.00443451
15 0.385586 -0.0893367 0.388829 -0.152749 -0.269101 0.120878 -0.177187 1.70077 -0.366075 0.167803 -0.0178541 -0.582736 0.181119 -0.281489 0.0833316 -0.116789 -0.395297 -0.247634 -0.763151 0.681099 0.392103 -0.120916 -0.621523 0.430382 -0.0113821 -0.27545 0.10511 -1.45095 0.820776 0.673656 0.175493 -0.579779 0.063619 0.403831 -0.778475 0.0581539 0.00606967 0.284662 0.164198 0.0770981 -0.217832 -0.00248244 0.566939 -0.0911224 -0.0151113 0.33999 -0.447652 -0.215782 0.13184 0.696473 0.44713 -0.0500024 -0.427262 -0.0721404 -0.0709187 -0.20904 0.350244 -0.132753 -0.966428 0.441968 -0.253403 -0.0601144 0.0869167 -0.0923541 -0.145339 0.131703 0.439676 0.0877954 -0.19848 0.67389 1.07543 0.044975 0.200372 -0.578089 -0.643014 0.665998 0.252762 -0.557245 0.380285 0.0376284 0.323257 0.00183096 -0.220028 -0.182373 0.162338 -0.575772 -0.535365 0.35394 0.545679 0.794008 0.267861 0.791636 0.146275 -0.0758845 -0.649921 0.617225 0.710339 0.679761 -0.713776 0.604547 0.0674645 0.440561 -0.648331 0.202614 0.176529 -0.00222042 -0.0396991 -0.0451777 0.127658 0.0700029 0.00735112 0.0350972 0.0136577 -0.0565915 -0.0964238 -0.319056 0.11187 -0.405267 0.161209 0.294953 -0.466342 -0.172225 0.18949 0.138785 -0.313517 0.10706 0.00619336 0.0169884
12 0.193185 -0.00898507 0.405555 -0.137402 -0.191283 0.0602278 -0.0509252 1.36426 -0.260817 0.104866 -0.0317184 -0.301594 0.397821 -0.423797 -0.0246367 0.125775 -0.483444 -0.123087 -0.623328 0.488328 0.458951 -0.0722997 -0.598004 0.399439 0.239316 -0.378784 0.104663 -1.50767 1.09649 0.733279 0.156533 -0.569484 0.0945616 0.308664 -0.92196 0.0191409 0.047792 0.111248 -0.180344 0.12624 -0.184502 0.0369201 0.723795 -0.162026 0.0914273 0.403966 -0.433001 -0.247325 0.132395 0.585552 0.375986 -0.0621344 -0.342884 -0.0796408 -0.074904 -0.215395 0.346465 -0.119069 -0.913318 0.445404 -0.271791 -0.0273752 0.0982502 -0.0683971 -0.125825 0.162716 0.347275 0.0943668 -0.136337 0.652894 0.919778 0.0547278 0.140667 -0.463986 -0.529016 0.517182 0.204414 -0.423503 0.317082 0.296839 0.244696 -0.0403343 -0.139999 -0.0871778 0.0992046 -0.428483 -0.479606 0.35255 0.479925 0.694361 0.221171 0.669696 0.127511 -0.173844 -0.65365 0.590768 0.653562 0.599367 -0.623715 0.58469 0.0666028 0.345595 -0.488068 0.152741 0.137413 0.0142479 -0.0575911 -0.0345434 0.0892483 0.0944369 0.0484643 0.00189083 0.110869 -0.12549 -0.0162654 -0.302384 0.0956007 -0.374781 0.140661 0.264573 -0.414788 -0.163867 0.156249 0.143363 -0.309366 0.109502 0.0166311 -0.00142756
20 0.239952 -0.0311199 0.375057 -0.150488 -0.245219 0.141315 0.00867274 1.8338 -0.328058 0.119773 0.00979615 -0.614259 0.233045 -0.294215 0.0371152 0.0342774 -0.336592 -0.0978026 -0.568454 0.485212 0.484633 -0.0859097 -0.587428 0.34657 0.0978011 -0.270471 0.0543875 -1.37929 0.848914 0.663069 0.145914 -0.535945 0.0277247 0.342654 -0.76674 0.0200513 0.0348195 0.253835 0.180753 0.0549211 -0.211322 0.051774 0.52766 -0.0666707 -0.0844756 0.326152 -0.391582 -0.202629 0.179529 0.534036 0.44211 -0.0694148 -0.421138 -0.106135 -0.142913 -0.212271 0.287272 -0.0852078 -0.821394 0.263952 -0.135945 -0.0717151 0.0826236 -0.0447976 -0.112113 0.133139 0.347831 0.087623 -0.16152 0.642668 0.984044 0.0742617 0.15656 -0.542961 -0.566711 0.528733 0.194723 -0.480355 0.307484 0.217316 0.322167 -0.0270116 -0.113343 -0.0519565 0.0883728 -0.464068 -0.409444 0.25871 0.413288 0.664096 0.279616 0.649242 0.0797463 -0.0625324 -0.59751 0.544309 0.607307 0.596552 -0.562177 0.526308 0.0769343 0.555961 -0.581099 0.190447 0.132109 0.0283216 0.0211732 -0.0742183 0.143143 0.0391723 -0.011655 -0.0220993 0.0986082 -0.131998 0.0601037 -0.371373 0.0968609 -0.346437 0.00579727 0.186073 -0.404292 -0.164235 0.204575 0.210496 -0.375495 0.128873 0.0345746 0.0683628
19 0.304382 -0.0818707 0.283231 -0.0987215 -0.223174 0.106068 -0.106479 1.64408 -0.324111 0.138304 -0.00525464 -0.590304 0.123957 -0.217108 0.054946 -0.0484534 -0.345227 -0.181131 -0.66279 0.59171 0.420603 -0.100933 -0.574052 0.357365 -0.00367081 -0.239218 0.0668294 -1.36542 0.770019 0.651399 0.162857 -0.578367 0.0381013 0.393844 -0.846253 0.0441789 0.0270917 0.254828 0.139021 0.0733554 -0.228932 0.0243303 0.596501 -0.120299 -0.00570245 0.38772 -0.495934 -0.251321 0.108654 0.733685 0.593883 -0.0612864 -0.459546 -0.102458 -0.124379 -0.208997 0.353324 -0.127933 -0.944844 0.400729 -0.203625 -0.0578201 0.0738076 -0.0885496 -0.151985 0.141801 0.528869 0.0681957 -0.195312 0.6776 1.06089 0.0571528 0.168696 -0.583764 -0.644962 0.620046 0.21928 -0.554531 0.348744 0.0314283 0.34194 -0.00316089 -0.186849 -0.159202 0.134155 -0.553968 -0.514061 0.336615 0.521486 0.757621 0.273894 0.763473 0.121689 -0.0736834 -0.646847 0.602447 0.664782 0.638889 -0.652852 0.586051 0.0681745 0.607127 -0.694577 0.246112 0.1629 -0.000255529 0.00624743 -0.0724191 0.148366 0.0310832 -0.0340946 0.00779064 0.0472683 -0.0895675 -0.000182737 -0.353456 0.0879435 -0.352903 0.0142217 0.199489 -0.394773 -0.155376 0.19922 0.176206 -0.313846 0.117634 0.0150459 0.0512054
17 0.345139 -0.0677518 0.43437 -0.146056 -0.244807 0.0105186 -0.0447677 2.07183 -0.457761 0.202741 -0.0201878 -0.717116 0.240665 -0.353041 0.117647 0.00225672 -0.506273 -0.178475 -0.844052 0.707269 0.498177 -0.159938 -0.787886 0.424964 0.0302178 -0.318643 0.0859266 -1.77418 1.0298 0.882949 0.180914 -0.674922 0.0448676 0.446386 -1.06781 0.031392 -0.0118488 0.309613 0.0796399 0.0616714 -0.265897 0.0671741 0.762233 -0.10052 -0.0494871 0.463847 -0.557253 -0.319107 0.178354 0.843626 0.654364 -0.0488971 -0.431799 -0.193432 -0.120941 -0.378962 0.373509 -0.0811266 -1.12636 0.418658 -0.28249 -0.0676662 0.0247811 -0.0940395 -0.203036 0.203856 0.453347 0.0937081 -0.224378 0.819997 1.28246 0.108297 0.176803 -0.71831 -0.844336 0.723227 0.284611 -0.618011 0.396273 0.211007 0.439249 -0.0716927 -0.165273 -0.0699038 0.0989896 -0.569318 -0.502312 0.322181 0.603035 0.944711 0.318206 0.848525 0.0671733 -0.101919 -0.732078 0.69603 0.828137 0.778266 -0.77361 0.746204 0.0849632 0.546801 -0.657304 0.138844 0.25071 -0.00421741 -0.0302977 -0.0485814 0.091255 0.302621 0.203386 0.101725 -0.126011 -0.100822 -0.202937 -0.47195 -0.0434632 -0.406558 -0.240929 0.070873 -0.54189 -0.231635 0.221632 0.343907 -0.428044 0.222226 -0.103815 -0.0563843
