34 128
7 -0.28928 -0.239 0.198732 -0.0765874 -0.0560249 0.14987 -0.246035 -0.0796395 0.0954518 0.0575024 -0.00978566 -0.0958525 -0.0703566 -0.0357196 -0.117753 -0.0664816 0.104592 -0.239692 -0.0900846 -0.22364 -0.0378196 0.2006 0.187452 0.158152 -0.0659659 -0.309592 -0.391286 0.0325454 -0.188156 0.166416 0.141924 0.00824916 -0.249366 -0.388591 0.23286 -0.271091 0.0628721 0.199916 0.206975 -0.199044 -0.122282 0.245782 0.0674503 0.305424 0.0762789 -0.170237 0.0563165 0.0927485 -0.434597 0.0239424 0.109744 -0.235914 -0.0653219 -0.368952 0.0866058 -0.0502486 0.0997158 0.271325 0.152547 -0.0041156 -0.114921 -0.118379 0.0154573 -0.0741956 0.22955 0.153811 0.00682196 -0.41511 0.183883 -0.0397552 -0.12683 0.0598919 0.136879 0.0512054 0.0411843 0.100061 0.235404 -0.135574 -0.0299245 0.130638 0.0412145 -0.270817 -0.217626 0.197066 0.149789 0.0520129 0.14297 0.238688 0.118539 0.162044 -0.125117 -0.0424238 -0.212072 0.035928 0.108342 0.12864 -0.148246 0.188361 -0.026224 -0.131054 0.0130356 0.0598809 0.142664 -0.130412 -0.156648 -0.162709 0.0419752 -0.000990324 0.0700572 0.235102 0.128404 0.0498482 -0.0382408 0.113296 0.149706 0.282706 -0.0148365 -0.391041 -0.0227893 -0.2195 -0.0757473 -0.212125 -0.137653 -0.0842177 -0.0661968 0.296139 -0.0274995 -0.019556
17 -0.220173 -0.192352 0.161552 -0.0444419 -0.0475007 0.130849 -0.18815 -0.0790854 0.0686002 0.0379815 -0.000881 -0.0835071 -0.0528977 -0.0145383 -0.076092 -0.0486869 0.0816109 -0.207924 -0.0625199 -0.166445 -0.0400879 0.177375 0.138388 0.131231 -0.0669446 -0.273302 -0.316393 0.00984063 -0.163591 0.143211 0.118626 0.0108204 -0.199205 -0.306692 0.171292 -0.222829 0.0541587 0.178106 0.17007 -0.159674 -0.100075 0.181445 0.0617667 0.247769 0.03612 -0.140053 0.0439307 0.0862171 -0.353274 0.0202693 0.0848632 -0.187344 -0.0384841 -0.30613 0.0755474 -0.03768 0.0851088 0.205491 0.139299 0.0105808 -0.106476 -0.108087 -0.00530214 -0.0686288 0.198957 0.117576 -0.00373381 -0.324358 0.171172 -0.0391303 -0.103537 0.0698877 0.102344 0.0370512 0.0360533 0.0886755 0.183939 -0.111376 -0.0287705 0.107764 0.041962 -0.200103 -0.174712 0.144595 0.110085 0.0461375 0.111864 0.204488 0.0887402 0.137848 -0.100702 -0.0292024 -0.165314 0.0210667 0.095797 0.102171 -0.119001 0.150723 -0.0219417 -0.0929394 0.0195247 0.0411512 0.120119 -0.110389 -0.125747 -0.138688 0.038465 0.0056969 0.0516026 0.190269 0.0886975 0.0596605 -0.0440737 0.122678 0.118033 0.245255 -0.0307764 -0.34078 -0.0409949 -0.163559 -0.0412631 -0.178835 -0.13296 -0.0806312 -0.0356568 0.254232 -0.014206 -0.00578851
6 -0.223092 -0.206502 0.170369 -0.0323038 -0.0468288 0.150199 -0.198642 -0.10043 0.0691438 0.0424292 0.00269049 -0.103896 -0.0577368 -0.0123468 -0.0664727 -0.0407907 0.0792288 -0.242112 -0.0529017 -0.173029 -0.0474511 0.210718 0.139804 0.139804 -0.0815465 -0.318752 -0.346011 -0.00253694 -0.18621 0.164695 0.13047 0.0113192 -0.211909 -0.331402 0.176504 -0.246045 0.0736399 0.203131 0.189982 -0.171763 -0.119596 0.18717 0.0819757 0.267656 0.0243995 -0.149342 0.0549545 0.108472 -0.386872 0.0287422 0.0838457 -0.203092 -0.025623 -0.343857 0.0837269 -0.0458811 0.0958999 0.218822 0.163497 0.0176272 -0.12587 -0.136455 -0.0212752 -0.0800447 0.2315 0.117454 -0.0149761 -0.345998 0.199789 -0.0526657 -0.114738 0.0905481 0.100706 0.0334048 0.0333211 0.0957595 0.190622 -0.12152 -0.0353007 0.120067 0.0598002 -0.20458 -0.193029 0.138397 0.113605 0.0524586 0.114934 0.232677 0.0899459 0.158602 -0.113857 -0.018686 -0.182115 0.0142586 0.113432 0.118818 -0.132602 0.164375 -0.0245818 -0.0949311 0.0354429 0.0321618 0.130208 -0.13108 -0.135705 -0.155675 0.0455264 0.00461734 0.0569075 0.211846 0.0846898 0.0873877 -0.0665382 0.166958 0.128524 0.279688 -0.0474875 -0.394635 -0.0739889 -0.161469 -0.0294102 -0.204676 -0.158116 -0.0911513 -0.0249716 0.289073 -0.00600911 0.00499022
11 -0.269348 -0.233268 0.192269 -0.0651617 -0.055573 0.155873 -0.228958 -0.0867244 0.0852849 0.0506415 -0.00193249 -0.100376 -0.0734867 -0.0265611 -0.105555 -0.0633691 0.0963651 -0.240614 -0.0777484 -0.206562 -0.0425511 0.205423 0.177039 0.151643 -0.0740898 -0.319833 -0.380482 0.0158088 -0.190686 0.167432 0.138024 0.00438105 -0.243744 -0.374461 0.2179 -0.268736 0.0658244 0.203697 0.204003 -0.192348 -0.121037 0.226814 0.0716462 0.295074 0.0611598 -0.16093 0.0581486 0.0953324 -0.424063 0.0293666 0.100866 -0.233983 -0.0473581 -0.366698 0.084671 -0.0482093 0.102868 0.2597 0.156089 0.00496597 -0.12413 -0.127675 0.00734783 -0.0771199 0.229199 0.144222 0.00199375 -0.398412 0.189904 -0.0401919 -0.126886 0.07287 0.130754 0.0384513 0.0379627 0.0989841 0.223171 -0.125803 -0.0353744 0.131066 0.0497257 -0.25005 -0.210253 0.181671 0.135374 0.0501303 0.134104 0.237907 0.104966 0.158796 -0.120669 -0.0371522 -0.20701 0.0281985 0.111569 0.127469 -0.14582 0.181108 -0.0292979 -0.122883 0.0211493 0.0564476 0.146799 -0.131239 -0.15139 -0.160133 0.0400608 0.00544294 0.0689478 0.233184 0.111741 0.0596671 -0.0480721 0.127893 0.144141 0.286361 -0.0225329 -0.396927 -0.0427258 -0.205154 -0.0598832 -0.213148 -0.140167 -0.0912964 -0.0547086 0.296314 -0.0263901 -0.00716917
5 -0.231842 -0.206815 0.176005 -0.0469199 -0.0475403 0.14541 -0.20175 -0.0939839 0.071268 0.0447977 0.00372393 -0.100473 -0.0584054 -0.0131723 -0.0797664 -0.0496012 0.0829179 -0.230061 -0.0635118 -0.181119 -0.0458632 0.203326 0.150883 0.138391 -0.077839 -0.307005 -0.34304 0.00136499 -0.179763 0.154654 0.133024 0.0091995 -0.214991 -0.33354 0.184698 -0.242556 0.0698407 0.198613 0.1915 -0.169776 -0.115356 0.198262 0.0753272 0.26465 0.0357556 -0.149898 0.0519601 0.0977085 -0.385746 0.0253997 0.0878111 -0.20599 -0.0373909 -0.338476 0.0824858 -0.0447522 0.0954385 0.227014 0.152898 0.0127361 -0.119613 -0.126318 -0.0144375 -0.0764963 0.219123 0.124396 -0.00929146 -0.353903 0.188224 -0.0463156 -0.113981 0.0769004 0.109703 0.0324518 0.0376759 0.0976155 0.192663 -0.118922 -0.0361009 0.118187 0.0523899 -0.211901 -0.188472 0.151877 0.11943 0.0487111 0.120881 0.225851 0.0895802 0.14853 -0.114714 -0.0245778 -0.185526 0.018569 0.111985 0.113862 -0.133149 0.159828 -0.0242231 -0.0973777 0.0280066 0.037848 0.131189 -0.126703 -0.139393 -0.15243 0.0424173 0.00307775 0.0609995 0.212576 0.0913672 0.0699426 -0.0552679 0.142495 0.130247 0.271746 -0.035964 -0.379468 -0.059282 -0.17125 -0.0411465 -0.199217 -0.143512 -0.0842533 -0.0331328 0.282308 -0.0123914 -0.00460782
1 -0.290761 -0.277005 0.232178 -0.0377307 -0.0615751 0.201818 -0.261761 -0.134857 0.0842788 0.0643225 0.0143063 -0.142615 -0.0781743 -0.0164958 -0.0982743 -0.0615262 0.106181 -0.331634 -0.0696534 -0.22701 -0.0697542 0.288229 0.18836 0.192435 -0.115478 -0.434265 -0.458624 -0.0144589 -0.256024 0.21619 0.184347 0.0138517 -0.287178 -0.439629 0.22857 -0.335034 0.102811 0.282361 0.264398 -0.230992 -0.159314 0.252708 0.116127 0.351533 0.0272241 -0.197978 0.0783074 0.148444 -0.509459 0.0385133 0.111673 -0.27675 -0.0254755 -0.458884 0.105719 -0.0626016 0.134336 0.296262 0.218944 0.0219587 -0.166988 -0.181945 -0.0320738 -0.108182 0.31248 0.152599 -0.0261593 -0.460892 0.278155 -0.0784389 -0.157253 0.122328 0.129866 0.0349644 0.0454204 0.126222 0.253281 -0.159966 -0.046225 0.166862 0.0922441 -0.265084 -0.256441 0.184156 0.150016 0.0717323 0.15568 0.311717 0.118879 0.213314 -0.151448 -0.032255 -0.241838 0.0107231 0.158383 0.159719 -0.172054 0.213675 -0.038898 -0.120147 0.0526409 0.049624 0.178107 -0.174545 -0.184681 -0.207611 0.0587036 0.00817808 0.0757386 0.284064 0.103663 0.125456 -0.0893032 0.233253 0.168998 0.384748 -0.0704006 -0.53586 -0.103555 -0.216092 -0.0402014 -0.277288 -0.214077 -0.131415 -0.0349894 0.386267 -0.00637746 0.010014
18 -0.378494 -0.30706 0.253846 -0.107567 -0.0709861 0.189179 -0.326489 -0.0930057 0.129535 0.0803794 -0.0136848 -0.117267 -0.104297 -0.0530151 -0.170979 -0.0968276 0.13913 -0.296853 -0.122583 -0.296975 -0.0449627 0.250423 0.250886 0.196807 -0.0834289 -0.386467 -0.496199 0.0559842 -0.23724 0.202829 0.179593 0.00137317 -0.323137 -0.503553 0.315011 -0.354024 0.0837956 0.24792 0.262142 -0.259328 -0.151219 0.33287 0.0787206 0.390725 0.117263 -0.208326 0.0708077 0.103146 -0.554513 0.0299704 0.144124 -0.315251 -0.0875161 -0.464995 0.107792 -0.063954 0.128175 0.358973 0.17471 -0.00747865 -0.143108 -0.138259 0.0366737 -0.0811936 0.283589 0.20886 0.0246286 -0.541897 0.214107 -0.0435982 -0.167692 0.0642963 0.18308 0.0559685 0.0513901 0.125024 0.306441 -0.169817 -0.038492 0.170419 0.044006 -0.359754 -0.271142 0.265847 0.201518 0.0680032 0.191522 0.294448 0.157097 0.202697 -0.157657 -0.0624595 -0.273088 0.0515229 0.133525 0.15815 -0.190541 0.232169 -0.025167 -0.178528 0.00784029 0.0943221 0.191689 -0.158603 -0.200967 -0.211901 0.0410363 0.00391086 0.0934351 0.308129 0.163164 0.0510059 -0.0356707 0.119237 0.19368 0.350729 0.0019153 -0.48399 -0.0103314 -0.295035 -0.107554 -0.261722 -0.153331 -0.104085 -0.0945996 0.368481 -0.0491013 -0.0278982
2 -0.40136 -0.327721 0.276749 -0.112474 -0.0769989 0.207312 -0.345216 -0.111028 0.132465 0.0882412 -0.00821337 -0.133187 -0.111395 -0.0514394 -0.180977 -0.0964158 0.147797 -0.324526 -0.132854 -0.318561 -0.0523512 0.277134 0.265932 0.21805 -0.099314 -0.427817 -0.540139 0.0489382 -0.259767 0.22535 0.191189 0.00823686 -0.350419 -0.543634 0.331777 -0.383144 0.0905938 0.273484 0.289003 -0.28395 -0.165664 0.350841 0.085905 0.416704 0.115895 -0.227683 0.0814279 0.117612 -0.597377 0.0299848 0.1482 -0.337755 -0.0877928 -0.506778 0.11658 -0.0667028 0.143924 0.389448 0.195673 -0.0110462 -0.158469 -0.15557 0.0332466 -0.0891632 0.306872 0.215819 0.0213897 -0.57949 0.241464 -0.0482586 -0.176845 0.0691694 0.200431 0.0593592 0.0618287 0.13619 0.32522 -0.179508 -0.040645 0.184383 0.0538976 -0.383257 -0.294504 0.284178 0.210513 0.0722506 0.207508 0.323068 0.170673 0.220974 -0.166908 -0.067633 -0.29267 0.0454712 0.148261 0.177396 -0.198862 0.252325 -0.0321212 -0.188076 0.0167863 0.0990889 0.206155 -0.173224 -0.210744 -0.226582 0.0442607 0.00187353 0.103949 0.33004 0.169547 0.0659232 -0.0408343 0.139527 0.211744 0.388094 -0.00618918 -0.531466 -0.0193663 -0.316737 -0.118148 -0.286169 -0.172852 -0.115003 -0.0935464 0.398294 -0.0520998 -0.0252719
31 -0.441064 -0.350056 0.29658 -0.135951 -0.079894 0.21453 -0.377227 -0.106331 0.146168 0.0978156 -0.0136139 -0.132073 -0.123014 -0.0608575 -0.201418 -0.111865 0.16608 -0.331963 -0.149027 -0.348904 -0.0467323 0.275984 0.299887 0.226694 -0.0903181 -0.436857 -0.575976 0.0730588 -0.267823 0.228974 0.199187 0.00552837 -0.379312 -0.577525 0.367375 -0.402711 0.0862511 0.273286 0.301312 -0.302038 -0.170095 0.385742 0.0855923 0.4451 0.147291 -0.240224 0.079958 0.112714 -0.638637 0.03313 0.162211 -0.36343 -0.107531 -0.531377 0.121116 -0.0659333 0.144963 0.414693 0.192796 -0.0162675 -0.157694 -0.152379 0.0489649 -0.0896128 0.31566 0.238538 0.0301379 -0.629955 0.235638 -0.0425899 -0.192367 0.0655308 0.219842 0.0683455 0.0616089 0.142644 0.355847 -0.188815 -0.0382209 0.188065 0.0407373 -0.426282 -0.313578 0.311492 0.236364 0.0761484 0.220206 0.333382 0.183347 0.230968 -0.181475 -0.0767397 -0.320897 0.0623718 0.147421 0.18127 -0.214565 0.27273 -0.0332784 -0.212695 0.00364937 0.108968 0.214318 -0.171003 -0.224853 -0.237755 0.0459642 0.00230864 0.112336 0.350837 0.190613 0.0515594 -0.0298711 0.114777 0.225946 0.394301 0.0140063 -0.546555 -0.00181946 -0.34604 -0.137955 -0.299672 -0.1714 -0.110124 -0.109272 0.415253 -0.0623339 -0.0351208
33 -0.446682 -0.367535 0.306178 -0.12573 -0.0858091 0.226513 -0.390463 -0.113378 0.153145 0.100189 -0.0145868 -0.139301 -0.120105 -0.0613517 -0.202681 -0.114258 0.164773 -0.348746 -0.149018 -0.352453 -0.0553537 0.298645 0.299981 0.239731 -0.0993715 -0.465686 -0.594515 0.0605644 -0.287182 0.241192 0.211601 0.00140232 -0.391727 -0.598354 0.369345 -0.420635 0.100309 0.29218 0.310905 -0.310415 -0.184739 0.395883 0.0917709 0.461261 0.142019 -0.2481 0.0826547 0.12129 -0.659208 0.0306077 0.17003 -0.375235 -0.106593 -0.556083 0.130007 -0.0757672 0.160397 0.431687 0.209925 -0.0160718 -0.174116 -0.164167 0.04373 -0.0964701 0.339499 0.243542 0.0290254 -0.646181 0.255168 -0.0529141 -0.203593 0.073285 0.221101 0.0730519 0.0600518 0.148184 0.362295 -0.196087 -0.0411021 0.199992 0.0500825 -0.430244 -0.325335 0.319352 0.234672 0.074906 0.232978 0.351912 0.188678 0.241529 -0.187869 -0.0791315 -0.329101 0.0532858 0.161559 0.1922 -0.222983 0.284161 -0.0377104 -0.214123 0.00813353 0.108131 0.228215 -0.182192 -0.233625 -0.245894 0.0528481 0.00605732 0.114931 0.367055 0.195881 0.0636424 -0.0371669 0.139888 0.228967 0.419738 0.00475921 -0.581516 -0.0145245 -0.350898 -0.135153 -0.310648 -0.180323 -0.125183 -0.109684 0.440671 -0.0630286 -0.0344371
24 -0.447667 -0.365072 0.302992 -0.135077 -0.0816431 0.221946 -0.384108 -0.11033 0.154221 0.0985719 -0.0159524 -0.137177 -0.119292 -0.0665074 -0.202377 -0.115093 0.166267 -0.34458 -0.151742 -0.35553 -0.0469356 0.286249 0.301611 0.235377 -0.0960216 -0.457822 -0.590177 0.0697472 -0.282194 0.243413 0.213963 0.00807909 -0.384456 -0.598 0.375896 -0.418185 0.0943178 0.287611 0.306624 -0.312607 -0.177197 0.393518 0.0925112 0.461875 0.147834 -0.246388 0.0849858 0.117068 -0.659593 0.032387 0.165704 -0.369661 -0.110797 -0.548432 0.124395 -0.0683087 0.156856 0.426739 0.201824 -0.0117289 -0.165535 -0.163044 0.0461422 -0.094547 0.329672 0.24708 0.0333305 -0.642697 0.247486 -0.050844 -0.196453 0.0671098 0.21918 0.0682536 0.064522 0.145614 0.362684 -0.194925 -0.0435385 0.194938 0.0460171 -0.435674 -0.322652 0.319643 0.234159 0.0754078 0.229908 0.348693 0.190486 0.237259 -0.180813 -0.0803315 -0.326504 0.0557917 0.160544 0.189293 -0.219116 0.27544 -0.0335288 -0.217403 0.00763159 0.114264 0.222765 -0.178328 -0.229584 -0.245793 0.0451893 0.00646488 0.109524 0.365315 0.197933 0.0593305 -0.0360629 0.126764 0.22709 0.410585 0.0107372 -0.56841 -0.00377177 -0.355554 -0.13264 -0.30541 -0.177068 -0.120352 -0.112135 0.430781 -0.060739 -0.0388786
26 -0.445892 -0.353905 0.302548 -0.132098 -0.0809305 0.220398 -0.382987 -0.10835 0.15269 0.0995138 -0.0199624 -0.138512 -0.123361 -0.0659765 -0.205736 -0.112155 0.166433 -0.336433 -0.153322 -0.351022 -0.0490399 0.278493 0.302871 0.231995 -0.0984195 -0.442529 -0.576941 0.0727062 -0.273247 0.2324 0.203461 -4.3901e-05 -0.383768 -0.591997 0.369553 -0.408774 0.0946596 0.27811 0.298988 -0.310135 -0.170774 0.393113 0.0905674 0.454534 0.143269 -0.244444 0.0852657 0.119033 -0.645773 0.0315749 0.165622 -0.363146 -0.111942 -0.542464 0.125377 -0.0706024 0.153607 0.427255 0.194635 -0.0163773 -0.162596 -0.153927 0.0508714 -0.0939532 0.323951 0.246893 0.0310318 -0.633835 0.241068 -0.0446 -0.194128 0.0607707 0.220405 0.0726137 0.061043 0.141689 0.355387 -0.191264 -0.040358 0.193553 0.0426635 -0.43174 -0.320673 0.318022 0.235524 0.0722817 0.229508 0.340212 0.182311 0.22961 -0.180712 -0.0731621 -0.324717 0.0580991 0.151196 0.18428 -0.219815 0.272395 -0.0333631 -0.211569 0.00679379 0.107587 0.218497 -0.179806 -0.229311 -0.241529 0.0442316 0.0017114 0.110257 0.359668 0.194242 0.0473603 -0.0286426 0.118257 0.225351 0.406706 0.00933299 -0.558876 0.0019677 -0.352639 -0.140531 -0.298873 -0.167982 -0.11753 -0.115704 0.420093 -0.0650784 -0.0398636
32 -0.410169 -0.333558 0.284309 -0.111685 -0.0757054 0.210295 -0.350058 -0.105139 0.139681 0.0904926 -0.014039 -0.128184 -0.111949 -0.0549921 -0.181798 -0.0992864 0.155088 -0.324577 -0.134807 -0.320462 -0.0508402 0.272285 0.270815 0.222544 -0.0958386 -0.427175 -0.542199 0.0524153 -0.262438 0.229464 0.197062 0.00822337 -0.359534 -0.551621 0.341422 -0.383938 0.0937493 0.269278 0.288242 -0.286551 -0.163514 0.354439 0.0873426 0.426319 0.125712 -0.230032 0.0758619 0.119945 -0.605318 0.0332152 0.14896 -0.337511 -0.0977674 -0.508497 0.117242 -0.0669127 0.145567 0.393456 0.200499 -0.0070399 -0.155658 -0.159661 0.0363479 -0.0945254 0.312504 0.22626 0.0229764 -0.590848 0.2386 -0.0458716 -0.185061 0.0725337 0.199038 0.0616167 0.0609892 0.135358 0.332548 -0.184083 -0.0405915 0.182801 0.0512479 -0.389588 -0.303472 0.290083 0.214052 0.0724919 0.212672 0.329097 0.172175 0.224731 -0.172013 -0.0680288 -0.30284 0.0517178 0.147061 0.177371 -0.205457 0.255348 -0.0340773 -0.193588 0.0146917 0.101207 0.209325 -0.168948 -0.219961 -0.225431 0.0437799 0.00295866 0.0998373 0.339041 0.171992 0.0630254 -0.0373329 0.133344 0.211744 0.385945 -0.00282404 -0.53923 -0.0187643 -0.3196 -0.118268 -0.289232 -0.169977 -0.113063 -0.0961618 0.401863 -0.0543353 -0.0300138
25 -0.436457 -0.351012 0.297119 -0.132109 -0.0845425 0.214401 -0.377142 -0.103339 0.146943 0.0925982 -0.0173564 -0.132754 -0.119206 -0.065512 -0.19981 -0.112297 0.159578 -0.3342 -0.151962 -0.347626 -0.0482865 0.278476 0.299206 0.233231 -0.096857 -0.44094 -0.571006 0.0710717 -0.273572 0.233425 0.204479 0.00134513 -0.376603 -0.581747 0.366793 -0.408165 0.0887871 0.275421 0.298915 -0.303879 -0.173832 0.381586 0.0901319 0.446787 0.145309 -0.239017 0.0858563 0.113738 -0.640635 0.0316728 0.164928 -0.360375 -0.108013 -0.53548 0.126846 -0.0697888 0.145991 0.421472 0.201338 -0.0131416 -0.157122 -0.157243 0.0471176 -0.0894614 0.318993 0.237084 0.030331 -0.629976 0.241473 -0.0412591 -0.190769 0.0625423 0.218024 0.0715941 0.0605113 0.14028 0.356903 -0.18731 -0.0403988 0.189278 0.0450638 -0.425696 -0.312414 0.314737 0.232489 0.0718845 0.220878 0.335289 0.181395 0.22782 -0.176881 -0.072396 -0.31577 0.0548044 0.14895 0.18154 -0.212606 0.270366 -0.0333609 -0.206245 0.00581887 0.109967 0.219751 -0.171343 -0.223404 -0.236283 0.047728 0.00519584 0.111845 0.35551 0.194048 0.0519242 -0.0326527 0.122211 0.226246 0.399835 0.0103515 -0.549623 -0.00372056 -0.34608 -0.133154 -0.299972 -0.166743 -0.115577 -0.111915 0.417774 -0.0668413 -0.0352563
8 -0.410504 -0.329068 0.278902 -0.116465 -0.0741701 0.20675 -0.345972 -0.104401 0.139395 0.0845066 -0.0170616 -0.131497 -0.107876 -0.0581663 -0.181532 -0.104433 0.149212 -0.315502 -0.138174 -0.321065 -0.0439774 0.270288 0.276494 0.213777 -0.0900802 -0.416701 -0.537683 0.0585159 -0.259661 0.220493 0.195477 0.00733352 -0.348189 -0.539972 0.341712 -0.382858 0.0855982 0.263783 0.285335 -0.280968 -0.160196 0.356699 0.0840819 0.420661 0.128342 -0.22453 0.0805282 0.110368 -0.596546 0.027772 0.149059 -0.335068 -0.0929359 -0.50627 0.115819 -0.0627763 0.142465 0.393081 0.188852 -0.00722947 -0.150889 -0.150879 0.0369744 -0.0854076 0.299324 0.220351 0.0220251 -0.5821 0.227703 -0.0414267 -0.177671 0.0681514 0.201536 0.0650752 0.0621371 0.133108 0.32699 -0.180432 -0.0430435 0.178753 0.0424009 -0.393626 -0.296131 0.292198 0.218078 0.0740875 0.210789 0.318563 0.172918 0.219799 -0.169152 -0.0693979 -0.295884 0.0526776 0.145938 0.177013 -0.199566 0.248906 -0.0301214 -0.195973 0.0128528 0.101342 0.203053 -0.168684 -0.213276 -0.223545 0.0420548 0.000976503 0.10345 0.332719 0.177813 0.0514577 -0.0320599 0.121483 0.207326 0.381254 0.00562839 -0.519639 -0.00832075 -0.317619 -0.12359 -0.285558 -0.168215 -0.108004 -0.0974289 0.392667 -0.0565893 -0.0337055
3 -0.410838 -0.333857 0.280217 -0.114624 -0.0765726 0.211283 -0.358212 -0.106355 0.134188 0.0890064 -0.0119157 -0.136136 -0.110776 -0.0558296 -0.187432 -0.105 0.151289 -0.327569 -0.137261 -0.324549 -0.0482629 0.273961 0.278479 0.217855 -0.0992392 -0.433351 -0.546538 0.0539591 -0.267149 0.230259 0.20062 0.00367679 -0.356406 -0.552077 0.344947 -0.386656 0.0908727 0.272033 0.291623 -0.288018 -0.168982 0.362454 0.0935231 0.426185 0.121842 -0.233799 0.0830189 0.120769 -0.612005 0.0345984 0.154377 -0.347633 -0.0924666 -0.516222 0.123013 -0.0684455 0.147597 0.393255 0.200877 -0.0105019 -0.157731 -0.160461 0.0333513 -0.0886876 0.310014 0.225377 0.0260558 -0.592513 0.242543 -0.0508804 -0.188135 0.0721844 0.203614 0.0603305 0.05594 0.135862 0.335034 -0.184944 -0.0435843 0.181273 0.0526567 -0.398592 -0.303853 0.293526 0.216179 0.0715531 0.210373 0.332805 0.173438 0.22634 -0.173946 -0.0715412 -0.302507 0.0506207 0.151913 0.179576 -0.203193 0.257874 -0.0308418 -0.196985 0.0119306 0.0962533 0.208737 -0.170235 -0.214528 -0.230242 0.0470719 0.00437952 0.107407 0.341575 0.173664 0.0620475 -0.0398637 0.135745 0.213686 0.392792 -0.00480673 -0.539562 -0.0170254 -0.323618 -0.118997 -0.295491 -0.170429 -0.113449 -0.0981094 0.406535 -0.0547613 -0.0322694
4 -0.40339 -0.332058 0.27819 -0.118439 -0.0775781 0.20914 -0.346168 -0.100889 0.134188 0.0866183 -0.01182 -0.126247 -0.111316 -0.0559212 -0.183202 -0.105679 0.148918 -0.316878 -0.135317 -0.321507 -0.0455647 0.269325 0.272302 0.214245 -0.0929185 -0.422046 -0.536498 0.0594538 -0.261894 0.221232 0.18965 0.00690621 -0.349246 -0.541203 0.336895 -0.378133 0.0881438 0.266916 0.287424 -0.280719 -0.15863 0.354433 0.0867412 0.415453 0.124962 -0.227327 0.0800674 0.114802 -0.5941 0.0305184 0.153316 -0.339408 -0.0949606 -0.504821 0.112473 -0.0652314 0.144884 0.387081 0.190015 -0.00844867 -0.155886 -0.150204 0.0362005 -0.0850693 0.302236 0.217272 0.0271108 -0.585302 0.235749 -0.0427567 -0.177441 0.0627441 0.203818 0.0601124 0.059985 0.130206 0.330479 -0.176969 -0.0444481 0.182128 0.0477483 -0.393088 -0.294316 0.289106 0.210123 0.0692022 0.208263 0.318011 0.171137 0.221097 -0.166688 -0.0665277 -0.293981 0.0477375 0.147476 0.172027 -0.204467 0.248232 -0.0305946 -0.188725 0.00864337 0.10013 0.202105 -0.163666 -0.215522 -0.225559 0.0445629 0.00628703 0.100991 0.332643 0.176515 0.0530303 -0.0321015 0.127099 0.212544 0.378751 0.00481846 -0.525718 -0.0122665 -0.320564 -0.116623 -0.282038 -0.169158 -0.11463 -0.0956878 0.392052 -0.0588692 -0.0333198
12 -0.339528 -0.27773 0.233058 -0.100439 -0.0654475 0.170399 -0.296264 -0.0813495 0.112773 0.0747165 -0.0141742 -0.103477 -0.0965406 -0.0448211 -0.155701 -0.0851214 0.125211 -0.266762 -0.112845 -0.270404 -0.0383934 0.218677 0.227563 0.179688 -0.0731918 -0.344876 -0.44833 0.0528316 -0.216135 0.186775 0.156812 0.00130399 -0.295258 -0.456511 0.283739 -0.314926 0.0703808 0.220722 0.233986 -0.2389 -0.134179 0.30196 0.0703322 0.349011 0.104385 -0.190349 0.0628284 0.0945729 -0.503608 0.0216142 0.126187 -0.284153 -0.0828486 -0.419714 0.096387 -0.0557036 0.121029 0.324159 0.160927 -0.0104228 -0.1258 -0.123614 0.0353667 -0.0695701 0.2523 0.188677 0.0240869 -0.49072 0.19286 -0.038321 -0.153759 0.0505034 0.170567 0.0503967 0.0480665 0.11151 0.273965 -0.149739 -0.029964 0.150813 0.033526 -0.324148 -0.246511 0.244014 0.180953 0.0563267 0.17243 0.26386 0.142168 0.185269 -0.14388 -0.0583808 -0.245044 0.0414688 0.12267 0.147053 -0.165509 0.213623 -0.026973 -0.161515 0.00838806 0.0804807 0.173059 -0.141868 -0.17859 -0.186009 0.0350698 0.00450511 0.0853051 0.277646 0.151143 0.0418166 -0.0290029 0.100049 0.174459 0.315969 0.00743655 -0.432488 -0.00751319 -0.269892 -0.100322 -0.236591 -0.133357 -0.0911527 -0.0843053 0.331293 -0.0438123 -0.0284688
22 -0.360879 -0.29023 0.24981 -0.104349 -0.0707949 0.182672 -0.307178 -0.0923769 0.122149 0.0761818 -0.0120871 -0.119491 -0.100049 -0.0503677 -0.163217 -0.0928277 0.134369 -0.285432 -0.121884 -0.282492 -0.0402267 0.243052 0.241776 0.196332 -0.0839522 -0.381688 -0.481631 0.0471128 -0.234407 0.196925 0.175384 0.00845554 -0.314267 -0.486322 0.294697 -0.338363 0.0800403 0.241248 0.254606 -0.252488 -0.143088 0.317793 0.0750875 0.3716 0.110293 -0.202918 0.074155 0.100567 -0.533709 0.0249182 0.133935 -0.303288 -0.0828936 -0.454289 0.105771 -0.0592188 0.128562 0.342866 0.173116 -0.00645107 -0.137341 -0.140464 0.0276842 -0.0832261 0.274597 0.196899 0.0193606 -0.522684 0.208203 -0.0436675 -0.158697 0.0662777 0.176845 0.0581825 0.0498426 0.118235 0.291062 -0.158548 -0.0400217 0.161921 0.0446013 -0.342188 -0.262312 0.254448 0.191911 0.065028 0.184422 0.286835 0.152091 0.193874 -0.154447 -0.0587646 -0.263164 0.0457585 0.132625 0.153728 -0.177907 0.222513 -0.0291084 -0.172958 0.00879201 0.0827053 0.179816 -0.149045 -0.191709 -0.203865 0.0434889 0.00150374 0.0872101 0.296561 0.15269 0.05177 -0.0372832 0.115939 0.186492 0.339983 0.00201479 -0.470206 -0.0124642 -0.279405 -0.104883 -0.257808 -0.150682 -0.103569 -0.087499 0.357524 -0.0504398 -0.0293555
9 -0.41624 -0.336587 0.278673 -0.121928 -0.0747295 0.210969 -0.356028 -0.104049 0.138573 0.0865827 -0.0129016 -0.127878 -0.116009 -0.054773 -0.188334 -0.108324 0.155504 -0.322736 -0.136859 -0.327599 -0.0504112 0.272619 0.278767 0.21465 -0.0922356 -0.419526 -0.540952 0.0628058 -0.262226 0.221753 0.194998 0.00152186 -0.3525 -0.55288 0.344741 -0.380748 0.0851048 0.268612 0.287686 -0.282798 -0.167847 0.363533 0.0831694 0.424294 0.129414 -0.232404 0.0792644 0.111886 -0.606871 0.0295049 0.154793 -0.340308 -0.0944631 -0.507332 0.113844 -0.0631742 0.143468 0.393718 0.190736 -0.00992246 -0.154941 -0.151245 0.0384986 -0.0885856 0.309549 0.227523 0.0282396 -0.594581 0.235655 -0.0481888 -0.181315 0.0662106 0.207672 0.0621829 0.0551444 0.132029 0.333177 -0.179736 -0.0443643 0.183884 0.0467615 -0.400091 -0.298031 0.295059 0.217385 0.0751207 0.212497 0.323673 0.174448 0.216684 -0.172351 -0.0701232 -0.296979 0.0516591 0.143867 0.173316 -0.204907 0.258848 -0.0306757 -0.19843 0.0101186 0.103647 0.203158 -0.168792 -0.213653 -0.228423 0.0441999 0.00247332 0.101654 0.33968 0.177566 0.0544009 -0.0341165 0.121841 0.210174 0.387067 0.00777278 -0.529182 -0.00680454 -0.323463 -0.126689 -0.288645 -0.162067 -0.108375 -0.104853 0.396246 -0.0609239 -0.0292241
34 -0.420986 -0.344794 0.293777 -0.1157 -0.0814373 0.217786 -0.364672 -0.110219 0.138364 0.0917188 -0.0111191 -0.137713 -0.109493 -0.0539897 -0.183479 -0.104752 0.155811 -0.340521 -0.136265 -0.333484 -0.051325 0.285431 0.283485 0.227433 -0.0997615 -0.448681 -0.566204 0.0542584 -0.279408 0.236641 0.204396 0.00281184 -0.367778 -0.563524 0.347134 -0.397939 0.0924328 0.287325 0.300276 -0.290481 -0.176322 0.36166 0.095886 0.437035 0.125324 -0.240955 0.0858019 0.123065 -0.623215 0.0338333 0.152366 -0.352226 -0.0885591 -0.529734 0.119658 -0.0668531 0.150592 0.398181 0.205117 -0.0106507 -0.167133 -0.170574 0.0274152 -0.0926327 0.325186 0.228157 0.0238348 -0.608834 0.250005 -0.0502728 -0.188426 0.076382 0.203983 0.0613466 0.0597203 0.139038 0.339429 -0.187152 -0.0395091 0.191175 0.0535381 -0.400385 -0.308187 0.291239 0.217428 0.0791451 0.210819 0.339025 0.174167 0.229191 -0.176115 -0.0707252 -0.311232 0.0454388 0.157266 0.184897 -0.209332 0.267035 -0.0321892 -0.19818 0.0158202 0.103142 0.211709 -0.182081 -0.226591 -0.240191 0.0527904 0.000642473 0.103681 0.34965 0.178649 0.0677104 -0.0410876 0.147631 0.217914 0.403131 -0.00938947 -0.561228 -0.0246643 -0.32296 -0.118986 -0.297932 -0.187149 -0.117777 -0.099125 0.424844 -0.0548697 -0.0236064
14 -0.410119 -0.326554 0.274696 -0.119891 -0.0763479 0.201946 -0.350925 -0.102872 0.135358 0.0885367 -0.0116186 -0.12446 -0.108168 -0.0533934 -0.187589 -0.100412 0.150997 -0.313973 -0.140022 -0.324458 -0.0450362 0.263464 0.276218 0.21639 -0.0887809 -0.414656 -0.539628 0.0604531 -0.261847 0.220721 0.195832 0.00313654 -0.348295 -0.543537 0.343092 -0.381527 0.0883391 0.26478 0.283044 -0.285361 -0.164812 0.359683 0.0846704 0.419961 0.126842 -0.230478 0.0784791 0.113713 -0.594926 0.029971 0.154581 -0.336022 -0.0992606 -0.506979 0.115087 -0.0622258 0.14076 0.391672 0.190146 -0.0122656 -0.15431 -0.152127 0.0364062 -0.0843594 0.300838 0.219749 0.0294104 -0.588247 0.230624 -0.0462276 -0.180102 0.0622316 0.200048 0.0592901 0.0580012 0.13671 0.329659 -0.179021 -0.0414271 0.178844 0.043718 -0.394351 -0.29439 0.29029 0.218919 0.0706345 0.211037 0.322344 0.173362 0.21734 -0.172386 -0.0711232 -0.295047 0.0490935 0.148307 0.176297 -0.200369 0.25623 -0.0282744 -0.190705 0.0127952 0.0968329 0.20314 -0.168874 -0.214872 -0.226756 0.04217 0.00407871 0.099874 0.328746 0.174071 0.0497044 -0.0372989 0.123244 0.207368 0.37619 0.00197717 -0.521448 -0.00871215 -0.320939 -0.120965 -0.283829 -0.162229 -0.108342 -0.101699 0.391562 -0.054176 -0.0351626
21 -0.44526 -0.351685 0.300244 -0.138479 -0.0817005 0.215258 -0.378427 -0.100216 0.147925 0.0969056 -0.0168702 -0.137045 -0.121038 -0.0663525 -0.203377 -0.117499 0.163791 -0.336877 -0.156124 -0.351943 -0.0436073 0.280472 0.301304 0.228056 -0.0937437 -0.436435 -0.579509 0.0699581 -0.273701 0.231398 0.207276 0.00055543 -0.381992 -0.587126 0.370173 -0.409815 0.0880547 0.274301 0.300657 -0.309796 -0.169381 0.394308 0.0830667 0.454251 0.148176 -0.245673 0.0830938 0.117013 -0.64772 0.0289923 0.166668 -0.367608 -0.114326 -0.534759 0.126942 -0.0681761 0.146778 0.426325 0.193824 -0.0196889 -0.157693 -0.151728 0.0512227 -0.0886364 0.314818 0.247624 0.0318674 -0.63877 0.236041 -0.0402448 -0.194349 0.0615486 0.223657 0.0699173 0.06457 0.137667 0.356057 -0.194906 -0.0386301 0.192164 0.0443661 -0.426861 -0.317191 0.321853 0.236736 0.076189 0.222713 0.336786 0.18434 0.230149 -0.177082 -0.0800244 -0.323775 0.0593616 0.148967 0.181997 -0.217818 0.272517 -0.0301227 -0.214644 0.00298682 0.113475 0.218268 -0.173014 -0.22942 -0.241229 0.0459192 0.00413144 0.107274 0.357196 0.196084 0.0483727 -0.0288972 0.115825 0.230328 0.398078 0.0109137 -0.551293 0.00136853 -0.347026 -0.13501 -0.301496 -0.164369 -0.11251 -0.113971 0.416409 -0.0682038 -0.0367897
15 -0.450716 -0.363977 0.301159 -0.14083 -0.0857771 0.223847 -0.389937 -0.105198 0.158055 0.099935 -0.0189883 -0.139565 -0.122579 -0.064139 -0.211921 -0.12006 0.166293 -0.337369 -0.156078 -0.358454 -0.0466004 0.28128 0.307967 0.235862 -0.0985203 -0.444779 -0.586182 0.0741189 -0.276788 0.235055 0.205184 0.0026272 -0.388121 -0.597172 0.381595 -0.415718 0.0890032 0.285641 0.304964 -0.313997 -0.173444 0.401776 0.089351 0.461386 0.151226 -0.248366 0.0808278 0.115878 -0.653874 0.0319124 0.17239 -0.374456 -0.116964 -0.545725 0.126551 -0.0709671 0.14974 0.427468 0.196011 -0.0198715 -0.166417 -0.153718 0.0499845 -0.0933889 0.320613 0.248054 0.0337431 -0.644468 0.245831 -0.045362 -0.19707 0.0611079 0.229966 0.0724871 0.0639292 0.14301 0.362133 -0.19857 -0.0387793 0.191566 0.040453 -0.43733 -0.325083 0.326528 0.237477 0.0754638 0.227809 0.345732 0.192323 0.236361 -0.187759 -0.0814393 -0.326437 0.0635697 0.153842 0.189513 -0.216705 0.279888 -0.0288662 -0.219365 0.00507266 0.118123 0.226567 -0.177391 -0.232228 -0.24874 0.0456901 0.00409514 0.114454 0.362361 0.199037 0.0485022 -0.0308502 0.116716 0.234061 0.40346 0.0122874 -0.559411 0.00571788 -0.357393 -0.144523 -0.310181 -0.167014 -0.116217 -0.116535 0.425861 -0.0691016 -0.0382374
13 -0.37847 -0.302246 0.253368 -0.110198 -0.0678612 0.188791 -0.321223 -0.0947981 0.126204 0.0838205 -0.0138786 -0.118989 -0.105329 -0.048738 -0.166021 -0.0984375 0.136757 -0.294579 -0.125516 -0.29256 -0.0412666 0.241101 0.254771 0.200699 -0.0802846 -0.381039 -0.495989 0.0575481 -0.239618 0.206151 0.177834 0.00248028 -0.320799 -0.501495 0.312387 -0.348552 0.0780354 0.239332 0.260638 -0.262431 -0.149469 0.332298 0.0744805 0.385053 0.114588 -0.209264 0.0727458 0.104578 -0.550679 0.0290923 0.136683 -0.311277 -0.0853564 -0.461688 0.109818 -0.0578735 0.131396 0.359554 0.169437 -0.00804458 -0.142381 -0.134654 0.0332008 -0.0772995 0.273894 0.204377 0.0261296 -0.538074 0.207494 -0.0404925 -0.164753 0.0553667 0.184338 0.0567492 0.050805 0.125408 0.30581 -0.162409 -0.0375429 0.165066 0.0377863 -0.363676 -0.27005 0.270501 0.194065 0.0665086 0.190559 0.292789 0.156178 0.196645 -0.157113 -0.0648532 -0.274391 0.0465967 0.1359 0.15676 -0.184883 0.228924 -0.0313593 -0.174722 0.0066609 0.091414 0.185114 -0.151819 -0.191915 -0.209247 0.0406135 0.00315903 0.0909488 0.304165 0.158243 0.0507756 -0.0326723 0.108725 0.192424 0.349126 0.008025 -0.481444 -0.00692221 -0.296405 -0.108611 -0.257916 -0.147217 -0.103146 -0.0959306 0.362397 -0.0529179 -0.0314257
20 -0.380436 -0.309461 0.263292 -0.112609 -0.072536 0.197025 -0.326666 -0.0962662 0.123676 0.0857665 -0.0155328 -0.122452 -0.103179 -0.0486472 -0.170741 -0.092407 0.140153 -0.296772 -0.130355 -0.296976 -0.0418542 0.248231 0.252578 0.201076 -0.0910269 -0.393509 -0.503209 0.055073 -0.242361 0.206065 0.181975 0.00401603 -0.332863 -0.511825 0.31792 -0.356687 0.0854113 0.24854 0.26932 -0.261197 -0.156171 0.333636 0.0780491 0.395074 0.1163 -0.211122 0.0768384 0.108891 -0.559806 0.0281479 0.144328 -0.314092 -0.0857777 -0.472906 0.108431 -0.060484 0.132753 0.365704 0.181376 -0.0110726 -0.141695 -0.141215 0.0352352 -0.0836527 0.2848 0.210222 0.0190618 -0.550927 0.222424 -0.0417132 -0.16969 0.0616606 0.190827 0.0561485 0.0558172 0.126597 0.307208 -0.172236 -0.0371867 0.169022 0.0430157 -0.368052 -0.277003 0.268927 0.199528 0.0666498 0.196315 0.299594 0.161604 0.201574 -0.162561 -0.0646446 -0.27764 0.0480341 0.139647 0.162496 -0.190068 0.236769 -0.0269508 -0.183115 0.0104338 0.0923645 0.19118 -0.157166 -0.203897 -0.215139 0.040951 0.00249907 0.0929563 0.312847 0.167401 0.050892 -0.0351701 0.116629 0.19726 0.358311 0.00364732 -0.490688 -0.0102162 -0.295103 -0.114803 -0.26485 -0.159884 -0.107349 -0.0927626 0.369893 -0.0549339 -0.0299111
10 -0.435842 -0.347247 0.291362 -0.130226 -0.0805988 0.216647 -0.374055 -0.0985386 0.149809 0.0924042 -0.0204716 -0.131312 -0.119791 -0.0663903 -0.200541 -0.113599 0.165577 -0.323955 -0.154233 -0.343054 -0.0418122 0.268796 0.299686 0.228771 -0.0944573 -0.429224 -0.570415 0.0682837 -0.267328 0.226426 0.197777 0.0033012 -0.369098 -0.575836 0.362555 -0.396282 0.0844986 0.273242 0.298573 -0.300156 -0.16917 0.388313 0.0802284 0.446078 0.14851 -0.23522 0.0786466 0.111252 -0.633523 0.0331794 0.165224 -0.358975 -0.112841 -0.527118 0.121168 -0.0656062 0.148603 0.418256 0.192315 -0.0150809 -0.158336 -0.150241 0.0537764 -0.0858443 0.309132 0.24232 0.0297954 -0.622653 0.231339 -0.0390325 -0.192475 0.056631 0.220505 0.0717946 0.0623976 0.137063 0.352955 -0.18991 -0.0383018 0.187395 0.0373424 -0.425992 -0.313174 0.317579 0.234313 0.0714013 0.224373 0.334217 0.185071 0.228063 -0.175397 -0.0790345 -0.31247 0.0598486 0.150291 0.18449 -0.208206 0.271073 -0.0273628 -0.208017 0.0053824 0.113705 0.213985 -0.167672 -0.228226 -0.234967 0.0433689 0.00616916 0.106639 0.351043 0.192961 0.0478132 -0.0324824 0.112082 0.220735 0.392465 0.0169765 -0.542582 0.00576564 -0.345296 -0.136625 -0.293233 -0.16251 -0.112385 -0.109133 0.409535 -0.067491 -0.037833
28 -0.43415 -0.347459 0.295904 -0.130639 -0.0813986 0.213843 -0.378125 -0.103681 0.14594 0.0916501 -0.0145312 -0.132116 -0.116612 -0.0619509 -0.197799 -0.114085 0.160723 -0.334422 -0.148234 -0.342449 -0.0439153 0.27687 0.295752 0.233309 -0.0990694 -0.441117 -0.571556 0.0656959 -0.273534 0.230702 0.20325 0.00616091 -0.374456 -0.581087 0.361021 -0.405915 0.0884799 0.277137 0.298622 -0.302065 -0.174384 0.382451 0.0854269 0.450385 0.14352 -0.241067 0.0826066 0.115273 -0.633841 0.0280453 0.160238 -0.363692 -0.10875 -0.536019 0.126754 -0.0681674 0.152014 0.420344 0.196197 -0.0104336 -0.163921 -0.158995 0.0472807 -0.088459 0.321305 0.242453 0.0271921 -0.626788 0.244449 -0.0429063 -0.189902 0.0627532 0.216367 0.0686468 0.0624373 0.143942 0.349993 -0.189246 -0.0408348 0.190184 0.0488871 -0.424323 -0.312748 0.313432 0.233218 0.0741279 0.22072 0.337488 0.182612 0.229396 -0.176965 -0.0768027 -0.319789 0.0603933 0.153547 0.18087 -0.211831 0.266932 -0.0333623 -0.205243 0.00783665 0.108078 0.214171 -0.171856 -0.227768 -0.237393 0.0430128 0.00419838 0.112575 0.357234 0.194659 0.0502891 -0.0361589 0.126146 0.222823 0.397761 0.0111641 -0.548417 -0.00787271 -0.343078 -0.134907 -0.301644 -0.166909 -0.112861 -0.11141 0.415895 -0.0669798 -0.038219
29 -0.434498 -0.343352 0.294543 -0.133774 -0.082682 0.214529 -0.372749 -0.102074 0.148054 0.0934888 -0.0170664 -0.131544 -0.120765 -0.0593496 -0.197867 -0.111718 0.16384 -0.327771 -0.150158 -0.343349 -0.0437541 0.271155 0.295132 0.226445 -0.0963203 -0.430012 -0.563377 0.0682512 -0.266478 0.227338 0.203899 0.00626922 -0.372647 -0.571403 0.361234 -0.398072 0.0917402 0.276337 0.298926 -0.298627 -0.166024 0.378934 0.0872822 0.444255 0.143612 -0.240712 0.0853825 0.112107 -0.63143 0.0321652 0.163506 -0.352723 -0.103614 -0.525956 0.122048 -0.0703748 0.14792 0.41208 0.192758 -0.0165041 -0.15954 -0.149488 0.0502143 -0.0915322 0.312774 0.240239 0.0316202 -0.616659 0.239321 -0.0402016 -0.191348 0.0608601 0.220107 0.0634868 0.0579595 0.136332 0.351948 -0.191743 -0.0380718 0.189215 0.0447473 -0.416851 -0.313823 0.31459 0.228534 0.071984 0.217286 0.335277 0.178472 0.223143 -0.174015 -0.0756488 -0.314827 0.0609798 0.146416 0.181241 -0.212641 0.267646 -0.0293805 -0.208228 0.00374469 0.112184 0.215145 -0.175385 -0.220344 -0.238707 0.0445507 0.00586258 0.10527 0.350029 0.193071 0.047774 -0.0290215 0.114853 0.21798 0.393464 0.0112649 -0.545909 -0.00165928 -0.341053 -0.133716 -0.297834 -0.169129 -0.111972 -0.108895 0.410994 -0.0648158 -0.0353367
30 -0.464158 -0.37021 0.308924 -0.137398 -0.0861262 0.231681 -0.393846 -0.106341 0.156831 0.0988911 -0.0212727 -0.137268 -0.129653 -0.065463 -0.213563 -0.114858 0.169236 -0.348416 -0.154344 -0.366642 -0.0481331 0.295842 0.310649 0.239443 -0.097842 -0.458501 -0.607522 0.0761077 -0.283547 0.241748 0.214162 0.00451729 -0.398531 -0.61332 0.388756 -0.42417 0.0946131 0.290038 0.313712 -0.319097 -0.179572 0.408854 0.0950193 0.476199 0.150793 -0.253879 0.0868821 0.121469 -0.671064 0.0294378 0.173585 -0.379125 -0.115511 -0.56034 0.131756 -0.06932 0.156239 0.442732 0.204928 -0.0172539 -0.167898 -0.164994 0.0507565 -0.0988235 0.331891 0.253946 0.0343003 -0.663018 0.250335 -0.0473758 -0.205223 0.0669495 0.233135 0.0749023 0.0662469 0.147649 0.374393 -0.20299 -0.0434654 0.201773 0.0459844 -0.450266 -0.328485 0.331581 0.242968 0.0811529 0.235452 0.353905 0.191581 0.240942 -0.184861 -0.0797855 -0.333831 0.0643078 0.156325 0.189928 -0.224053 0.282049 -0.0341409 -0.21914 0.00894137 0.113608 0.227288 -0.183014 -0.236256 -0.255169 0.0483105 0.000391087 0.115075 0.376726 0.205167 0.0547941 -0.0335483 0.123092 0.2387 0.422063 0.0108378 -0.575754 -0.00189499 -0.364675 -0.145387 -0.315983 -0.17407 -0.120809 -0.113658 0.435412 -0.0698921 -0.0393633
27 -0.454195 -0.36264 0.303063 -0.134884 -0.0863648 0.223386 -0.3838 -0.104571 0.151088 0.0984927 -0.0208768 -0.134803 -0.124344 -0.0686956 -0.205496 -0.115252 0.167267 -0.334884 -0.153331 -0.352802 -0.0453671 0.282211 0.301981 0.235998 -0.0995684 -0.449435 -0.588911 0.0694164 -0.276882 0.234069 0.206306 -0.000252298 -0.381595 -0.599024 0.376414 -0.415392 0.0905872 0.280258 0.306393 -0.311068 -0.174768 0.393458 0.0852865 0.462675 0.145784 -0.247084 0.0869892 0.113328 -0.652319 0.0297129 0.170946 -0.367575 -0.113597 -0.542602 0.127637 -0.0694003 0.152977 0.428048 0.197145 -0.0120664 -0.163478 -0.159009 0.0505057 -0.0906912 0.324643 0.245754 0.0318293 -0.642205 0.239436 -0.0438654 -0.192868 0.0596923 0.228747 0.073447 0.066595 0.145182 0.36319 -0.19434 -0.0432248 0.191275 0.0432457 -0.436632 -0.323403 0.327655 0.24123 0.0741607 0.229952 0.341998 0.190907 0.237533 -0.180517 -0.0781152 -0.321146 0.0630416 0.151137 0.18858 -0.216215 0.278377 -0.0321067 -0.21831 0.00712364 0.117362 0.22244 -0.180121 -0.235462 -0.244034 0.04586 0.00724425 0.108492 0.363291 0.202196 0.0453049 -0.0331287 0.12081 0.227211 0.407313 0.0125411 -0.559176 0.00503566 -0.355738 -0.140136 -0.306833 -0.170295 -0.112744 -0.11824 0.421663 -0.0648011 -0.0373082
16 -0.444414 -0.349111 0.300772 -0.134476 -0.0836383 0.220288 -0.38256 -0.103256 0.15419 0.0941336 -0.0157016 -0.128915 -0.123958 -0.0677695 -0.207976 -0.115907 0.163883 -0.327492 -0.157436 -0.348483 -0.0440608 0.279232 0.303729 0.231298 -0.0939448 -0.434321 -0.577684 0.0764287 -0.269029 0.229177 0.205366 -0.00063132 -0.379158 -0.584581 0.370151 -0.406735 0.0847746 0.271573 0.295615 -0.305216 -0.171916 0.387603 0.0809103 0.450009 0.151416 -0.243787 0.0839147 0.109298 -0.637486 0.0303913 0.163181 -0.366422 -0.113285 -0.536206 0.121033 -0.0718595 0.149219 0.423792 0.190241 -0.0191957 -0.156724 -0.150331 0.0506061 -0.0864735 0.313038 0.243108 0.0354952 -0.633587 0.231059 -0.0449547 -0.194364 0.0560666 0.222781 0.0690559 0.0613574 0.138085 0.360324 -0.19282 -0.0411313 0.188125 0.0424492 -0.429598 -0.319193 0.316544 0.235866 0.0744066 0.22492 0.339167 0.184628 0.231909 -0.179854 -0.0754894 -0.32184 0.058894 0.152231 0.186129 -0.217146 0.272207 -0.0316558 -0.214691 0.000251402 0.110607 0.216127 -0.17109 -0.229009 -0.236528 0.0415372 0.00533897 0.112466 0.35175 0.197916 0.0424715 -0.0253588 0.115808 0.226164 0.397308 0.0146857 -0.550088 0.00628065 -0.350044 -0.141091 -0.298426 -0.163119 -0.108966 -0.114092 0.417154 -0.0673667 -0.0428039
19 -0.443588 -0.35351 0.296272 -0.131671 -0.0785935 0.217796 -0.382414 -0.103205 0.146296 0.0958543 -0.0149411 -0.134751 -0.118782 -0.0616538 -0.205594 -0.11531 0.165368 -0.332727 -0.152859 -0.347599 -0.0477337 0.27414 0.300438 0.232969 -0.093693 -0.43149 -0.575454 0.0720503 -0.270858 0.233199 0.203473 0.00541583 -0.375671 -0.584377 0.370869 -0.407574 0.0855561 0.274249 0.298652 -0.30318 -0.170076 0.3892 0.0842865 0.447658 0.151151 -0.242445 0.0831688 0.110751 -0.641968 0.0296384 0.167038 -0.360494 -0.108754 -0.530204 0.124077 -0.0672903 0.15109 0.421011 0.191571 -0.0168994 -0.161692 -0.149195 0.0506936 -0.0892376 0.313276 0.24513 0.0360786 -0.632488 0.234826 -0.0443415 -0.19559 0.0597904 0.217803 0.0733548 0.0645776 0.140574 0.352079 -0.188943 -0.0437646 0.189833 0.040158 -0.429581 -0.311359 0.3206 0.233045 0.0731174 0.221909 0.333195 0.189131 0.231932 -0.177445 -0.0738866 -0.316404 0.0597079 0.150225 0.183761 -0.213825 0.271838 -0.0343725 -0.215171 0.000985987 0.114818 0.219597 -0.169127 -0.225949 -0.238611 0.0430507 0.00599052 0.111169 0.351325 0.197345 0.044328 -0.0266839 0.112274 0.228126 0.393766 0.0101772 -0.542581 0.00311135 -0.344509 -0.140812 -0.296622 -0.162357 -0.116272 -0.116631 0.4163 -0.0694538 -0.0395003
23 -0.449782 -0.358273 0.299193 -0.132031 -0.0817566 0.22076 -0.385204 -0.0992943 0.155111 0.0954312 -0.0196769 -0.130198 -0.119517 -0.0603987 -0.209353 -0.114562 0.168279 -0.335504 -0.156392 -0.352192 -0.0473969 0.28245 0.30126 0.227741 -0.0933298 -0.441441 -0.580663 0.0751751 -0.276081 0.235267 0.203031 -0.000144238 -0.381045 -0.588384 0.36936 -0.404303 0.0870141 0.276538 0.300933 -0.307033 -0.174212 0.390803 0.0872018 0.452969 0.150747 -0.242997 0.0813697 0.110984 -0.642469 0.0330139 0.166226 -0.363123 -0.11435 -0.538439 0.121172 -0.069963 0.14778 0.421179 0.1926 -0.012758 -0.157727 -0.153418 0.0495407 -0.0862368 0.320526 0.241631 0.0340562 -0.633542 0.238277 -0.0421718 -0.192397 0.0577719 0.22566 0.0705593 0.0599967 0.140209 0.358777 -0.194728 -0.0432969 0.18944 0.0391757 -0.428627 -0.316194 0.32186 0.236951 0.0767577 0.228491 0.336335 0.188618 0.227187 -0.183105 -0.0802327 -0.319805 0.0600909 0.148092 0.187203 -0.219663 0.272551 -0.0291397 -0.210957 0.00444888 0.115952 0.217213 -0.170747 -0.232309 -0.241164 0.0417029 0.00612976 0.108413 0.354015 0.197394 0.0458568 -0.029933 0.117884 0.223836 0.402091 0.0149032 -0.549761 0.00258972 -0.350757 -0.141345 -0.300788 -0.166623 -0.114271 -0.113977 0.417034 -0.0703187 -0.0422636
