35 128
20 -0.00350545 -0.00373191 -0.0140334 -0.00521975 -0.0223353 0.0261467 0.00406531 0.0260337 -0.000535472 -0.00981984 -0.000359234 -8.78141e-05 -0.0105306 0.0129882 0.0109144 0.00574051 0.0215811 0.0196145 0.0106288 -0.0316083 -0.0113083 -0.00905524 0.0117936 -0.00800629 0.00957607 0.00297979 0.00536708 -0.00958597 0.00819199 -0.00397083 0.00312017 0.00650919 -0.00139026 -0.000255845 -0.00749793 -0.00654993 0.00491041 0.00739213 0.00445486 0.00237588 0.000792523 -0.00662235 -0.00601881 0.00877822 -0.00440512 0.00402471 0.0165135 0.0128527 -0.00737497 0.0151338 -0.00861005 -0.0042464 -0.0275765 0.0204598 0.0129959 -0.0200233 0.00460139 0.0288333 0.0266074 -0.00456179 -0.00158767 0.00859464 -0.00298889 0.00446771 0.0131685 0.00652435 0.0157731 -0.00963982 -0.0123265 -0.0128567 0.0115711 -0.00592444 -0.0289126 -0.0253571 0.00843239 0.0177133 0.0206287 0.0202273 0.0159223 0.0122508 -0.0263226 -0.0129851 0.012439 -0.0255024 -0.00414752 -0.031311 -0.0173473 -0.0117638 0.00458439 0.00323498 -0.0235878 0.0109272 0.0137685 0.00653733 0.0128927 0.00434902 -0.00980648 0.00952611 0.00321443 0.0186904 0.0108504 -0.00424711 -0.015348 0.00314899 0.00162128 0.0073062 -0.0150485 0.0126816 -0.00385752 0.0197677 -0.0105014 0.0216322 -0.0121924 0.000893364 0.00739298 0.0160068 -0.0222528 -0.0325359 -0.0177942 0.0277924 0.0167499 0.000163914 -0.0168407 0.000280051 -0.0107948 0.00698309 0.00892244 0.0158507
34 0.0135245 0.00645646 0.0758518 0.0228814 0.082124 -0.0957572 -0.0232632 -0.101611 -0.0204256 0.0952722 -0.0127433 -0.000269781 0.0363163 -0.0701911 -0.0446259 -0.036037 -0.0311659 -0.0424702 -0.0151825 0.0537249 0.0293985 0.0196312 -0.0339708 0.0220928 -0.0371421 -0.00785487 -0.0168735 0.0507872 -0.0127438 0.0194438 -0.0012755 0.0016894 -0.00393251 -0.00116512 -0.00286232 -0.00255757 0.00279606 0.00487073 0.00140713 0.0027908 -0.00374291 0.000142861 -0.00105573 0.00356015 -0.0226264 0.0107675 -0.0286069 -0.0258267 0.00214668 0.00602462 0.00301724 0.00191543 0.0142309 -0.00641523 -0.0193462 0.0310637 -0.00196893 -0.0228555 0.011296 -0.00322693 0.00205082 0.00723418 -0.00828337 0.0124961 0.0182979 0.00618398 0.0233615 -0.0158746 0.0116294 0.0133272 -0.00475965 0.00157104 -0.0126075 -0.00644309 -0.000312445 -0.00241249 0.00817904 0.0106375 0.00714549 0.0119403 0.0109684 0.00265864 -0.00192786 -0.00117966 -0.00310601 -0.0439404 0.00220003 -0.00579116 0.00344197 0.0110614 -0.0301301 0.0141934 -0.00417824 -0.00631585 -0.0105596 -0.00416513 -0.00724495 -0.00243443 -0.00582498 -0.00405923 -0.0133903 0.00513236 0.0456227 -0.0130347 -0.0110268 -0.0133898 0.0164696 -0.00720536 -0.00228899 -0.00535983 0.0146467 -0.0237362 0.00235449 0.000850921 0.00341322 0.00445128 0.00164574 -0.00332701 0.0156379 -0.0218045 -0.0229642 -0.00208737 0.0216766 0.00476601 0.00769847 -0.00159925 0.00132753 -0.00469797
0 -0.198735 -0.131569 -0.295751 -0.0790599 -0.359794 0.423791 0.16059 0.578764 0.0930042 -0.499643 0.0358063 -0.00354001 -0.270395 0.487664 0.395297 0.289873 0.286445 0.36904 0.10418 -0.274945 -0.389437 -0.192335 0.32678 -0.186352 0.356048 0.0850201 0.103904 -0.417314 0.226206 -0.354299 -0.0905871 -0.0905303 0.0740205 -0.0759651 -0.159152 -0.132946 0.054697 0.160787 0.0971268 0.0819263 0.0468589 -0.126165 -0.0541653 0.18818 -0.191168 0.0727317 0.512431 0.361078 -0.254032 0.310815 -0.154994 -0.11837 -0.404111 0.297338 0.397706 -0.686565 0.124851 0.490984 0.300131 -0.0504883 -0.0255975 0.233046 -0.22905 0.233159 0.245534 0.12935 0.236285 -0.180308 -0.11791 -0.127682 0.264514 -0.0328318 -0.332084 -0.250852 0.0655767 0.151729 0.278775 0.256296 0.258367 0.292995 -0.370248 -0.180109 0.330503 -0.53685 -0.116152 -0.77029 -0.72237 -0.62062 0.0515545 0.220278 -0.779919 0.267958 0.24039 0.186865 0.0920874 0.021666 -0.0398776 0.0456626 0.0507016 0.156898 0.185246 -0.0646498 -0.567802 0.143975 0.0691082 0.120199 -0.23939 0.153166 -0.1167 0.327293 -0.0987226 0.200704 -0.114626 0.0348994 0.00791097 0.0424498 -0.0361461 -0.0436381 -0.0443874 0.0775559 0.133182 -0.009733 -0.237686 -0.0372528 -0.044584 0.0308453 0.0276741 0.0578801
23 0.0202636 0.0133401 0.043764 0.0148313 0.0354113 -0.0359821 -0.00285344 -0.0283316 -0.0167497 0.0794141 5.23563e-05 0.00249596 0.0246805 -0.0367926 -0.0136604 -0.0148158 0.00199797 0.00488135 0.0076929 -0.0284909 0.0332978 0.0203085 -0.0151673 0.00562205 -0.0265127 -0.00592251 -0.00543961 0.0277802 -0.0128061 0.026442 0.0434649 0.0389203 -0.0205293 0.0223341 0.0286833 0.0237484 -0.00587926 -0.00989969 -0.0188502 -0.0152719 -0.0113701 0.0249897 0.000120871 -0.0107032 0.0412863 -0.0134871 -0.0485803 -0.0370258 0.023217 -0.0250192 0.0122091 0.00417202 -0.000361781 -0.000463571 -0.0271444 0.0420577 0.00131633 0.00585268 0.0108376 -0.00308558 0.00181666 -0.0159719 0.0337113 -0.031752 -0.0378986 -0.0183845 -0.0142099 0.0131377 0.00210013 -0.000461497 -0.0159606 0.00194658 0.00138818 0.00209052 0.00495388 0.0096759 -0.0152996 -0.0147501 -0.0407235 -0.0483617 0.0192198 0.00867198 -0.0169358 0.0316914 0.00286651 0.0275755 0.0254205 0.0238719 -0.00447852 -0.0147787 0.0304041 -0.0136268 -0.00760713 -0.00517162 0.00462606 0.00212545 -0.00514029 0.0058965 0.00428409 0.00807386 0.00699441 -0.00135656 -0.00870969 0.000596956 0.00355742 0.00516625 -0.0115338 0.0112042 -0.000793441 0.00602275 -0.000658622 0.0115263 -0.00716508 0.000763094 0.0018352 0.0135571 -0.0365377 -0.042488 -0.0136504 0.0290299 0.0151002 -0.00205443 -0.0114224 -0.00317941 -0.011868 0.00669654 0.00229428 0.0190083
9 0.0150802 0.00796153 0.0199088 0.00724093 0.0237437 -0.0284282 -0.00341837 -0.0197795 -0.0129924 0.0457514 0.00215842 0.0031182 0.0131356 -0.021925 -0.0136418 -0.00484576 0.00326447 0.0105509 0.00780767 -0.0235007 0.0251729 0.00769074 -0.00234147 0.000674777 -0.01449 0.00054871 0.00119794 0.00747763 -0.00330325 0.00329812 0.0154166 0.0202818 -0.00685488 0.00526023 0.00873477 0.00521167 0.00110255 0.00394979 -0.00339085 -0.00881934 -0.000176452 0.0100842 0.00373183 -0.000590372 0.0124933 -0.0101367 -0.0293405 -0.0231776 0.00560001 -0.0104033 0.000763333 0.00304883 -0.0014946 -0.00374874 -0.010761 0.0190781 0.000780349 0.0123999 0.0108463 0.000593722 -0.00272959 -0.01055 0.0102027 -0.0128291 -0.00999545 -0.00073768 -0.00032596 -0.00438591 -0.00559152 -0.00652192 -0.00611914 -0.00335972 -0.000930236 -0.00587758 0.000741299 0.0079221 -0.00365202 -0.0043625 -0.0341777 -0.0361968 0.0128167 0.00537549 -0.00853778 0.0127969 0.00409538 0.0179853 0.0139226 0.015471 -0.000369293 -0.00601793 0.00189529 0.000498579 -0.00272481 7.51335e-05 0.00699723 0.00204476 -0.00762372 0.00870795 -0.000840814 0.00699598 0.00572795 -0.000453324 -0.0111807 0.000885049 0.00125798 0.00266642 -0.00945041 0.00474539 0.000308694 0.000137927 -0.0033802 0.00522826 -0.00740579 0.00200626 0.00536728 0.0133635 -0.0165041 -0.0203257 -0.016838 0.0267428 0.00969995 0.00263068 0.000209454 0.0030568 -0.00619124 0.000443967 0.00481766 0.00988985
25 0.0372264 0.0306385 0.0754445 0.0200344 0.074708 -0.087694 -0.0195431 -0.0806135 -0.023587 0.128097 -0.00448687 0.00168356 0.0418484 -0.0784715 -0.0429174 -0.0305814 -0.0226262 -0.0251589 0.00171702 0.00690958 0.0795776 0.042627 -0.052046 0.0301413 -0.0504304 -0.0134584 -0.0198818 0.0809883 -0.0418923 0.0600929 0.0800275 0.0788976 -0.046802 0.0385005 0.0652723 0.0592485 -0.0114943 -0.038016 -0.039752 -0.0387937 -0.0188353 0.0514818 0.0144158 -0.0334931 0.0806908 -0.0333736 -0.0794898 -0.0591914 0.0426583 -0.0561131 0.0223785 0.0207419 0.0438791 -0.0336799 -0.0468796 0.0778634 -0.00482891 -0.0249499 -0.012104 0.00104574 0.00103824 -0.0320013 0.0650004 -0.0625339 -0.0545994 -0.029336 -0.0410236 0.0395305 0.0183203 0.0227491 -0.0499652 0.00875919 0.0267488 0.020802 -0.000858093 -0.00622101 -0.0341054 -0.0358361 -0.0741471 -0.0910038 0.0521917 0.0216912 -0.0373898 0.0626647 0.01249 0.0525905 0.0517298 0.041323 -0.00656884 -0.0188443 0.0430188 -0.0184261 -0.0124418 -0.0157188 -0.00455491 -0.00307508 -0.00303124 0.00394307 -0.00136664 -0.0114599 -0.00443866 0.00242101 0.00731666 -0.00294335 0.00397823 -0.00191716 0.0041792 0.00353388 0.00101858 -0.0108656 0.00189286 0.00586229 0.00273509 0.00292237 0.0028583 0.00735581 -0.0168378 -0.0238895 -0.0097529 0.020935 0.0132983 0.00440766 -0.00351523 0.00421894 -0.00120817 0.000438332 2.42613e-05 0.00800416
26 0.0674029 0.0420497 0.0981985 0.0301071 0.102686 -0.124384 -0.0321375 -0.12531 -0.0328298 0.189864 -0.0133889 -0.00157407 0.0710513 -0.136002 -0.0905798 -0.0640527 -0.0356462 -0.0494236 -0.00034789 0.000393898 0.137173 0.0696973 -0.07769 0.0424845 -0.0841894 -0.0185338 -0.0348526 0.144277 -0.0709003 0.109734 0.130259 0.130518 -0.0691745 0.0679686 0.109361 0.0900638 -0.0221804 -0.0628422 -0.0654383 -0.0529088 -0.0256565 0.0765122 0.0144928 -0.0453344 0.143913 -0.0594696 -0.142365 -0.102833 0.0816724 -0.100103 0.0427313 0.0303706 0.0524543 -0.0374587 -0.0604576 0.0978373 0.00240384 -0.0109121 -0.00154992 0.00387673 0.00231344 -0.0541534 0.104447 -0.105512 -0.0891914 -0.0516713 -0.0718156 0.0609422 0.0372933 0.0340792 -0.078126 0.00592929 0.0367173 0.0271465 -0.000262803 -0.000813989 -0.0446805 -0.0458196 -0.115337 -0.134264 0.0753827 0.0334182 -0.0655218 0.100541 0.0077072 0.0500255 0.0623211 0.04781 -0.0103025 -0.0274693 0.0509205 -0.02051 -0.0218609 -0.0166896 -0.00836286 -0.00240441 -0.0133506 0.00340081 -0.00189814 -0.0112328 0.00390973 -0.00319159 0.0167827 -0.000592803 0.00439617 0.00325747 0.00264832 0.00497571 0.00376293 -0.0183929 0.00365081 0.000926201 -0.00100091 0.0057077 0.00726821 0.0200919 -0.0415724 -0.0482621 -0.0328305 0.0505539 0.0200332 0.00431796 -0.0126677 -0.0018917 -0.00916395 0.0113389 0.00634236 0.0236108
32 0.057379 0.0358188 0.113904 0.0333149 0.0654421 -0.0828566 -0.0169788 -0.0823991 -0.0348069 0.186907 -0.00367719 0.00452779 0.0625597 -0.121139 -0.0528726 -0.0382598 -0.00270398 -0.00396424 0.0211766 -0.0576022 0.120152 0.0586391 -0.0471864 0.0282739 -0.0664972 -0.0164279 -0.0247534 0.111103 -0.0530462 0.0775507 0.118644 0.122923 -0.0614093 0.0615801 0.0648733 0.0585485 -0.0123879 -0.0223346 -0.0475806 -0.0397255 -0.0203357 0.0554912 0.00666249 -0.0141518 0.114747 -0.0497775 -0.137688 -0.101865 0.0629965 -0.0789833 0.0275836 0.0264154 -0.00861554 0.0041481 -0.0305878 0.0400079 0.0159941 0.0447783 0.0362146 0.000685237 -0.00216023 -0.0213183 0.0780701 -0.0783111 -0.0561575 -0.0306487 -0.0396612 0.0314742 0.0165931 0.0177925 -0.0544328 0.00251852 0.0124563 0.00537718 0.00944525 0.0200342 -0.0235256 -0.0219565 -0.102843 -0.12427 0.0488348 0.0216153 -0.044593 0.0744714 0.00826626 0.0262483 0.0481277 0.0362334 -0.00869239 -0.0216553 0.0445396 -0.0187969 -0.0165594 -0.0153657 0.00542978 -0.00496982 -0.0241629 0.0195705 0.000996635 -0.00294984 0.0144285 -0.00559037 -0.0105523 -0.00277729 0.0140165 0.0213166 -0.0292429 0.0201903 -0.00663635 0.00696647 -0.003521 0.015604 -0.0231092 0.0120271 0.0131498 0.0353089 -0.0672169 -0.08532 -0.051103 0.0836562 0.0452712 0.00651346 -0.0394505 -0.00133096 -0.0254592 0.0132465 0.0193063 0.0425096
33 0.0506571 0.0414437 0.121988 0.0374048 0.0669898 -0.0795822 -0.00519673 -0.0583622 -0.0455242 0.213903 -0.00280813 0.0010011 0.0551167 -0.100654 -0.0361381 -0.0214254 0.0203829 0.024052 0.0422075 -0.10142 0.11007 0.0509223 -0.0340005 0.018696 -0.0673614 -0.0193432 -0.0273924 0.110822 -0.0396823 0.0603486 0.126868 0.12144 -0.0675199 0.0621083 0.0525263 0.0459538 -0.00758815 -0.010967 -0.043338 -0.0417937 -0.0173467 0.0583856 0.00633281 0.0061958 0.0878591 -0.0390831 -0.11815 -0.0895867 0.0343745 -0.0436145 0.0179763 0.014722 -0.0614575 0.0403572 -0.0174373 0.0143252 0.0344763 0.109001 0.0923808 -0.00897784 -0.000580539 0.00836409 0.0456487 -0.0479273 -0.0224699 -0.00611764 0.0182157 -0.00338412 -0.00863786 -0.017299 -0.0107107 -0.0028638 -0.0527102 -0.042118 0.0272483 0.0614017 0.0232925 0.016795 -0.0857209 -0.106022 -0.010179 -0.0109138 -0.00719488 0.0182046 0.00390056 -0.0124646 0.0183545 0.0124013 -0.00470779 -0.015754 -0.00873247 0.00110559 0.00828759 0.00198006 0.0444546 -0.00195073 -0.0557286 0.0430146 0.010222 0.0384747 0.0401456 -0.0175533 -0.0524794 0.012425 0.0229212 0.0378358 -0.056669 0.0410381 -0.00979374 0.0273962 -0.0144811 0.0315415 -0.0513784 0.0189054 0.0233907 0.0643506 -0.108039 -0.135914 -0.0669433 0.110717 0.0656669 0.00767968 -0.0586118 -0.00584523 -0.0381661 0.0223139 0.0288088 0.0689454
27 0.0276094 0.021407 0.0453846 0.0106824 0.0358015 -0.0431922 -0.00710508 -0.0359648 -0.0173661 0.0804167 -0.00572184 0.000195262 0.0180687 -0.0369199 -0.0178787 -0.0173471 -0.00437406 -0.00522994 0.0131858 -0.0237555 0.0370977 0.0191819 -0.0130207 0.00679961 -0.0250093 -0.00908321 -0.0111641 0.0324854 -0.0121302 0.0199278 0.0357124 0.0339579 -0.0195339 0.0151892 0.0259485 0.0242229 -0.00511731 -0.00845286 -0.0174154 -0.0190735 -0.00929867 0.0222044 0.00166293 -0.00469148 0.0345118 -0.0144506 -0.0423077 -0.029249 0.0131189 -0.015773 0.000915282 0.00176117 -0.00572597 0.00392061 -0.00510468 0.0170143 0.00318279 0.0157562 0.0255117 0.000652991 -0.000136764 0.000995529 0.0126162 -0.0124168 -0.0107579 -0.00200776 0.00722274 -0.00130163 -0.00738078 -0.0025332 -0.00869013 0.00251537 -0.0072318 -0.00545895 0.00574891 0.00923515 0.00217129 -0.00457175 -0.0327448 -0.0338586 0.00892751 0.00455914 -0.00471676 0.0111995 -0.000587367 0.00797653 0.0116769 0.0107232 -0.00292489 -0.00477346 -0.00219206 -0.00115754 0.00259799 0.00359527 0.00943195 -0.00269263 -0.01192 0.00989373 0.00286698 0.0104895 0.00572029 -0.002369 -0.00460509 0.00495215 0.00206343 0.00791783 -0.00702961 0.00160733 0.00205372 0.00140755 0.00403396 0.00312451 -0.00922313 0.00389227 0.00144043 0.00804988 -0.0181817 -0.0198794 -0.0197665 0.0274116 0.0177455 -0.00272421 -0.00626223 0.000918877 -0.00821294 0.0023718 0.00804618 0.00924383
10 0.010514 0.0104853 -0.0020643 -0.000284385 -0.00208542 0.00578792 -0.001741 -0.000756765 -0.00492253 0.00961974 0.000546242 -0.00152376 -0.00136801 0.00573319 0.0132851 0.009284 0.0156315 0.0242604 0.013023 -0.0302235 0.00802328 0.0060115 0.00650324 -0.00179897 0.00545035 -0.00206514 0.0030498 -0.00672456 0.00529072 -0.00665475 0.00896545 0.0124539 -0.00590917 0.00646907 -0.00336822 -0.00353058 -0.000337057 0.00635015 0.00345526 -0.00286653 0.00316502 -0.000753658 -0.00377754 0.00467819 0.0128019 -0.00773297 -0.0198524 -0.0180222 0.00898334 -0.0127675 0.00617634 0.00177288 0.000640123 -0.00417198 -0.0102333 0.0155031 -0.00196736 0.00085386 -0.00335724 -0.000874399 -0.00265649 -0.00568766 0.0119246 -0.0150152 -0.0151508 -0.00783347 -0.00687844 0.00442668 0.00105995 0.000323849 -0.0144113 0.00503656 0.00211876 0.00499018 0.00516257 0.000908794 -0.00489231 -0.00478055 -0.0174206 -0.0232495 0.0141204 0.00604683 -0.00852956 0.0112232 0.00173113 0.0137748 0.00498667 0.00845754 -0.00167421 -0.0109385 0.00847186 -0.00382419 -0.000139707 -0.00218633 0.00044231 -0.00162282 -0.0102401 0.00603448 0.00254364 0.00830023 0.0104313 -0.000582814 -0.00819824 0.0016606 0.00593193 0.00475266 -0.0149696 0.00971999 0.00340914 -0.00251335 -4.893e-05 0.00744226 -0.00253203 -0.000275379 0.00533667 0.00857364 -0.00895347 -0.00733796 -0.0137806 0.0160377 0.00899969 0.00170275 0.00282028 -0.00273569 -0.00514111 0.000207995 0.00277368 0.00573922
29 0.0261557 0.0199004 0.0704648 0.0163846 0.020277 -0.0290473 -0.00131192 -0.0155926 -0.0195427 0.0881544 0.00242943 -0.00264112 0.0220968 -0.0355273 0.00641241 0.00772606 0.0192885 0.02768 0.0221693 -0.067485 0.0241731 0.0102272 0.00196288 -0.000541023 -0.0146981 -0.00348669 0.00138383 -0.0079541 0.00168192 -0.00594256 0.0264412 0.0270794 -0.0167373 0.00947135 -0.00150392 0.00217053 0.00293948 0.0116855 -0.00151411 -0.00471544 -0.00323822 0.00741491 0.00023908 0.014644 0.020245 -0.00954235 -0.0285131 -0.0242313 -0.00336876 0.00125884 -0.00678643 -0.00255831 -0.0282215 0.0263121 -0.00611248 0.00928782 0.0108087 0.0502947 0.0425622 -0.008652 -0.000477813 0.00757053 0.00856295 -0.0123057 -0.00535397 -0.00375568 0.0173649 -0.0130248 -0.0182444 -0.0216752 0.00135143 -0.00271573 -0.0234286 -0.0207825 0.0110725 0.0298488 -0.00400098 -0.00622463 -0.0535366 -0.064048 0.00947008 0.0060771 -0.0117298 0.023038 0.00886208 0.0349545 0.0385537 0.0290063 -0.00298803 -0.0144909 0.0328443 -0.013516 -0.0104909 -0.0105912 0.00902019 0.00202583 -0.0160255 0.0108749 0.00208379 0.00897459 0.0120402 -0.00159907 -0.0131805 0.00188849 0.00518133 0.0164855 -0.0261622 0.0163698 -0.0104132 0.0269236 -0.00630095 0.0202426 -0.0242131 0.00988464 0.0114839 0.0248688 -0.0629726 -0.0716964 -0.0301795 0.053317 0.0325901 0.0048634 -0.0269585 -0.00297397 -0.0185114 0.00823676 0.00680377 0.0255239
5 0.00583921 0.00582918 0.0136912 0.00100491 0.0028777 7.00593e-05 -0.00547801 -0.00764646 -0.00933629 0.0320441 -0.00297736 -0.000570174 0.0067405 -0.0127151 0.00096692 -0.000458652 0.0019632 0.00922946 0.00752762 -0.0238764 0.00501354 -0.000731138 -0.00108259 0.00150543 -0.00354614 0.00111619 -0.00370271 0.00207055 -0.00383914 0.0085489 0.0146251 0.00995547 -0.00517223 0.00931818 0.00961354 0.0101464 0.000309756 -0.00323454 -0.00868097 -0.00800316 -0.00657533 0.00611233 -0.000623491 -0.00909771 0.0123733 -0.00827118 -0.0127464 -0.00593792 0.00746961 -0.0120537 0.00486361 0.00460735 0.00811822 -0.00792109 -0.0202718 0.0309324 -0.00242906 -0.00226668 0.00827962 -0.000488693 -0.000722301 -0.00439874 0.0119151 -0.0106194 -0.0108474 -0.0103059 -0.00717271 0.00299276 0.00021942 -0.000331964 -0.0125925 0.00372275 0.000439272 -0.00378733 0.00436797 -0.000268528 -0.00647915 -0.0057242 -0.0204351 -0.0290758 0.00825637 0.00648317 -0.0127313 0.0158386 0.00368777 0.0321372 0.0276965 0.024174 -0.00213258 -0.00847494 0.0222939 -0.00915549 -0.00208203 -0.00428566 0.00574729 -0.00102612 0.000613697 0.00206946 6.42364e-05 -0.00510954 0.00160041 0.00396124 0.00509413 -0.00441423 0.00235989 0.0012617 0.00404445 0.000713807 0.00282962 -0.005653 -0.00555372 0.0025998 -0.00230196 0.00141366 0.00400125 0.0055929 -0.0184591 -0.0183268 -0.00613896 0.0137907 0.0056449 0.000695629 -0.00913186 0.00244367 -0.00926292 0.00444658 -8.54306e-05 0.00653995
11 -0.0240909 -0.0128156 -0.0265159 -0.00956612 -0.0442476 0.0567643 0.00504943 0.0320544 0.0088813 -0.0554018 0.00101668 0.00179248 -0.0222798 0.0446583 0.0237179 0.0175812 0.0142893 0.0145771 -0.000906348 -0.00298799 -0.0399903 -0.0207796 0.0175314 -0.010554 0.0266032 0.00740845 0.0124122 -0.0359091 0.0207271 -0.0372824 -0.0438852 -0.041919 0.023349 -0.0215042 -0.0406924 -0.029283 0.00384824 0.0201589 0.0191955 0.0218681 0.00838467 -0.0232215 -0.00882953 0.017655 -0.055452 0.0197949 0.0476304 0.0359692 -0.0309537 0.04147 -0.0141285 -0.0138563 -0.0317815 0.0221922 0.022444 -0.0306046 0.00288659 0.0107409 0.00780344 -0.000672725 -0.00269772 0.0167389 -0.0363689 0.0400584 0.0305513 0.0163566 0.0199294 -0.0177847 -0.0147826 -0.012771 0.0301296 -0.00101785 -0.0238522 -0.0168424 6.22413e-05 -0.000522132 0.0347723 0.0276053 0.0468934 0.0576318 -0.0381037 -0.0177315 0.0273605 -0.0442836 -0.00143456 -0.0266803 -0.0208018 -0.0195478 0.00153165 0.00637471 -0.00944032 0.00370613 0.0053252 0.000453872 -0.000553351 -0.0014248 0.00235567 -0.00210295 -0.00496363 0.000264285 -0.00551655 0.00317049 0.00708332 -0.00374532 -0.00266687 -0.000636729 0.00533371 -0.00413211 -0.00349605 0.00467873 -0.000616721 -0.00450363 0.0075556 -0.00513977 -0.000497839 -0.00752289 0.00895361 0.00927483 0.00569612 -0.00554215 -0.0052948 -0.000248996 -0.00762133 0.000436932 0.00165764 0.0036043 0.0028255 -0.000769767
2 0.0443262 0.0293139 0.0747702 0.0199167 0.0678955 -0.0778165 -0.0148467 -0.0630286 -0.0231186 0.12905 0.000574402 0.00322949 0.0345492 -0.0636919 -0.0213627 -0.0111242 -0.00447263 -0.00145075 0.0168353 -0.0349191 0.0378422 0.0175984 -0.0104176 0.00416394 -0.0265612 -0.00720521 -0.00138217 0.00971383 -0.00477768 0.0150193 0.0401185 0.0379103 -0.0239519 0.0195273 0.0271116 0.0285286 -0.00593288 -0.00744157 -0.0197891 -0.0122213 -0.00723121 0.023347 0.0077001 -0.00974403 0.0570552 -0.0269815 -0.0744417 -0.0496453 0.0270294 -0.0344844 0.0142714 0.0153903 0.0160212 -0.0154418 -0.0259433 0.0512439 0.00539371 0.00520618 0.00541692 0.000987848 -0.00100296 -0.0158598 0.0445209 -0.0518237 -0.038265 -0.0214253 -0.0179095 0.0168386 -0.00100736 0.00467965 -0.0232584 0.00528162 0.0119295 0.0119888 0.00113649 0.00815139 -0.0330398 -0.0252996 -0.0787457 -0.0900568 0.0430307 0.0186347 -0.0363952 0.0576527 0.0126569 0.0805572 0.054095 0.0522297 -0.00243128 -0.0222391 0.0602511 -0.0228884 -0.0241499 -0.0162718 -0.00339627 -0.000685543 -0.00309147 0.00197031 -0.00479003 -0.00918467 0.00114717 -0.00196737 -0.000165367 0.00313741 -0.000704896 0.00487981 -0.0059733 0.00545419 0.000595898 -0.00420661 0.00201684 0.00236735 -0.00873641 0.00445318 0.00472266 0.0146297 -0.0272907 -0.0304668 -0.0169111 0.0247848 0.0103063 -0.00214243 0.00287475 -0.00165003 -0.00398232 -0.000557198 0.00219854 0.0108074
18 -0.049592 -0.0340803 -0.0878429 -0.0234236 -0.101702 0.119191 0.0247151 0.105799 0.0247186 -0.130572 0.00925104 9.01562e-05 -0.0547985 0.0982726 0.0708203 0.0468072 0.0556755 0.0703591 0.0197937 -0.0411236 -0.097667 -0.0475527 0.0672203 -0.0378219 0.0728542 0.0163731 0.0213187 -0.100613 0.0499206 -0.073339 -0.0704261 -0.0719685 0.0477465 -0.0397817 -0.0753741 -0.0670133 0.0148072 0.0514965 0.0441088 0.0370698 0.0178427 -0.0524256 -0.0139811 0.0510051 -0.0953864 0.0384807 0.108244 0.077227 -0.0688496 0.0805736 -0.0378036 -0.0292111 -0.0739795 0.0527915 0.0670044 -0.109354 0.0153479 0.0719194 0.0438877 -0.0125012 -0.0103001 0.0575605 -0.0751282 0.0774504 0.0751877 0.0437385 0.0666728 -0.0503813 -0.0339572 -0.0331317 0.06782 -0.00621216 -0.072775 -0.0564222 0.008117 0.0233259 0.0759477 0.0695054 0.0980923 0.112104 -0.0888517 -0.0427404 0.0674178 -0.103027 -0.0178522 -0.112353 -0.0862049 -0.0718081 0.0099104 0.0285218 -0.0929516 0.0320435 0.0346128 0.028384 0.0170188 0.00321116 -0.0137119 0.00755444 0.00729484 0.0253771 0.0189623 -0.0043972 -0.0328578 0.00855616 0.00243954 0.00808381 -0.01782 0.0124695 -0.0153869 0.0316143 -0.01166 0.023685 -0.0180255 0.00893257 0.00445053 0.00237777 -0.00682512 -0.00456576 -0.00390874 0.0122703 0.0151283 -0.00427039 -0.024947 -0.00361531 -0.00203124 0.00639708 0.000524487 0.0049804
16 0.000555787 0.0059501 0.0087131 0.00112638 0.00821965 -0.00756315 -0.0068015 -0.0128032 -0.001787 0.0245772 0.00185219 0.00258667 0.00151492 -0.00578411 -0.000276807 -0.000415828 0.0120468 0.0168152 0.00812543 -0.0222013 0.00674792 0.0040226 0.000492993 0.000274548 -0.00418682 -0.00412265 -0.000469086 0.0188814 -0.00185252 0.00676835 0.010084 0.0154535 -0.00145356 0.00254616 0.00108967 0.000747159 0.00220279 -0.00170379 -0.000354852 -0.00300861 -0.00222973 0.00562266 -0.00279583 0.00418994 0.00593749 -0.000796324 0.00430324 0.00796542 -0.0103244 0.0114739 -0.00385287 -0.00507153 -0.0173227 0.00814242 -0.00324386 0.0020067 0.00784864 0.0244792 0.0225059 -0.00410054 -0.00412526 0.0124165 -0.0053422 0.00819966 0.0114942 0.00799119 0.022088 -0.0167645 -0.0110518 -0.012672 0.00706737 0.000921064 -0.0256263 -0.0222617 0.00490483 0.0143641 0.0186504 0.0160816 0.00140506 0.00178104 -0.027226 -0.00838009 0.01434 -0.0252108 -0.00844611 -0.0380559 -0.0278718 -0.0241556 -0.00038725 0.00987072 -0.0422449 0.0107452 0.0194785 0.0170451 0.0179636 0.0014911 -0.0167343 0.0165868 0.0115187 0.0240481 0.0197671 -0.00683465 -0.0327672 0.00622029 0.00565967 0.0118159 -0.0186391 0.0164569 -0.00898401 0.032891 -0.0127587 0.0276547 -0.0177713 0.00971898 0.00140985 0.0132866 -0.0297017 -0.0357719 -0.0211124 0.0327768 0.0199004 0.000141986 -0.0220435 -0.00726062 -0.00806852 0.00968944 0.00323944 0.0153444
13 -0.0284089 -0.0194851 -0.0590242 -0.0182001 -0.0748327 0.0924544 0.0199228 0.0793038 0.0131833 -0.0867115 0.00437947 -0.000759181 -0.031851 0.0597438 0.0416869 0.0343901 0.0348942 0.0457038 0.0118031 -0.0349513 -0.0610799 -0.0337956 0.0402854 -0.0211012 0.0436203 0.00857733 0.0191189 -0.0667086 0.0350179 -0.0501108 -0.0432503 -0.0459399 0.0296491 -0.0291509 -0.0527285 -0.0471487 0.014215 0.0345086 0.0316697 0.0284585 0.0140403 -0.0325167 -0.0124887 0.0311361 -0.0488359 0.0236899 0.0514246 0.0345063 -0.0356205 0.0440622 -0.0161248 -0.0157607 -0.0521652 0.0325855 0.0422139 -0.0703645 0.0092193 0.0452082 0.0309027 -0.00923486 -0.00277962 0.0418857 -0.047854 0.0518701 0.0446668 0.0234002 0.0402424 -0.0294377 -0.0156235 -0.0197406 0.0364254 -0.00337787 -0.0371948 -0.0310312 0.00641903 0.0189149 0.0509818 0.0458302 0.0734422 0.076615 -0.0557293 -0.0308388 0.0361916 -0.0658594 -0.0113004 -0.0590128 -0.0504882 -0.0432293 0.000845687 0.020472 -0.0364771 0.00919901 0.0118607 0.00381303 0.00249371 0.00485466 -0.00046021 0.000373708 -0.000813431 0.00231906 0.00252835 0.00367095 -0.000656683 0.00297885 0.00157391 0.00768187 -0.0116252 0.0131762 -0.0091981 0.019649 -0.00471384 0.0111075 -0.01753 0.00873035 -0.00218282 0.00652112 -0.00201752 -0.0024439 0.00203114 0.00455465 0.00292884 -0.000483211 -0.0141446 -0.00420235 0.00111715 -0.00310425 -0.000356785 0.0018852
31 0.00419831 0.00227012 0.00973519 0.00076745 0.00281614 -0.00319123 0.000739842 -3.37708e-05 0.000389308 0.0119139 0.00208724 0.00168332 -0.00183727 -0.00762169 -0.0035646 -0.0013217 0.0101181 0.00795268 0.0112728 -0.0235272 0.00268366 0.0019081 0.00226125 -0.00301498 -0.00196657 -0.000262105 -0.000163731 0.010231 -0.00403535 0.00498171 0.00954243 0.0156931 -0.00850389 0.00399708 -0.000824867 0.000927941 0.00255238 -0.000675933 -0.005957 -0.0045512 0.000591093 0.00231312 -0.00338881 0.00161185 0.00168528 0.00236742 -0.00020908 0.00328568 -0.00214813 0.000935998 -0.00303377 0.00125194 -0.00833929 0.00480233 -0.00753253 0.00687645 0.0064965 0.0198015 0.0211127 0.000354987 -0.00330106 0.0107927 -0.00253293 -0.000472321 -0.0019273 -0.00124173 0.00741443 -0.00715485 -0.00305951 -0.00443427 0.00538233 -0.00313291 -0.0143724 -0.0176642 0.00849422 0.00958711 0.00842033 0.00578712 -0.00459626 -0.00572366 -0.0080425 -0.00805179 0.00527826 -0.00683364 -0.0028577 -0.0174172 -0.00799937 -0.00973357 0.00347368 0.00122819 -0.027451 0.00573226 0.0149343 0.0131508 0.0182501 0.0011385 -0.012795 0.0141967 0.00621844 0.0242795 0.0129048 -0.00870003 -0.0242788 0.00473695 0.00774109 0.00818028 -0.00901515 0.00922394 -0.00487602 0.0174485 -0.00738423 0.0219759 -0.00981713 0.00448763 0.00141706 0.0120342 -0.0315093 -0.0326659 -0.0169268 0.0224208 0.0199925 0.00360942 -0.0179938 -0.00557523 -0.00704959 0.00478782 0.00735646 0.0100844
24 0.0465565 0.031713 0.060199 0.0183767 0.0721836 -0.0856956 -0.0166954 -0.0781962 -0.0204985 0.0946164 -0.00981418 0.00409397 0.0441729 -0.0844809 -0.0573916 -0.0374571 -0.0294874 -0.0356755 -0.00475264 0.0045587 0.0705897 0.03255 -0.0422071 0.0209329 -0.0507627 -0.0127458 -0.020433 0.0802558 -0.0420585 0.0588709 0.0786712 0.0727601 -0.0425175 0.0414318 0.0666697 0.0514039 -0.0144383 -0.0395417 -0.0432205 -0.0377778 -0.0175898 0.0491302 0.0109428 -0.0346392 0.0863048 -0.0349085 -0.0945872 -0.0690109 0.0574318 -0.0760083 0.0313243 0.0265807 0.0483071 -0.0350664 -0.0561783 0.0863438 -0.00464781 -0.0299162 -0.0123057 0.00797012 0.00160154 -0.040791 0.0715135 -0.0726587 -0.0695907 -0.0411281 -0.0598633 0.0466749 0.0275564 0.0324472 -0.0608905 0.00794326 0.0495289 0.0373541 -0.00256601 -0.0106615 -0.0417167 -0.0425921 -0.0842385 -0.101641 0.0690113 0.030383 -0.0483911 0.0756488 0.0103282 0.0571906 0.0612496 0.0448914 -0.00492101 -0.0261358 0.0665936 -0.020049 -0.0281052 -0.0222933 -0.0127835 -0.00593813 -0.00739694 0.00160945 -0.00675668 -0.0159579 -0.000812103 0.00264604 0.0253509 -0.00651197 -0.00322381 9.81134e-05 0.00243361 -0.00391636 0.00347698 -0.0165017 0.00200136 -0.00893996 0.00469003 0.00269204 0.00298748 0.00624633 -0.0158965 -0.0191773 -0.0189495 0.0261274 0.0102722 0.0048841 0.00401014 -0.00212183 -0.00473636 0.00375841 0.00103599 0.012556
19 0.00893323 0.00895203 0.0265694 0.00445939 0.00619867 -0.0124068 -0.00560644 -0.0197913 -0.0096936 0.0319095 0.00323972 -0.00146376 0.0155739 -0.0244177 -0.00252619 -0.00316438 0.00738188 0.00571839 0.00727359 -0.0211944 0.0193557 0.0125976 -0.00734372 0.00638287 -0.00680513 -0.00262744 -0.00683007 0.0157006 -0.00212135 0.0118262 0.0236024 0.0211294 -0.0166813 0.0131881 0.0155465 0.0103312 -0.00479235 -0.00733154 -0.014281 -0.0103961 -0.0039245 0.0109493 0.000925119 -0.00798853 0.0240593 -0.00693039 -0.0347537 -0.0262388 0.017955 -0.0215802 0.00452717 0.00927272 0.00588788 -0.00210444 -0.0127472 0.0186728 0.00326978 -0.000937568 0.00541098 0.00229126 0.00327267 -0.00438601 0.0154422 -0.0208212 -0.0117026 -0.00340492 -0.0052723 0.0104508 -0.000824124 0.00421395 -0.0119578 0.00163443 -0.000399325 -0.00463358 0.00321485 0.0101124 0.00280555 -0.00197583 -0.0195 -0.0240217 0.00283431 0.00098405 -0.00792001 0.0104524 -0.000296003 0.0111649 0.0162837 0.0109741 -0.0050489 -0.00501848 0.018236 -0.00952727 -0.00604455 0.00044572 0.00416694 -0.00349944 -0.0079436 0.00240271 -0.00112456 0.000127303 0.00278918 -0.00387647 -0.00729501 0.00438845 0.00202222 0.00812587 -0.00593181 0.00814553 -0.0014444 0.001847 0.000413283 0.0041683 -0.0103425 0.00223296 0.00110003 0.0075602 -0.0118738 -0.0170712 -0.00613363 0.0104104 0.0114613 -0.00270804 -0.00517862 0.00153478 -0.0061694 0.00452121 0.00108441 0.0106001
21 0.0106662 0.00715733 0.0108972 -0.000138707 0.00792615 -0.00706151 -0.00183538 -0.00642508 -0.0049117 0.0248309 0.00251568 -0.000518396 0.00390122 -0.00245494 0.000494528 0.00684778 0.00830979 0.0135068 0.00603987 -0.0282951 0.0143358 0.00389744 -0.00366736 0.00358995 -0.0103717 -0.00266035 -0.00419729 0.010199 -0.00362434 0.00262158 0.0149031 0.0129843 -0.00414137 0.00741317 -0.00272923 0.00315179 0.000572055 0.00678533 -0.00511874 -0.00671224 -0.00458511 0.00678494 -0.00434341 0.00917353 0.00255173 -0.00244103 -0.00955736 -0.0117295 -0.000967258 0.00828376 -0.00466628 -0.00330621 -0.0244527 0.0191874 0.00382052 -0.00676708 0.0106295 0.0309396 0.0205352 -0.00321699 -0.00502389 0.0102402 -0.00450125 0.00413834 0.000795423 0.0061652 0.0139318 -0.0111366 -0.00642187 -0.00618344 0.00212958 -0.00105602 -0.0120662 -0.0130865 0.00409696 0.00966628 0.00942164 0.00306944 -0.012305 -0.0130785 -0.00367999 -0.00599039 0.00020753 -0.00276781 -0.0014705 -0.0101314 -0.00928466 -0.00300199 -0.00239033 -0.000566153 -0.0245891 0.0110201 0.0158271 0.0119763 0.0135961 -0.00126767 -0.016476 0.0131401 0.00768121 0.0285582 0.0187784 -0.00426204 -0.0299434 0.00455271 0.00507933 0.0110978 -0.0136037 0.00873439 -0.012318 0.0217426 -0.00922839 0.0202932 -0.0132095 0.00923841 0.00800853 0.0178619 -0.0302807 -0.0408874 -0.0198665 0.0253544 0.0178201 -0.000184868 -0.0248016 -0.00596082 -0.00951255 0.0065961 0.0046032 0.0168701
4 0.0158109 0.0143984 0.0481058 0.011618 0.0286268 -0.0387074 -0.00693296 -0.0336284 -0.0164201 0.0847612 -0.0012694 0.000560256 0.0227279 -0.0478479 -0.0232299 -0.0173873 -0.0115254 -0.0075558 0.00308002 -0.0104713 0.0369468 0.0204544 -0.0150789 0.0116177 -0.0302959 -0.00536075 -0.00645428 0.02569 -0.00820751 0.0190902 0.0285121 0.0301649 -0.0175882 0.0185498 0.0195899 0.016932 -0.00264346 -0.00977114 -0.0188545 -0.01552 -0.00577168 0.0220205 0.00616408 -0.0108242 0.0388548 -0.0189634 -0.0561962 -0.0435141 0.0216885 -0.0312366 0.0120193 0.00812299 0.0080949 -0.00367153 -0.0264465 0.0406088 0.000462949 -0.00246959 0.00546925 -0.0019685 0.000416222 -0.0171474 0.0318149 -0.0337124 -0.03314 -0.020442 -0.0109756 0.00997226 0.00137621 0.00471442 -0.0150604 0.00286725 0.0122526 0.00971131 0.002916 0.00253408 -0.0247358 -0.0236667 -0.0428472 -0.0552136 0.0305335 0.0142047 -0.0296085 0.0441323 0.0119444 0.0546003 0.0371947 0.0325069 -0.00356827 -0.0162863 0.0443651 -0.016435 -0.0133493 -0.00999562 -0.00158504 -0.00317816 -0.00321398 -0.00226854 -0.00545863 -0.00374746 -0.00535636 -0.000768176 0.00632748 0.00234582 0.00271038 0.00885263 -0.00706886 0.00374616 -0.00083456 -0.00564198 0.000251329 0.00376612 -0.00459139 0.00256132 0.00316076 0.0116594 -0.0249303 -0.028073 -0.010514 0.0215293 0.0121172 0.00443805 -0.00595791 0.000377317 -0.00951165 0.00267199 0.0057638 0.0104333
8 -0.0248249 -0.0149343 -0.0439147 -0.0140304 -0.0403786 0.0498604 0.00717257 0.0331491 0.0117964 -0.0460767 0.00149954 -0.00183997 -0.0261577 0.0422511 0.0260317 0.020208 0.0106754 0.013017 0.0020407 -0.00778799 -0.0406965 -0.0160426 0.0210269 -0.00844661 0.0210232 0.0061991 0.0128849 -0.0331282 0.0210945 -0.0390107 -0.0432443 -0.0424565 0.0201978 -0.023544 -0.0383015 -0.0300297 0.0102592 0.0247255 0.0235279 0.0184456 0.00530268 -0.0203842 -0.00414103 0.0158062 -0.0490931 0.0210613 0.042181 0.0356552 -0.0249567 0.0308457 -0.013869 -0.00668673 -0.032011 0.0252021 0.0327464 -0.0532614 0.00656968 0.0245435 0.0150959 -0.000589172 -0.00199363 0.0250722 -0.0306758 0.0307318 0.0323824 0.0152868 0.0199481 -0.0165546 -0.0110337 -0.0172269 0.0300774 -0.00559628 -0.017967 -0.0176131 0.000364564 0.00819288 0.0195029 0.0139063 0.0397138 0.0450188 -0.0145728 -0.00669692 0.0157789 -0.0256968 -0.00524065 -0.0207359 -0.0235835 -0.0158797 0.00254362 0.00840842 -0.00604114 -6.65215e-05 0.00670513 0.00380062 0.00610011 0.00352315 -0.00567193 0.00369579 0.00129559 0.015501 -0.000155135 0.00139427 -0.0101315 0.00365538 0.00436503 -0.00154103 -0.00301917 0.00627787 -0.00562466 0.00739138 0.00391112 0.000572577 -0.003643 -0.00015024 -0.000490212 -0.00276627 0.00659592 0.00481703 -0.000692656 -0.00221605 0.00223854 -0.00159329 -0.00667016 -0.00458754 -0.000676305 -0.00364145 -0.00353855 -0.00547734
15 0.0159999 0.00990356 0.0358354 0.00811825 0.0350728 -0.0420946 -0.00869813 -0.0426989 -0.0177237 0.0712465 -0.00137478 0.00232006 0.00918185 -0.0249241 -0.00286022 -0.00185673 0.00510829 0.00906362 0.0134248 -0.0292334 0.0291394 0.0158491 -0.0115261 0.00280041 -0.0199831 -0.00118532 -0.00243414 0.0273682 -0.0128482 0.0178801 0.028742 0.0240854 -0.0139552 0.0141038 0.0162134 0.0115976 0.000129875 -0.00907886 -0.0154842 -0.0154744 -0.00834819 0.0190241 0.00114099 0.00405562 0.00847652 -0.00381111 -0.000858393 -0.000185404 -0.00811491 0.00549144 -0.00256165 0.000630799 -0.01965 0.00891756 -0.0142 0.0196793 0.0100859 0.019696 0.0261832 -0.000607736 -0.00328064 0.00820818 0.0074835 -0.00131399 0.00103929 0.00165451 0.0232681 -0.0177704 -0.0135323 -0.0100497 0.0111254 -0.00219879 -0.0349969 -0.0258391 0.0113309 0.0163938 0.014319 0.0129885 -0.0146989 -0.0182564 -0.0191936 -0.0109371 0.00681982 -0.0073867 -0.00111846 -0.0177661 -0.0105459 -0.00801414 0.0016361 0.0023563 -0.0419763 0.0146332 0.0230936 0.016202 0.0233197 0.0037032 -0.0229079 0.0205592 0.0137508 0.0310124 0.01874 -0.0103348 -0.0298577 0.00563935 0.00433568 0.0128015 -0.0155179 0.0162257 -0.0124306 0.0302653 -0.0080816 0.0198668 -0.0196793 0.00996011 0.00787747 0.0171761 -0.0367793 -0.0495367 -0.0233872 0.0392124 0.0255364 -0.00102407 -0.0203953 -0.00438736 -0.00901898 0.00936787 0.0104547 0.0157549
12 -0.0431281 -0.0309749 -0.0711197 -0.0174551 -0.079352 0.091191 0.018937 0.0849148 0.0238563 -0.114036 0.00759704 0.00160173 -0.0438119 0.0747628 0.0553493 0.0346335 0.026228 0.0357639 0.00355632 -0.00667894 -0.0634646 -0.0322467 0.0389645 -0.0228009 0.048091 0.00740267 0.0128592 -0.0648594 0.0348862 -0.0506003 -0.0536182 -0.0520969 0.0308512 -0.0296093 -0.0511813 -0.0486843 0.00857542 0.0337782 0.0349328 0.0253736 0.0124583 -0.0405462 -0.0135361 0.0340608 -0.0698531 0.0284258 0.0805745 0.0594125 -0.053108 0.0602179 -0.0307349 -0.0205066 -0.054511 0.0433678 0.0604992 -0.0955273 0.00811923 0.0442564 0.0245632 -0.0090787 -0.00786297 0.0393973 -0.0645835 0.0620087 0.0607601 0.0300167 0.0471202 -0.035358 -0.0213792 -0.0200191 0.0405899 -0.00882653 -0.0512321 -0.0342795 0.00464526 0.0156073 0.0582029 0.0496505 0.0765756 0.0945339 -0.0615832 -0.0271592 0.042039 -0.0699502 -0.0134864 -0.0743953 -0.071249 -0.0558683 0.00350792 0.0271661 -0.0778092 0.0261202 0.0281688 0.0210019 0.0166388 0.00522796 -0.00851137 0.00812534 0.0110513 0.0194623 0.00875421 5.04581e-05 -0.0285689 0.00504634 0.00074633 0.00594681 -0.0141881 0.0100203 -0.0117914 0.0302737 -0.00758056 0.0180972 -0.00813137 0.00647657 -0.00282338 0.00150288 -0.0086018 -0.00663068 0.00372235 -0.00397243 0.0119112 -0.00164318 -0.022427 -0.00168491 -0.00158414 0.000768544 -0.00028012 0.00579891
6 0.00845575 0.0068705 0.0225124 0.0098265 0.0164334 -0.0186917 -0.00090164 -0.0153896 -0.00986414 0.0458264 0.00189134 -0.00268608 0.00889319 -0.0120983 -0.002066 -0.00196233 0.0021132 0.00793 0.00859625 -0.0179026 0.0196527 0.00610549 -0.00535297 0.00305707 -0.0090124 -0.00529668 -0.00409725 0.0182592 -0.00329546 0.00713329 0.00721637 0.00976043 -0.00459288 0.000467778 0.00370491 0.00385862 -0.00120122 -0.00164324 -0.00859415 -0.00786736 -0.00153505 0.00706463 0.0012689 0.00292717 -0.00319651 0.00257703 -0.0106145 -0.00759555 0.000919996 0.00248151 -0.00483418 -0.00164711 -0.00791791 0.00874935 -0.0201302 0.0297596 -0.000101496 0.00811402 0.0106984 0.0018691 -0.00212148 0.00483798 -0.00271183 0.000882475 -0.00442336 -0.00408212 0.010449 -0.00941006 -0.00934167 -0.0100727 0.00366446 -0.000311419 -0.0113672 -0.00633051 0.00427026 0.00295913 0.00720693 0.00826938 -0.00962133 -0.0172598 -0.0021557 -0.00320049 0.000580431 0.00354306 0.000588078 0.0050798 0.00646982 0.000919484 -0.00166094 -0.00361293 -0.00397532 0.00257246 0.00730675 0.00749252 0.0111345 -0.0023674 -0.0100195 0.00544615 0.00539093 0.0159342 0.00414772 -0.00412046 -0.013777 0.000821523 0.0048993 0.0102968 -0.0129093 0.006513 -0.0012438 0.0157232 -0.00684546 0.0126535 -0.00975274 0.00212195 0.00295537 0.00713885 -0.0127078 -0.0182805 -0.00854446 0.0191584 0.0129918 -0.00171622 -0.00978037 -0.00103201 -0.00502096 0.00330354 0.00322463 0.00670214
17 -0.0185501 -0.009267 -0.00944761 -0.00330124 -0.0375013 0.0469056 0.000891758 0.00853942 0.00183973 -0.0194448 0.00679023 0.00108374 -0.00996749 0.0142279 0.0323102 0.020544 0.021485 0.0267219 0.00955231 -0.0278719 -0.0217003 -0.0116085 0.00596346 -0.00425541 0.0113123 0.00361032 0.0063378 -0.0153757 0.00869975 -0.0155324 -0.026664 -0.025155 0.0188012 -0.0138551 -0.0288671 -0.0269357 0.01057 0.0237119 0.0112016 0.0118576 0.00368248 -0.0152284 -0.000439916 0.0113951 -0.0402278 0.0104834 0.00761417 0.00433435 -0.00990613 0.0126919 -0.0119554 -0.00401295 -0.0239167 0.0161549 -0.00209329 0.00500491 0.00287221 -0.0010424 0.00530729 0.000350685 -0.00244303 0.00824386 -0.0242964 0.0220502 0.0246749 0.014698 0.0204589 -0.0172495 -0.0133759 -0.0132379 0.0125754 -0.0027674 -0.0217326 -0.0210656 0.00231051 0.00585766 0.0231539 0.0182103 0.0245573 0.0287901 -0.0220159 -0.0161762 0.00538778 -0.0136298 -0.000189535 0.0153154 0.00778606 0.00781754 -0.00141416 -0.00470783 0.0344226 -0.00814171 -0.0142477 -0.00679724 -0.00477652 -0.0053402 0.0105172 -0.0128963 -0.0103899 -0.0241477 -0.0175728 0.00339868 0.0224837 -0.00312006 -0.00119287 -0.00041296 0.00488237 -0.00193056 0.00242961 -0.00993471 0.00284449 0.00238501 -0.00444656 -0.00113955 -0.0033042 0.00139812 -0.0012265 -0.00172301 0.000137535 0.00729495 0.00170603 0.00377234 -0.0101603 -0.000385463 -0.00314237 -0.000233502 0.000833676 0.000745129
30 0.0328323 0.0239743 0.0578595 0.0174021 0.0384931 -0.0494238 -0.00586414 -0.0356994 -0.0157191 0.0998884 -6.22472e-05 0.00267327 0.0179441 -0.0341484 -0.0131064 -0.00286435 0.00813414 0.00732656 0.017578 -0.0490563 0.0304124 0.0133724 -0.00698667 0.00539424 -0.0180922 -0.00299766 -0.00340428 0.0261416 -0.0082185 0.0179417 0.0356259 0.036932 -0.0156243 0.0188374 0.0161384 0.0127802 -0.00375972 -0.00124055 -0.0140088 -0.00832785 -0.0074058 0.0156738 -0.00264192 0.00101668 0.0260562 -0.00629878 -0.0396611 -0.0236805 0.00608183 -0.0119221 0.00385288 -0.00149069 -0.0143149 0.00785951 -0.0190813 0.022806 0.0108888 0.0302868 0.0307585 -0.00253011 -0.00139239 0.00100938 0.0130051 -0.0128257 -0.0137259 -0.00728347 0.00782464 -0.00669675 -0.0105747 -0.0054989 -0.00625156 0.00182973 -0.0242709 -0.0198814 0.00580842 0.0195369 0.00567374 -0.0019159 -0.0353591 -0.0407474 0.00341145 -0.00412185 -0.00561167 0.0161216 -0.000217778 0.00702167 0.0137869 0.0129038 -0.00316303 -0.00169825 -0.00997555 0.00649509 0.00860616 0.00467405 0.0170149 -0.00125658 -0.0162553 0.0113775 0.00986964 0.0173026 0.0100999 -0.00811094 -0.0159617 0.000275586 0.00566894 0.0113339 -0.0142848 0.00902396 -0.00471269 0.00542916 -0.000571507 0.0149192 -0.0201035 0.00288915 0.004721 0.0165063 -0.036854 -0.0433645 -0.0231377 0.0377008 0.0236018 0.00197228 -0.0159071 0.00151282 -0.0121317 0.00931634 0.00313301 0.0169203
7 0.0158036 0.00768393 0.0464225 0.0102188 0.0186636 -0.0236133 -0.00839244 -0.0361643 -0.0101792 0.0590863 -0.00121616 -0.00327791 0.0127063 -0.0258911 -0.00268616 0.000495468 -0.00305926 -0.00130727 0.0109018 -0.0235693 0.0332419 0.0143929 -0.0173344 0.0120708 -0.0224758 -0.00308402 -0.00668762 0.031929 -0.0102306 0.0216593 0.030776 0.0252537 -0.0161307 0.0115472 0.0193227 0.0158312 -0.00524853 -0.00933329 -0.0152326 -0.0168353 -0.00760027 0.019721 0.0047983 -0.0118074 0.0296472 -0.0102434 -0.0387418 -0.02886 0.0187975 -0.0177589 0.00630861 0.00785224 -0.00340439 -0.000667368 -0.0227545 0.0339728 0.0027623 0.00634035 0.00703096 -0.000915112 0.000317013 -0.000704486 0.0169164 -0.0170582 -0.0149369 -0.0078457 0.00315836 2.12838e-05 -0.00218939 0.000478545 -0.0196287 0.00120273 -0.000315067 0.00216245 0.00297664 0.00296894 -0.0113477 -0.0132589 -0.0358916 -0.0398085 0.0139402 0.000823459 -0.013489 0.0246271 0.00897555 0.0318252 0.0246722 0.0231961 0.0014703 -0.00730585 0.02009 -0.0103925 0.0010303 -0.00309086 0.00466915 0.00351508 -0.00819001 0.000329028 -0.000352791 0.00167952 -0.00207922 0.00211706 0.000716503 0.00422423 0.00293616 0.00453154 -0.00770914 0.00208897 -0.0050417 0.0068605 -0.00872762 0.0107503 -0.0133646 0.00390855 0.00120117 0.0066488 -0.025337 -0.0315391 -0.010126 0.0211405 0.0128531 0.00410341 -0.0181888 -0.000698309 -0.0108053 0.00481805 0.00507623 0.00952362
22 -0.0447653 -0.0315121 -0.0946167 -0.0213823 -0.0832763 0.0982588 0.0205043 0.0935807 0.024857 -0.131499 0.0109537 0.00125783 -0.0492843 0.0827191 0.0637003 0.0480121 0.0358751 0.0435415 0.00847849 -0.0133036 -0.0920374 -0.0458229 0.0601522 -0.030191 0.0600367 0.0135146 0.0253712 -0.0936391 0.0419778 -0.0681764 -0.0698375 -0.0750094 0.0439358 -0.0378181 -0.0632595 -0.0567935 0.0140203 0.038931 0.041593 0.0389212 0.0209225 -0.0453845 -0.0109718 0.0385257 -0.0981672 0.040294 0.108936 0.0805405 -0.0678829 0.0751281 -0.037501 -0.030524 -0.0612164 0.0421104 0.0623998 -0.100209 0.0126425 0.0544607 0.0316041 -0.00865699 -0.00191752 0.0445768 -0.0700258 0.0703708 0.0707438 0.0351725 0.0546153 -0.0451704 -0.0285967 -0.0305717 0.0712504 -0.00756528 -0.0649032 -0.0462216 0.00525243 0.0210543 0.0594315 0.0582123 0.0903031 0.104662 -0.0776336 -0.034836 0.0560317 -0.0908599 -0.0149806 -0.0772341 -0.0725476 -0.0625504 0.00916915 0.024799 -0.068178 0.0233397 0.0234155 0.0231065 0.0152033 0.00231367 -0.0101087 0.00601358 0.011431 0.0287085 0.0201093 -0.00824115 -0.0330112 0.00635707 0.00500177 0.00245178 -0.013607 0.0100887 -0.00933862 0.027901 -0.0102856 0.0144299 -0.00701831 0.00589638 0.000703465 -0.00230833 0.00338376 0.00514606 -0.00176643 -0.00679128 0.00697157 0.00269196 -0.013536 -0.00359863 0.000327072 -0.000616851 0.000457054 -0.0035103
14 0.021112 0.0114405 0.03078 0.0112098 0.00973856 -0.0103982 0.00355155 0.00916495 -0.0095077 0.0341484 0.00523288 0.00190619 0.00542977 -0.00370085 0.0132806 0.0108149 0.0330787 0.0441103 0.0188818 -0.0567976 0.00917859 0.00771237 0.0122988 -0.00390213 0.00488138 -0.00160117 0.00429251 -0.00927595 0.00509773 -0.00315412 0.0228526 0.0231272 -0.0119374 0.00473661 0.00468285 -0.000989548 0.00517575 0.00953942 -0.000268018 -0.000610066 -0.00127322 0.00414662 -0.00295651 0.0107123 0.0213759 -0.00514137 -0.0203871 -0.0136781 0.00357341 -0.00370951 0.000157158 -0.00172106 -0.0266921 0.0219005 0.003443 -0.00323558 0.0148917 0.0472821 0.0341095 -0.00505733 0.000165314 0.000649963 0.0155957 -0.0194185 -0.0128948 -0.00415425 -0.00061225 0.00285781 -0.0071597 -0.00698751 -0.00460346 -0.00357211 -0.00783814 -0.011997 0.011934 0.0214978 -0.00227296 0.00331722 -0.0344085 -0.0388431 0.00345365 0.00385454 -0.00927373 0.0113173 -0.000528661 0.0183129 0.014183 0.0122706 -0.00416071 -0.00938953 0.00193192 -0.00368582 0.00452112 -0.00122668 0.0144863 -0.00192306 -0.0206619 0.0169334 0.00168739 0.0187139 0.00855537 -0.00750719 -0.0153052 0.00455686 0.00473262 0.0112928 -0.0179039 0.0172991 -0.00706456 0.0133313 -0.00293857 0.0136535 -0.0161195 0.00887122 0.00329452 0.0198872 -0.0302633 -0.0377345 -0.0249916 0.0346694 0.0172864 0.00295784 -0.0104307 0.00128591 -0.014021 0.00559769 0.0079704 0.0186726
1 0.0166367 0.0109193 0.0200234 0.00629018 0.00373988 0.000424937 -0.00201685 -0.000789146 -0.00155931 0.0206927 0.000191001 -0.000668424 0.00228652 -0.00409651 0.00310592 0.00266708 0.0207815 0.0284065 0.0111918 -0.0344105 0.00714716 0.00525359 0.00580391 -0.00501317 -0.00131126 0.00391226 0.00380322 -0.0133942 0.00129274 -0.0057605 0.0152151 0.0125731 -0.00460271 0.0074953 0.00687044 0.0070999 0.00406951 0.0061146 -0.00508496 -0.0042639 -0.0028884 0.00887184 -0.001757 -0.00216043 0.0130678 -0.00603747 -0.020803 -0.0157817 0.0111917 -0.0195687 0.00981645 0.00532398 -0.0019674 -0.00127509 -0.00800934 0.0067519 0.00413565 0.008825 0.0031157 -0.00077706 0.00153863 -0.00956385 0.0249364 -0.0261406 -0.0137129 -0.0106664 -0.0165318 0.0103753 0.000160356 0.00349982 -0.0100401 0.000831162 0.00755479 0.00884783 0.00114109 0.0017841 -0.0146845 -0.0116337 -0.0275135 -0.034924 0.0210441 0.00818338 -0.0160556 0.021479 0.00628853 0.0340158 0.022869 0.0199511 -0.00193704 -0.011577 0.0310716 -0.0125171 -0.00967289 -0.00886629 -0.00081666 0.00172314 0.00042568 0.0015585 -0.00224017 -0.00994789 5.9388e-05 0.00384794 0.0067676 -0.00303559 0.000116484 0.00273196 -0.00653063 0.00746001 0.00457255 -0.0156375 0.00489115 -0.00274407 -0.00289172 -0.00306333 0.00524151 0.00377762 -0.00245959 0.00177551 -0.0102579 0.00907526 0.00361985 -0.00186859 0.00579211 0.00152196 -0.000440276 0.000580018 0.00271323 -0.000128729
3 0.0561232 0.0408984 0.100822 0.0250312 0.0967577 -0.112317 -0.0176804 -0.0774331 -0.0262379 0.142784 -0.00608916 -0.00247069 0.0455848 -0.0824499 -0.0367381 -0.0280855 -0.00640241 -0.0098529 0.0134371 -0.0295412 0.0774714 0.0363276 -0.0303845 0.020187 -0.0440939 -0.0146484 -0.0168453 0.0572656 -0.0234579 0.0330815 0.0635518 0.0668566 -0.0392305 0.0328085 0.0527318 0.042101 -0.00638198 -0.0209556 -0.0297113 -0.0218235 -0.0153691 0.0411287 0.0124516 -0.027399 0.0859264 -0.0352078 -0.111863 -0.07904 0.0622969 -0.0707019 0.0294909 0.02515 0.0394165 -0.0314286 -0.0483184 0.0852873 -0.00593121 -0.0249394 -0.0178704 0.00698986 0.00399673 -0.0380217 0.0772717 -0.0805106 -0.0591391 -0.0344455 -0.0452662 0.0336918 0.0190884 0.0221838 -0.054894 0.00240057 0.0414081 0.030102 0.00212359 -0.00251049 -0.0567404 -0.05009 -0.116626 -0.131641 0.0809161 0.0385648 -0.047681 0.0831602 0.0171872 0.0853073 0.0615536 0.0492824 -0.00852381 -0.0286194 0.0631296 -0.0233963 -0.0215444 -0.01796 -0.00690195 -0.00365072 -0.00672211 -0.000637801 -0.00266103 -0.0117655 0.00361969 0.00072602 0.00624682 -0.00329075 0.00461818 0.0058312 -0.0036991 0.00537731 0.0030158 -0.0139919 0.0034509 -0.0117987 0.00303761 -0.00121661 0.00793746 0.0145122 -0.00568737 -0.00865265 -0.0157594 0.0230808 -0.00240513 0.000575871 0.0201391 0.00675635 -0.00590271 0.00424161 0.00920021 0.0148628
28 0.0182511 0.0143959 0.0202417 0.00722712 0.0255377 -0.0345987 0.00351911 0.00144838 -0.0067626 0.0437976 0.00107161 -0.00116283 0.00610965 -0.0172834 -0.00844612 -0.00765187 0.00147165 0.0099949 0.00867093 -0.0225908 0.0158393 0.00699912 0.00283971 -0.00213416 -0.0070982 -0.00241335 -0.00621291 0.0114074 -0.00206593 0.00367402 0.0195133 0.0180897 -0.00622974 0.00864534 0.00711287 0.00571704 0.00260376 0.00373866 -0.00537647 -0.000326092 0.000602991 0.00335647 -0.00294395 0.00861745 0.0149034 -0.00785145 -0.0103751 -0.0126424 0.00720926 -0.00128183 0.00442086 0.00477718 0.000398267 0.00160637 -0.0058277 0.00430565 0.000980231 0.0124172 0.0127815 -0.00499967 0.000721092 0.00263545 0.0103008 -0.0125194 -0.0017164 -0.00083377 0.00846698 -0.00757798 -0.00707782 -0.00565231 0.00373985 0.00248498 -0.0158689 -0.0144653 0.00557547 0.018817 0.0150541 0.0131513 -0.0201137 -0.0271448 -0.00655771 -0.00129414 0.0078207 -0.00844763 0.0023059 -0.00395425 -0.00493077 -0.00800182 -0.00300129 -0.00431977 0.000858763 0.00176069 0.000905267 -0.00355493 0.00729835 -0.00110307 -0.00889969 0.00606251 0.00223551 -0.000398463 0.00870634 -0.000716466 -0.0066058 8.77461e-06 0.00121038 0.00292985 -0.0091359 0.00803898 -0.00168661 0.00463348 -0.00573681 0.00458533 -0.00559668 0.00185692 0.00571079 0.0163817 -0.0092276 -0.0143482 -0.0123872 0.0193458 0.00649554 0.00385523 -0.00153093 0.00326231 -0.00373884 0.000388254 0.00840508 0.0152538
