34 128
33 0.680341 -0.724302 0.484607 0.464531 -0.0103392 1.57738 0.145216 -1.36612 -1.18045 -0.458231 0.443235 -0.549793 0.901923 -0.454246 0.324691 2.57961 -0.16194 -0.837869 -0.84578 -0.0586749 0.326571 0.245619 0.807406 -0.112849 0.512366 -0.771346 0.0479599 0.00837375 -0.192089 -0.122794 -1.10916 0.288721 -0.44928 0.195015 -0.115846 -0.339444 0.00105956 -0.0693258 0.181789 0.311193 -0.44243 -0.353425 -0.29334 0.183181 -0.303622 -0.204624 0.235664 -0.636586 0.111737 -0.000776853 0.0832563 -0.136929 0.116553 -0.381154 -0.0179181 -0.558176 0.281481 -0.0295687 0.129476 0.079489 -0.0383678 -0.117091 0.0723709 -0.0299668 0.100622 0.0773689 -0.0524945 0.0788036 0.307926 -0.368267 0.151164 -0.0457909 0.246468 0.0205773 -0.0150209 -0.546414 0.214316 0.303508 -0.442196 -0.423921 0.546274 -0.00401488 0.0362929 -0.0302459 0.13365 0.102003 0.461706 0.278065 -0.0716587 -0.178123 0.0493109 -0.148076 0.021095 0.00934787 0.16053 0.146214 -0.536244 0.191803 0.116176 -0.0405297 0.0161744 0.03317 0.168015 -0.012938 -0.0991313 -0.147039 -0.0598979 0.0359265 0.105305 0.229762 0.0438782 0.0201723 0.0590191 -0.0187288 0.093896 -0.0689226 -0.0229602 0.0704243 0.0314352 0.0589049 0.0342851 0.172003 0.0490314 0.0812775 -0.0288139 -0.0519493 -0.0304804 0.103796
32 0.834628 -0.813937 0.504213 0.470148 -0.0147222 1.42628 0.0922031 -1.30186 -1.13704 -0.410148 0.46653 -0.562725 0.896342 -0.42848 0.269961 2.2865 -0.148595 -0.756984 -1.00334 -0.0549293 0.349466 0.244348 0.921383 -0.149718 0.605978 -0.865678 0.0765446 0.0436773 -0.187266 -0.171784 -1.17785 0.301323 -0.426545 0.186877 -0.240045 -0.441767 0.00125063 -0.0171301 0.150669 0.369886 -0.452241 -0.354122 -0.401946 0.166707 -0.347674 -0.222413 0.230071 -0.61425 0.129227 0.00138788 0.0761295 -0.148143 0.0953893 -0.340308 -0.0142781 -0.458247 0.222732 -0.0226548 0.0887597 0.0786096 -0.00630818 -0.0964294 0.0573694 -0.0246131 0.0946233 0.0628101 -0.0412507 0.0600219 0.295328 -0.363705 0.107792 -0.0462344 0.219063 0.0226631 -0.0321365 -0.628485 0.226266 0.373032 -0.405421 -0.38591 0.496678 -0.00134746 -0.0201596 0.0207298 0.182505 0.136928 0.527871 0.349729 -0.0888263 -0.198391 -0.00588121 -0.0895487 -0.0060991 -0.0301791 0.126646 0.180283 -0.492117 0.183601 0.011319 0.11953 -0.0733445 0.138442 0.208917 0.054721 -0.045327 -0.113372 -0.0317961 0.0450309 0.104888 0.251261 0.0324609 -0.0232567 0.0220046 -0.00329189 0.0885668 -0.044075 -0.0334002 0.050489 -0.0238823 0.0842884 0.00785588 0.263709 0.0768696 0.0891882 -0.0189002 -0.0350245 0.00120231 0.105803
21 0.763578 -0.759136 0.555588 0.51751 -0.0202909 1.21149 0.083339 -1.19267 -1.12676 -0.357322 0.483541 -0.5149 0.825838 -0.379265 0.260115 2.22459 -0.148147 -0.738154 -0.890168 -0.053624 0.356811 0.17532 0.844946 -0.121522 0.511656 -0.700279 0.116582 0.0267426 -0.210454 -0.160725 -1.2394 0.337028 -0.50565 0.20877 -0.185907 -0.346954 -0.010419 -0.0245346 0.121996 0.301979 -0.380794 -0.315051 -0.381361 0.171218 -0.33528 -0.203422 0.201745 -0.572879 0.11277 0.000472147 0.0972857 -0.142179 0.0937593 -0.320298 0.0236365 -0.584698 0.263679 -0.0250941 -0.00293247 0.0187874 0.0614244 -0.0886467 0.127683 -0.113484 0.132473 0.0973624 0.0260642 0.0681532 0.333581 -0.419216 0.179098 -0.0518892 0.161749 -0.0106466 -0.0429241 -0.758638 0.236416 0.490986 -0.458638 -0.394504 0.573728 0.0568366 -0.0723199 0.0571552 0.248743 0.203568 0.498953 0.335782 -0.078427 -0.203729 0.018583 -0.0609114 0.0281993 -0.0432355 0.190367 0.335038 -0.648549 0.259076 -0.0582336 0.233494 -0.249892 0.311243 0.280831 0.144568 -0.00013969 -0.105616 -0.000216247 0.032553 0.0939721 0.27162 0.0465679 -0.056855 -0.0450731 0.0218245 0.0748704 -0.0118008 -0.0687825 -0.0308159 -0.0787255 0.115262 -0.0508771 0.375056 0.0406841 0.0729436 -0.00127564 -0.00376383 -0.0535125 0.10157
23 0.769028 -0.74649 0.497961 0.475761 0.00300311 1.22695 0.0607668 -1.12612 -1.04596 -0.345872 0.529855 -0.521746 0.838939 -0.384116 0.257294 2.14247 -0.154351 -0.724104 -0.851787 -0.0378357 0.326408 0.179091 0.929399 -0.136875 0.518098 -0.712167 0.0892253 0.0163412 -0.209877 -0.120379 -1.20486 0.329472 -0.449723 0.191892 -0.194117 -0.365084 -0.0140092 -0.031458 0.142121 0.305314 -0.418789 -0.33221 -0.402959 0.173266 -0.337034 -0.206088 0.206723 -0.601575 0.115272 0.0105286 0.0410243 -0.129777 0.0464129 -0.219002 -0.00432981 -0.470904 0.224721 -0.00790988 0.0426641 0.0554538 0.17562 -0.0879755 0.121489 -0.119942 0.135419 0.116475 0.020929 0.0726659 0.316469 -0.404379 0.156573 -0.0409986 0.133855 -0.0211379 -0.0056416 -0.675559 0.171894 0.36321 -0.346195 -0.331516 0.441441 0.0421969 -0.0659266 0.0393293 0.200847 0.162995 0.520191 0.376199 -0.079335 -0.179103 0.0113937 -0.0439394 0.0453222 -0.0315113 0.183053 0.35427 -0.615918 0.239388 -0.119115 0.317177 -0.319707 0.396718 0.34416 0.218181 0.0358708 -0.118041 0.00300597 0.0216192 0.0654677 0.260662 0.0371536 0.00870159 -0.00444892 0.00479217 0.054248 -0.0270482 -0.0459678 -0.00347332 -0.0302152 0.0648715 -0.0474685 0.239148 0.0501647 0.0794826 0.00890085 0.00545565 -0.06783 0.0820639
31 0.814681 -0.727477 0.527271 0.50252 0.000331505 1.36457 0.0177211 -1.18747 -0.986928 -0.362006 0.391928 -0.466336 0.724424 -0.369478 0.212159 2.13131 -0.147426 -0.749028 -0.86564 -0.0287553 0.285162 0.199823 0.827961 -0.150283 0.411177 -0.570734 0.0816451 0.0240206 -0.200143 -0.136239 -1.08013 0.288707 -0.386718 0.161849 -0.298102 -0.542896 -0.0189316 -0.0214393 0.147543 0.344722 -0.454493 -0.367445 -0.531287 0.204255 -0.421363 -0.251404 0.232174 -0.707209 0.137217 0.000331791 0.0921052 -0.233999 0.0445973 -0.314974 -0.0312411 -0.37531 0.173773 -0.0103484 0.0811063 0.0836209 0.251895 -0.0702069 0.0943429 -0.0513898 0.113333 0.0420425 0.0102389 0.0776069 0.308463 -0.38234 0.147135 -0.017055 0.152755 -0.0142882 0.00353729 -0.606463 0.15532 0.306794 -0.363343 -0.326418 0.412091 0.0227118 -0.0663839 0.044131 0.18604 0.148469 0.51301 0.360231 -0.0988099 -0.226097 0.00386157 -0.000292473 -0.0093819 -0.0375158 0.145038 0.303532 -0.48598 0.197284 -0.0432263 0.177909 -0.172191 0.229787 0.321401 0.225214 0.0503332 -0.102827 0.00377255 0.011612 0.0496738 0.225805 0.0640664 0.0382244 0.0388647 0.00463761 0.0515396 -0.0193934 -0.0234764 -0.0114433 -0.0362918 0.0656954 -0.0382218 0.206529 0.0723526 0.0689818 0.0114604 -0.0118576 -0.076385 0.0602026
2 0.777928 -0.759588 0.43714 0.40533 -0.0091097 1.322 0.0863065 -1.20099 -1.1548 -0.408736 0.509395 -0.583238 0.951846 -0.420504 0.28837 2.37377 -0.165071 -0.805493 -0.97325 -0.0549378 0.334268 0.227499 0.79724 -0.126503 0.543446 -0.786023 0.110557 0.0523611 -0.20545 -0.2245 -1.16544 0.297883 -0.377836 0.172889 -0.190753 -0.340705 0.00637836 -0.0123433 0.128607 0.301447 -0.367332 -0.282634 -0.315359 0.143712 -0.316988 -0.212805 0.219974 -0.569211 0.11598 0.000772295 0.055251 -0.1061 0.0515241 -0.264764 -0.0667511 -0.20074 0.161859 0.00948445 0.0894459 0.0971358 -0.0270281 -0.152897 0.134867 -0.0663219 0.142402 0.0205675 0.00313622 0.0222431 0.285357 -0.359156 0.142733 -0.0481792 0.185751 0.0234773 0.0187187 -0.721953 0.276647 0.451062 -0.50727 -0.424474 0.6343 0.0322833 0.0382541 -0.00146041 0.146393 0.121425 0.409863 0.241668 -0.0613013 -0.156323 -0.0118745 -0.13213 0.00567714 -0.00331685 0.114523 0.120938 -0.430726 0.140234 0.0917757 -0.000907013 -0.0385554 0.104568 0.20629 0.0144163 -0.087139 -0.153868 -0.0547421 0.0298538 0.11409 0.265398 0.000845259 7.86442e-06 0.0317944 -0.0247639 0.0979814 -0.0645556 -0.0266147 0.0999657 0.00636476 0.0708935 0.0296046 0.22767 0.0722237 0.123779 -0.0350794 -0.0838247 0.0261327 0.132995
22 0.846526 -0.754821 0.543262 0.516476 0.0032402 1.36298 0.0111585 -1.08564 -0.90273 -0.353658 0.38062 -0.515688 0.822135 -0.403022 0.243409 2.42186 -0.151921 -0.774239 -0.906091 -0.0257443 0.294482 0.233395 0.87753 -0.16196 0.49351 -0.706119 0.0516336 0.0376109 -0.14849 -0.151973 -0.960808 0.227221 -0.290402 0.131966 -0.314046 -0.538597 -0.0058713 0.000201671 0.143353 0.378188 -0.466325 -0.364158 -0.596342 0.21217 -0.470805 -0.296998 0.27019 -0.757397 0.167533 0.0083639 0.0823272 -0.245021 0.0161599 -0.41946 -0.0710882 -0.439541 0.291391 0.0324277 0.0286035 0.0827315 0.149906 -0.129722 0.135235 -0.0579872 0.146935 0.00945121 0.0351064 0.0559638 0.341026 -0.437827 0.193301 -0.0289771 0.136206 0.00641687 0.027767 -0.669579 0.213761 0.37707 -0.384059 -0.322934 0.460616 0.027738 -0.0371635 0.0503464 0.21712 0.177647 0.460998 0.286108 -0.0907592 -0.218355 -0.0286911 -0.0410584 -0.0338503 -0.0113121 0.120572 0.223776 -0.455586 0.184411 0.0389083 0.0708279 -0.0804449 0.137222 0.285057 0.148277 0.00192127 -0.117001 -0.014018 0.0216214 0.0674105 0.221161 0.0517341 0.048587 0.0865175 -0.00979635 0.078326 -0.0393643 -0.0221261 0.0460199 -0.00062931 0.0651818 0.000938757 0.198908 0.0874208 0.0926238 -0.0102988 -0.0464722 -0.0338862 0.0816707
1 0.775571 -0.739165 0.415556 0.384753 -0.00425117 1.63226 0.0986309 -1.42946 -1.24713 -0.500905 0.437206 -0.575812 1.0218 -0.497034 0.333277 2.91569 -0.180975 -0.92102 -0.844225 -0.0200998 0.298129 0.279005 0.89419 -0.155551 0.591719 -0.893396 0.0665986 0.0399236 -0.147989 -0.174682 -1.09543 0.255528 -0.318277 0.157528 -0.178328 -0.301374 0.00677265 -0.000701181 0.122403 0.313379 -0.390439 -0.290131 -0.328132 0.120839 -0.318183 -0.211627 0.230435 -0.592561 0.120168 0.00653791 0.0432551 -0.110112 0.0363537 -0.335686 -0.0684569 -0.398551 0.270519 0.0348514 0.118086 0.124916 -0.132547 -0.184452 0.105844 0.0239925 0.153843 -0.045346 -0.0178846 0.0242771 0.295132 -0.35472 0.126573 -0.0560704 0.219365 0.0570797 0.0148195 -0.737903 0.286677 0.402722 -0.421063 -0.37148 0.534558 0.00750579 0.00850013 0.0388858 0.167401 0.125982 0.407193 0.187808 -0.0891713 -0.212272 -0.0478235 -0.115282 -0.0534223 0.00613138 0.0881962 0.0852473 -0.4418 0.160506 0.120659 -0.0563964 0.046099 0.019825 0.167432 -0.0370197 -0.106544 -0.132704 -0.0554598 0.0507618 0.0961413 0.192753 0.0526409 0.0219001 0.162767 -0.00292501 0.104759 -0.0660494 -0.0110253 0.121786 0.0774251 0.0284971 0.08964 0.0401852 0.0988092 0.124145 -0.0494742 -0.108511 0.0786819 0.126742
18 0.818871 -0.745965 0.554857 0.532021 0.00585484 1.42181 0.0368379 -1.05638 -0.902546 -0.365287 0.397795 -0.559399 0.876273 -0.422459 0.257894 2.48686 -0.16064 -0.816676 -1.0464 -0.0395017 0.327048 0.2439 0.870111 -0.157947 0.494249 -0.714024 0.0661126 0.0512805 -0.189112 -0.196623 -1.17549 0.288976 -0.317195 0.151483 -0.333896 -0.5782 -0.0134621 -0.0199304 0.163423 0.371964 -0.453877 -0.361254 -0.522793 0.221614 -0.433471 -0.266529 0.267254 -0.75257 0.145934 -0.00098394 0.100426 -0.241157 0.0429881 -0.367202 -0.0677749 -0.256139 0.165604 0.00734619 0.0907798 0.110828 0.147757 -0.136709 0.141123 -0.06612 0.136716 0.00988601 0.0181049 0.0495091 0.265221 -0.33719 0.151176 -0.0172379 0.154215 0.0203595 0.0251122 -0.740042 0.216224 0.36182 -0.457833 -0.371997 0.574582 0.0446893 -0.0188044 0.042979 0.18219 0.142197 0.418074 0.264113 -0.0798404 -0.195944 -0.00409013 -0.064757 -0.00701105 -0.0013748 0.140337 0.224871 -0.458157 0.166376 0.0691802 0.0466612 -0.0760735 0.132428 0.302796 0.143838 -0.0330559 -0.158441 -0.0262289 0.0104259 0.0792939 0.257061 0.0390728 0.0652386 0.107878 -0.014461 0.0760999 -0.0430583 -0.0305801 0.0587229 0.00802396 0.0801466 0.0165546 0.190025 0.0897474 0.129773 -0.0203286 -0.0799128 -0.0267502 0.108568
6 0.876657 -0.918713 0.652534 0.626449 0.0015352 1.667 0.153092 -1.14331 -1.06082 -0.436403 0.617148 -0.78823 1.17378 -0.558468 0.378896 3.09871 -0.191676 -0.968555 -1.38288 -0.0561265 0.432872 0.341319 1.08106 -0.172018 0.679873 -1.02067 0.125428 0.0547426 -0.254247 -0.257511 -1.5905 0.389213 -0.513792 0.238417 -0.332914 -0.629812 -0.0013765 -0.0426458 0.222292 0.46382 -0.583191 -0.44043 -0.525392 0.255346 -0.445608 -0.304742 0.327385 -0.83918 0.15587 0.00335876 0.0842738 -0.200161 0.0800298 -0.42548 -0.0739604 -0.415095 0.241147 0.000649302 0.136647 0.144789 -0.0348313 -0.214827 0.190435 -0.0970721 0.195748 0.0497919 0.0339494 0.0599532 0.39548 -0.486828 0.204297 -0.0584547 0.242829 0.0289437 0.0529104 -0.95528 0.346565 0.534676 -0.608781 -0.512725 0.763166 0.0601579 0.0358106 0.0150918 0.209892 0.177446 0.524876 0.277933 -0.0790774 -0.240669 -0.0476372 -0.179123 -0.0263762 0.00794193 0.16984 0.202116 -0.623206 0.220133 0.165332 -0.0688671 -0.00691821 0.0928881 0.263675 0.0113647 -0.109851 -0.160036 -0.0600865 0.0687174 0.127276 0.293261 0.0547457 0.0116763 0.11619 -0.0100045 0.120452 -0.118446 -0.0090392 0.146552 0.0589534 0.0434914 0.040678 0.190568 0.110817 0.149368 -0.0432999 -0.0835658 -0.00928884 0.165596
11 0.89384 -0.90473 0.63517 0.604113 0.00193379 1.5475 0.131396 -1.08654 -0.920216 -0.374537 0.620427 -0.782094 1.06114 -0.497137 0.339556 2.75045 -0.174447 -0.87339 -1.32153 -0.0707249 0.426486 0.309671 1.07859 -0.17658 0.691626 -1.01159 0.123777 0.0607477 -0.264717 -0.277427 -1.61796 0.405631 -0.513842 0.236762 -0.338213 -0.631545 0.000547643 -0.0320706 0.203124 0.44733 -0.544812 -0.428013 -0.52921 0.25783 -0.46104 -0.297295 0.315413 -0.835523 0.156595 0.000935994 0.101529 -0.202133 0.089578 -0.414946 -0.0534414 -0.409965 0.212666 -0.0144414 0.107511 0.115217 0.0135627 -0.174899 0.148134 -0.0816726 0.158437 0.0499644 0.0165508 0.0519068 0.362 -0.448235 0.175044 -0.0564531 0.228353 0.0279771 0.0371074 -0.924366 0.327819 0.526224 -0.561789 -0.479481 0.702478 0.0412198 0.0292799 0.0168396 0.18427 0.150988 0.457187 0.255355 -0.0737264 -0.189491 -0.0344975 -0.168237 -0.0118439 0.00184086 0.152423 0.17859 -0.553283 0.189877 0.121436 -0.0026813 -0.0527559 0.138076 0.244597 0.0186715 -0.100461 -0.169871 -0.0637503 0.0572031 0.129053 0.313494 0.0254172 0.0247067 0.106603 -0.0205687 0.120884 -0.0967526 -0.0288086 0.127506 0.0501111 0.0607811 0.056088 0.172045 0.101506 0.154869 -0.0398691 -0.0966001 0.0153182 0.148981
20 0.880626 -0.838821 0.686768 0.634582 -0.0325298 1.39641 0.073432 -1.14436 -0.845749 -0.321688 0.466557 -0.609625 0.761126 -0.374337 0.247205 2.11247 -0.141959 -0.728761 -0.905437 -0.0407937 0.294526 0.242389 0.674337 -0.108769 0.49674 -0.722119 0.100902 0.0545962 -0.162696 -0.168254 -0.907894 0.216817 -0.320229 0.138637 -0.305011 -0.56379 0.00941633 -0.0023574 0.161207 0.395835 -0.45861 -0.3425 -0.479378 0.178217 -0.397462 -0.270926 0.248165 -0.64138 0.143538 -0.0045809 0.0965261 -0.205351 0.0994956 -0.535817 -0.0213682 -0.556775 0.345222 -0.017885 -0.030206 0.0103172 0.120356 -0.127665 0.147156 -0.125777 0.115022 0.0977545 0.0412223 0.0897046 0.367638 -0.464686 0.19285 -0.0411208 0.184612 0.00215068 0.00738321 -0.605641 0.231391 0.397464 -0.447483 -0.377896 0.527781 0.0142302 -0.0136625 0.0267536 0.235247 0.203691 0.501371 0.325355 -0.0755253 -0.212549 -0.0214852 -0.0863806 -0.0365519 -0.0244958 0.103001 0.132099 -0.45707 0.174037 0.111019 -0.064207 0.0317475 0.0113422 0.133046 -0.00378612 -0.0453302 -0.0957743 -0.0374065 0.0279793 0.110506 0.24234 0.020405 -0.0234135 -0.0617966 -0.0220822 0.0877166 -0.063621 -0.018944 0.0604751 -0.0259905 0.0892645 -0.0147502 0.355336 0.050645 0.0489908 -0.00952388 -0.00694409 -0.0792595 0.0981363
3 0.750725 -0.703928 0.349802 0.314769 0.00226354 1.35575 0.0671437 -1.22966 -1.10425 -0.416789 0.408557 -0.538275 0.917378 -0.426624 0.255256 2.3357 -0.142679 -0.730858 -0.885694 -0.0472918 0.309557 0.229923 0.861239 -0.153376 0.564173 -0.805798 0.120025 0.062139 -0.190589 -0.211376 -1.23172 0.326723 -0.386848 0.168536 -0.227898 -0.385305 0.00823493 -0.0117269 0.111259 0.311768 -0.37803 -0.310121 -0.328574 0.109815 -0.314713 -0.196205 0.192614 -0.536757 0.120283 0.00642253 0.0374204 -0.123453 -0.0127552 -0.199775 -0.0607246 -0.252259 0.16733 0.0254461 0.0661114 0.0909625 -0.00459728 -0.115876 0.0985128 -0.0151555 0.136068 -0.0588229 0.0141974 0.00144504 0.247052 -0.308483 0.101402 -0.0384169 0.150661 0.0150553 0.000370974 -0.798022 0.251276 0.472483 -0.388036 -0.302875 0.498366 0.0445611 -0.0549876 0.0731858 0.188595 0.136746 0.480516 0.263602 -0.115415 -0.244243 -0.0915189 -0.0165201 -0.0877536 -0.0463753 0.05393 0.125056 -0.303677 0.12498 0.00584324 0.0802257 -0.0110111 0.0698072 0.141037 0.0372529 -0.0214961 -0.0699642 -0.0186149 0.0517876 0.076692 0.184202 0.0349088 -0.0278023 0.033723 0.004145 0.076792 -0.0151405 -0.00188172 0.0205794 -0.0262459 0.0462641 0.0268894 0.124552 0.0752803 0.052113 -0.0236898 -0.0469307 0.0565216 0.0708839
29 0.65657 -0.63703 0.403394 0.371085 -0.00749363 1.28166 0.0865946 -1.03865 -1.00651 -0.324609 0.424692 -0.562983 0.919989 -0.357058 0.282512 2.20632 -0.128209 -0.642282 -0.93013 -0.115424 0.35786 0.16878 0.829269 -0.101805 0.581097 -0.816222 0.10821 0.0620741 -0.153978 -0.206416 -1.14643 0.295993 -0.3922 0.164641 -0.257991 -0.494282 0.0243966 -0.037973 0.150771 0.402337 -0.395593 -0.34851 -0.262797 0.155106 -0.299214 -0.178781 0.195011 -0.538254 0.112315 -0.0178539 0.135548 -0.180272 0.0904865 -0.461533 0.0168665 -0.616275 0.303347 -0.053466 -0.100096 -0.0576088 0.198462 -0.0784031 0.236474 -0.287081 0.13187 0.103574 0.00903182 0.0812826 0.312629 -0.433861 0.170635 -0.03374 0.174174 -0.00782056 -0.0697484 -0.856712 0.240629 0.467052 -0.419202 -0.308245 0.635382 0.0493939 -0.0508505 0.0587142 0.197503 0.108415 0.350175 0.210487 -0.0924711 -0.170276 0.00783648 -0.0675522 -0.019475 -0.038423 0.131258 0.157943 -0.414028 0.160215 0.0775855 0.0126321 -0.0481217 0.0678757 0.141491 0.0559573 -0.0855427 -0.159942 -0.0330503 0.0245641 0.13932 0.292063 -0.0625629 -0.0678011 -0.144705 -0.0226602 0.104921 0.0650842 -0.0939713 -0.0511552 -0.0781052 0.195009 0.0796649 0.256752 0.0338682 0.100045 -0.0528437 -0.114076 0.0435855 0.0970152
34 0.71689 -0.702268 0.419998 0.406298 -0.00640547 1.61855 0.135546 -1.2726 -1.20822 -0.461607 0.415486 -0.554488 0.947117 -0.435729 0.316482 2.65393 -0.169172 -0.869858 -0.769766 -0.0766748 0.345381 0.211133 0.811783 -0.135616 0.513972 -0.758106 0.00357602 0.0478899 -0.18142 -0.201974 -1.04706 0.245596 -0.309211 0.147013 -0.167611 -0.301386 -0.0153713 -0.040023 0.144994 0.293686 -0.345821 -0.300928 -0.323522 0.142349 -0.342561 -0.199703 0.24955 -0.640499 0.13476 -0.00782049 0.0800433 -0.137179 0.0694286 -0.290041 -0.044993 -0.26505 0.126454 -0.0399829 0.137154 0.121014 -0.0227325 -0.108952 0.0537037 0.00402116 0.0868504 0.0266273 -0.0761194 0.0436698 0.239594 -0.292422 0.067157 -0.030588 0.258412 0.0704965 -0.0281609 -0.640846 0.23366 0.311612 -0.434118 -0.420424 0.572773 -0.0248539 0.0474986 -0.0122756 0.0964568 0.0517596 0.383906 0.230074 -0.077818 -0.153247 0.0776345 -0.161621 0.0843051 0.0157304 0.174726 0.136702 -0.454751 0.131999 0.0952161 0.0232012 -0.0593738 0.117359 0.269449 0.0659131 -0.106057 -0.205989 -0.0548221 -0.00485731 0.113624 0.30525 -0.0201642 0.0930939 0.126961 -0.043672 0.0880664 -0.0209206 -0.0618239 0.0807779 0.0550751 0.092634 0.081335 0.116975 0.0881744 0.169734 -0.0339909 -0.131049 0.0567328 0.118203
27 0.899974 -0.819866 0.488369 0.454515 -0.00747649 1.29837 0.0547005 -1.14323 -1.09131 -0.343048 0.742883 -0.724253 0.953583 -0.334115 0.309715 2.24144 -0.17847 -0.772335 -1.14716 -0.0872168 0.291085 0.183913 0.677902 -0.078806 0.449609 -0.65625 0.162465 0.0451966 -0.212995 -0.176931 -0.969616 0.288142 -0.339402 0.159335 -0.251582 -0.531492 0.0388941 -0.0305951 0.15752 0.327251 -0.422967 -0.323476 -0.319104 0.200745 -0.308574 -0.22421 0.19651 -0.596434 0.0990515 -0.00835768 0.0661398 -0.17055 0.111882 -0.416246 -0.0558664 -0.193922 0.141646 -0.0301219 -0.00831326 -0.0170521 0.249116 -0.110911 0.210704 -0.243493 0.105046 0.170871 0.0669177 0.113926 0.36996 -0.517209 0.22465 -0.0251319 0.187428 -0.0639619 0.0975698 -0.536377 0.172948 0.312993 -0.454984 -0.356279 0.595009 0.0402502 0.034715 -0.0296929 0.094174 0.100438 0.424531 0.30794 -0.046498 -0.112005 0.0253769 -0.104619 0.0370023 -0.00569444 0.135208 0.147016 -0.466391 0.130688 0.0621661 0.0414672 -0.227057 0.291058 0.270971 0.109156 -0.0156217 -0.251807 -0.0211193 -0.0138664 0.125164 0.418853 -0.0897065 0.0863009 -0.233915 -0.112991 0.0891923 0.00265326 -0.0976737 -0.0325247 -0.0620651 0.18157 -0.0292612 0.441955 -0.05649 0.0567877 0.0168626 0.000901407 -0.251499 0.105833
30 0.903713 -0.836585 0.549147 0.510039 -0.0234645 1.44668 0.0546286 -1.38669 -1.11681 -0.3707 0.509234 -0.55782 0.824035 -0.398757 0.258728 2.2997 -0.163963 -0.842394 -1.01835 -0.0706849 0.381441 0.185146 0.922579 -0.147643 0.568082 -0.757359 0.134073 0.0494536 -0.312757 -0.223708 -1.4588 0.434871 -0.609626 0.232639 -0.197523 -0.429599 -0.0100695 -0.0489169 0.145366 0.279838 -0.388326 -0.340188 -0.391356 0.18305 -0.390292 -0.228054 0.235836 -0.70505 0.142622 -0.00956719 0.147484 -0.209179 0.157874 -0.332794 0.0128596 -0.435028 0.141536 -0.0880959 0.1066 0.0569993 0.146585 -0.0416847 0.000969252 -0.0246129 0.0503078 0.131512 -0.0600855 0.0789272 0.283332 -0.340481 0.108432 -0.0240782 0.251046 -0.00707566 -0.0434702 -0.485297 0.15031 0.303701 -0.406318 -0.399682 0.485961 -0.00887303 -0.0133398 -0.0115162 0.182925 0.140789 0.591119 0.447777 -0.0956044 -0.183827 0.075521 -0.0815457 0.0411574 -0.0356348 0.157131 0.230812 -0.489043 0.174406 -0.017658 0.169618 -0.123559 0.183101 0.260367 0.123952 -0.0259715 -0.144253 -0.036331 -0.00262706 0.0984876 0.290436 0.00472109 0.0682948 0.0677918 -0.0355321 0.0705186 -0.0373925 -0.0488347 0.0304236 -0.0258639 0.114391 0.0138306 0.256419 0.0788337 0.125915 -0.0125872 -0.0847683 0.00440451 0.0893089
14 0.780519 -0.744033 0.490147 0.440429 -0.0136952 1.28362 0.0653607 -1.17417 -0.99149 -0.352491 0.489012 -0.566556 0.813473 -0.363355 0.272176 2.27289 -0.15447 -0.762406 -0.980492 -0.0410115 0.290153 0.242402 0.696417 -0.0995086 0.52249 -0.760411 0.195048 0.0540566 -0.191894 -0.198012 -1.1824 0.33164 -0.418459 0.174732 -0.290562 -0.56076 0.0488267 0.00921336 0.125066 0.341393 -0.419904 -0.310437 -0.339145 0.151342 -0.305869 -0.229068 0.18611 -0.538616 0.109036 -0.00066344 0.0643529 -0.151103 0.0698699 -0.467115 -0.0337669 -0.449585 0.305859 0.0124834 -0.0738278 -0.0369179 0.0813818 -0.118183 0.159614 -0.141178 0.115488 0.0847911 0.0761348 0.0665429 0.339906 -0.436344 0.243598 -0.0369292 0.126762 -0.0575892 0.0676755 -0.555632 0.208114 0.394012 -0.447722 -0.339312 0.543937 0.053951 0.0115274 -0.00699217 0.125024 0.118067 0.483679 0.307443 -0.0643242 -0.192822 -0.0543815 -0.0741706 -0.0654113 -0.020532 0.0754765 0.0913021 -0.395186 0.149444 0.0944623 -0.0592465 0.0113685 0.0361357 0.106007 -0.0184523 -0.0308153 -0.090654 -0.0423237 0.0477967 0.0907379 0.190392 0.028933 -0.0158513 -0.0811803 -0.0322377 0.0768492 -0.0739233 0.00724414 0.0367052 -0.0331111 0.057238 -0.0348773 0.294482 0.00664053 -0.01884 -0.0037141 0.0298611 -0.146647 0.0799721
9 0.589174 -0.620834 0.520933 0.488354 -0.00908274 1.18674 0.0853677 -0.935318 -0.877232 -0.295356 0.464173 -0.484421 0.820029 -0.368172 0.247745 2.11025 -0.132423 -0.630517 -1.18899 -0.0202581 0.329296 0.23103 0.916634 -0.133473 0.562361 -0.810487 0.190326 0.0277435 -0.183092 -0.154937 -1.25988 0.342863 -0.43276 0.188257 -0.215819 -0.416738 0.0120845 0.00148593 0.11022 0.29493 -0.358044 -0.253526 -0.330523 0.171859 -0.234683 -0.165961 0.166188 -0.493601 0.0858851 0.00270002 0.0812162 -0.133496 0.08578 -0.362531 0.000298279 -0.52916 0.300388 0.021733 -0.121546 -0.0547752 0.0522898 -0.114217 0.157404 -0.144467 0.125324 0.0993597 0.0907786 0.0481661 0.252448 -0.328027 0.196805 -0.0421086 0.0753979 -0.0316622 0.0209568 -0.687506 0.192926 0.416106 -0.339087 -0.244967 0.406118 0.0816175 -0.0753572 0.0681423 0.240493 0.223595 0.392351 0.240748 -0.0391669 -0.176655 -0.0828873 0.00270267 -0.0287058 -0.0394152 0.126454 0.285492 -0.572567 0.252331 -0.0455821 0.152145 -0.187788 0.225948 0.173471 0.0580906 0.00606669 -0.0237199 0.019866 0.0652665 0.0651964 0.163935 0.0655649 -0.0720511 -0.00524435 0.0316961 0.043146 -0.0596864 0.00553792 0.0467244 0.00929848 -0.0210087 -0.0445428 0.169965 0.0141917 -0.00467764 -0.00559077 0.0273498 -0.0444046 0.0632844
8 0.713893 -0.626117 0.417482 0.378787 0.00718503 1.21081 -0.00178377 -0.994137 -0.973853 -0.354591 0.393205 -0.491409 0.839588 -0.3753 0.245891 2.41069 -0.158469 -0.767799 -1.07777 -0.0346779 0.303811 0.212192 0.908124 -0.15143 0.572242 -0.794701 0.187973 0.0607043 -0.205978 -0.225591 -1.27021 0.353903 -0.417806 0.172185 -0.332246 -0.583615 0.0263802 0.0151455 0.112449 0.350944 -0.409872 -0.325309 -0.442264 0.17028 -0.372581 -0.238862 0.196658 -0.618436 0.134227 0.00375484 0.0803019 -0.204692 0.00361751 -0.389176 -0.05612 -0.377199 0.260588 0.0471477 -0.0601023 -0.000735557 0.174673 -0.0971485 0.148249 -0.114481 0.128935 0.0218356 0.0807589 0.0487488 0.313064 -0.409587 0.200085 -0.0260022 0.0979461 -0.0400398 0.0232234 -0.730254 0.19752 0.411746 -0.422924 -0.308168 0.52528 0.0736729 -0.0433517 0.0483461 0.1695 0.13741 0.422444 0.254074 -0.0827022 -0.203528 -0.060449 -0.00763011 -0.0593634 -0.0235609 0.0882044 0.169912 -0.357132 0.147788 0.0150178 0.0684204 -0.0593646 0.0977364 0.186002 0.09224 -0.0121993 -0.104919 -0.0143301 0.0277662 0.0661493 0.183428 0.0202044 0.0231759 0.0237605 -0.0200718 0.0595397 -0.0175743 -0.0137894 0.0100185 -0.0114607 0.0566973 0.0153719 0.127427 0.0397258 0.045198 -0.0117402 -0.0350679 -0.0405887 0.0608806
4 0.727537 -0.623012 0.426057 0.399371 -0.00306893 1.35512 0.00654262 -1.09249 -1.0648 -0.391054 0.370263 -0.497508 0.946646 -0.412456 0.265906 2.57544 -0.171882 -0.842405 -1.04425 -0.0569407 0.361266 0.203917 0.968448 -0.164739 0.586642 -0.821703 0.09614 0.0719701 -0.190238 -0.247962 -1.16047 0.285315 -0.308746 0.144197 -0.248086 -0.356749 -0.0128045 0.0057154 0.113387 0.32146 -0.346735 -0.285069 -0.425676 0.14616 -0.397355 -0.231582 0.235341 -0.640437 0.140897 -0.00670931 0.0901747 -0.185274 0.0179954 -0.316527 -0.0820369 -0.183936 0.155556 0.0336392 -0.0130661 0.0665727 0.112344 -0.136496 0.165977 -0.0871255 0.156063 -0.0310481 0.0278542 0.0166024 0.228486 -0.307407 0.0881488 -0.0198662 0.149777 0.057858 -0.0243168 -0.819794 0.243771 0.422254 -0.402921 -0.325166 0.559088 0.0316936 -0.0626217 0.100527 0.233567 0.187849 0.340083 0.192962 -0.0726569 -0.184939 -0.0381859 -0.0389294 -0.00916933 -0.012006 0.0906108 0.157927 -0.326415 0.111294 0.0320979 0.0858733 -0.0800209 0.121796 0.268235 0.115986 -0.035548 -0.152773 0.00272225 0.00121741 0.100708 0.304644 -0.0131155 0.0160673 0.0534735 -0.0157364 0.0828571 0.0302511 -0.0693472 0.0173046 -0.0187424 0.120143 0.0459167 0.197826 0.0846823 0.144702 -0.0285438 -0.122013 0.0607303 0.107009
10 0.732066 -0.670754 0.578406 0.519974 -0.0301606 1.24557 0.0438305 -1.15786 -0.999987 -0.305201 0.542743 -0.588544 0.841511 -0.326485 0.244325 2.00686 -0.138548 -0.659906 -1.11134 -0.0839387 0.337758 0.153976 0.750655 -0.0905184 0.546977 -0.750534 0.201385 0.0672318 -0.200119 -0.225533 -1.10337 0.315011 -0.426533 0.167124 -0.22705 -0.430849 0.0224425 -0.000618711 0.104487 0.288079 -0.289163 -0.239098 -0.281423 0.152921 -0.288682 -0.179982 0.162476 -0.487529 0.102008 -0.0203221 0.148669 -0.178853 0.144389 -0.518596 0.0241862 -0.534183 0.255116 -0.0480638 -0.208073 -0.130807 0.204427 -0.07623 0.183796 -0.231213 0.0870739 0.133424 0.0719734 0.0871787 0.300843 -0.414916 0.171711 -0.0290628 0.130775 -0.0173321 -0.0421724 -0.767984 0.209269 0.484236 -0.426204 -0.306371 0.555911 0.0504555 -0.0946336 0.0794523 0.247592 0.206501 0.333532 0.235588 -0.0424062 -0.134543 0.00265099 -0.023673 0.00670338 -0.047741 0.0963416 0.133195 -0.377859 0.146566 0.00814507 0.0743638 -0.103239 0.122056 0.101739 0.00598543 -0.0294216 -0.103936 0.0149907 0.0110079 0.132494 0.332214 -0.0470615 -0.0732866 -0.203245 -0.0208203 0.0753933 0.0426485 -0.0875202 -0.0646557 -0.106694 0.1646 -0.0255492 0.421847 -0.0217868 0.0128061 -0.00850336 -0.0129572 -0.0737267 0.0802915
12 0.812631 -0.797121 0.471124 0.441982 0.00711598 1.08362 0.0888042 -0.843513 -0.69518 -0.279828 0.414734 -0.566863 0.803484 -0.383982 0.259079 2.17848 -0.130652 -0.673592 -0.98165 -0.0482116 0.363956 0.241033 0.894331 -0.152738 0.612508 -0.875988 0.085592 0.0526607 -0.190242 -0.220472 -1.30863 0.331625 -0.422241 0.189932 -0.267216 -0.472473 0.00428737 -0.0158713 0.140039 0.366284 -0.435342 -0.351764 -0.40891 0.172683 -0.355687 -0.230612 0.240018 -0.62503 0.129508 0.00322527 0.0685902 -0.156108 0.0383539 -0.280031 -0.0432324 -0.329252 0.202741 0.00631723 0.0995563 0.103406 -0.039595 -0.126891 0.0973141 -0.0436837 0.132575 0.0135949 0.00302811 0.0270742 0.298185 -0.372266 0.136032 -0.0538801 0.179541 0.0148789 -0.00185465 -0.799491 0.278374 0.503283 -0.478769 -0.412117 0.621874 0.0478977 0.000641792 0.0233887 0.166406 0.117079 0.465108 0.280021 -0.0847511 -0.182324 -0.0209169 -0.119226 -0.00734074 -0.0251536 0.135064 0.178121 -0.480052 0.172967 0.037475 0.0998118 -0.10079 0.165411 0.20314 0.047638 -0.0775005 -0.138313 -0.0664713 0.0423716 0.106078 0.239032 0.0115709 0.0112319 0.0865063 -0.0149128 0.0967835 -0.0640018 -0.0221292 0.0855751 0.0189709 0.0638274 0.0585671 0.126022 0.0805255 0.128567 -0.0388067 -0.0914967 0.0473193 0.118116
5 0.930093 -0.947045 0.628783 0.60474 0.00300707 1.53144 0.147592 -1.0634 -0.941235 -0.38005 0.624874 -0.79929 1.08674 -0.513359 0.353126 2.79261 -0.17715 -0.88767 -1.33543 -0.0729879 0.442149 0.319531 1.05777 -0.173953 0.680243 -1.01167 0.0989912 0.0558025 -0.258229 -0.267421 -1.60473 0.392179 -0.508926 0.235873 -0.323732 -0.610135 -0.0062406 -0.0397454 0.214053 0.454525 -0.556059 -0.434538 -0.533122 0.264613 -0.459665 -0.304028 0.335296 -0.865301 0.16074 0.00488278 0.0908496 -0.194753 0.0790953 -0.393691 -0.0567344 -0.405736 0.22384 -0.00214668 0.152275 0.153864 -0.0367038 -0.20059 0.149645 -0.0595068 0.170863 0.0248735 0.0258308 0.0351354 0.373982 -0.459226 0.175683 -0.058086 0.235877 0.0289093 0.0468585 -0.975645 0.345015 0.554857 -0.608434 -0.511736 0.754989 0.0553599 0.0238141 0.0252137 0.214927 0.17765 0.526167 0.290365 -0.0910933 -0.226784 -0.0354915 -0.17375 -0.00578294 -0.0043994 0.173213 0.228941 -0.613448 0.215183 0.121487 0.00940276 -0.0706564 0.15914 0.284419 0.0537268 -0.090971 -0.177209 -0.0647504 0.0592135 0.134723 0.33044 0.0401358 0.0117824 0.0950899 -0.0182794 0.121846 -0.107193 -0.0196696 0.122502 0.0336293 0.0669234 0.0399342 0.211941 0.116602 0.163526 -0.0399775 -0.096299 0.0165406 0.153392
7 1.00278 -1.03314 0.65989 0.631656 0.00146302 1.71639 0.159416 -1.26276 -1.1017 -0.443137 0.59506 -0.820545 1.16946 -0.564417 0.374894 3.02949 -0.188331 -0.947629 -1.31697 -0.0688195 0.468063 0.357335 1.16737 -0.190201 0.742982 -1.11154 0.0625626 0.054177 -0.244873 -0.258795 -1.56079 0.362866 -0.485865 0.236508 -0.335785 -0.616499 -0.00777906 -0.0433597 0.23243 0.501259 -0.610435 -0.468991 -0.558963 0.265932 -0.496028 -0.328134 0.355509 -0.895494 0.165476 0.00401041 0.0824167 -0.19483 0.0893882 -0.417711 -0.0679296 -0.4899 0.277315 0.000749901 0.213302 0.203395 -0.0921422 -0.238663 0.19656 -0.0755258 0.220938 0.0211341 -0.00325349 0.0380348 0.415999 -0.513343 0.201287 -0.0684711 0.275233 0.0462518 0.0413083 -1.00745 0.390991 0.585281 -0.65727 -0.561878 0.841508 0.0520277 0.0574724 0.0128813 0.205119 0.165866 0.525895 0.272681 -0.0934113 -0.238373 -0.0151539 -0.216952 -0.00792018 0.00483725 0.188917 0.226975 -0.666268 0.233997 0.167349 -0.0418647 -0.0364859 0.132216 0.31482 0.0454932 -0.11401 -0.183955 -0.0795403 0.062566 0.12805 0.311201 0.0638978 0.0151586 0.150542 -0.00429819 0.126753 -0.131286 -0.0185763 0.165748 0.0583397 0.0555659 0.0497163 0.198077 0.144684 0.198886 -0.0501936 -0.113735 0.0300685 0.181188
17 1.00824 -1.00025 0.661718 0.624106 -0.000820525 1.6072 0.110953 -1.18193 -1.05304 -0.418444 0.575709 -0.776843 1.11475 -0.530279 0.330662 2.84808 -0.174283 -0.900457 -1.37161 -0.0674944 0.449919 0.326902 1.15441 -0.198207 0.752936 -1.0956 0.10611 0.0690397 -0.256538 -0.278177 -1.59391 0.391033 -0.502835 0.231014 -0.363762 -0.652281 -0.00792316 -0.0323415 0.207428 0.494402 -0.603461 -0.469329 -0.585871 0.258068 -0.494064 -0.322282 0.335525 -0.881659 0.175919 0.00812726 0.0988544 -0.225194 0.064145 -0.421962 -0.0756367 -0.385625 0.244836 0.0157908 0.144621 0.159189 -0.0151084 -0.202637 0.180247 -0.0778976 0.203514 0.0120402 0.0319868 0.0398951 0.414587 -0.516748 0.200735 -0.0639356 0.232239 0.0275412 0.0353021 -1.01937 0.363216 0.606189 -0.634222 -0.527503 0.792969 0.0655802 0.00303764 0.0401411 0.225315 0.180374 0.569626 0.32633 -0.106697 -0.251557 -0.039044 -0.158178 -0.0266406 -0.0146233 0.170876 0.238081 -0.604843 0.218527 0.102814 0.039705 -0.0655937 0.159764 0.304373 0.0764194 -0.0784864 -0.163456 -0.0611114 0.062941 0.132323 0.317996 0.0527471 -0.00672804 0.096063 -0.00106049 0.12422 -0.103718 -0.0226058 0.113622 0.0121103 0.0756362 0.0350923 0.243874 0.129073 0.170471 -0.0421607 -0.102047 0.024643 0.167606
28 0.68968 -0.627553 0.497175 0.440796 -0.0320637 1.37451 0.0597112 -1.27219 -1.14152 -0.353766 0.441808 -0.540057 0.829756 -0.340635 0.254676 2.1629 -0.143142 -0.738016 -0.955248 -0.119403 0.380828 0.140099 0.787834 -0.103411 0.59013 -0.775702 0.163874 0.0844949 -0.236966 -0.253087 -1.11741 0.329445 -0.448273 0.160463 -0.225935 -0.457973 0.0203034 -0.0269787 0.122002 0.295474 -0.322703 -0.298085 -0.296156 0.138271 -0.349983 -0.207758 0.192533 -0.568472 0.134108 -0.0258644 0.172443 -0.21737 0.135769 -0.461097 0.013632 -0.410228 0.17898 -0.0759804 -0.113072 -0.0849945 0.231634 -0.0188367 0.0828895 -0.157045 0.0297125 0.141291 -0.0495764 0.0823173 0.235097 -0.306334 0.0876857 -0.00887964 0.223488 -0.00558166 -0.0823238 -0.54323 0.15931 0.340124 -0.406189 -0.333468 0.541995 -0.00371521 -0.0377322 0.0236735 0.167719 0.1102 0.495364 0.376012 -0.086919 -0.169242 0.0731258 -0.0552492 0.028589 -0.0450737 0.125668 0.109889 -0.341075 0.111557 0.0564514 0.0328335 0.0102312 0.00194603 0.0931934 0.0100454 -0.0930902 -0.171329 -0.046967 -0.0246452 0.14432 0.319553 -0.0934974 0.00546764 -0.127492 -0.0661031 0.0877265 0.0517933 -0.0918341 -0.0431272 -0.0839654 0.200567 0.0606889 0.31934 0.0180373 0.0764496 -0.0291888 -0.110087 0.0170557 0.0702173
25 0.647316 -0.642124 0.358516 0.333307 -0.00197959 1.35756 0.112149 -1.21868 -1.13102 -0.370847 0.415032 -0.577812 0.927227 -0.368873 0.302142 2.2693 -0.131487 -0.679721 -0.904371 -0.152344 0.41284 0.182208 0.941384 -0.120649 0.651918 -0.913859 0.0330665 0.0695053 -0.175359 -0.231323 -1.19357 0.294164 -0.383521 0.168195 -0.271405 -0.529879 0.00565387 -0.0754499 0.197572 0.465361 -0.497445 -0.463109 -0.361646 0.190252 -0.41501 -0.233018 0.279426 -0.735794 0.152178 -0.0236869 0.14433 -0.208152 0.084844 -0.421015 0.0126296 -0.577912 0.237476 -0.0853337 0.0778151 0.054646 0.136572 -0.0634666 0.141495 -0.181935 0.088795 0.0579415 -0.134476 0.071119 0.243167 -0.31965 0.0569121 -0.0320381 0.29202 0.042753 -0.119628 -0.780045 0.231091 0.35531 -0.417541 -0.3756 0.645953 -0.0139097 -0.0056585 0.0166784 0.152071 0.0265836 0.447725 0.294573 -0.130842 -0.169165 0.0838742 -0.130054 0.0322263 -0.0307913 0.201368 0.201634 -0.563062 0.199505 0.0848576 0.0695261 -0.0792027 0.111627 0.205385 0.0885842 -0.13876 -0.258171 -0.0731045 0.00516909 0.169858 0.36592 -0.107219 -0.00513835 -0.103779 -0.0625714 0.139099 0.0932147 -0.132357 -0.0502574 -0.0643318 0.259794 0.150073 0.210043 0.0683526 0.199475 -0.0781298 -0.208811 0.114147 0.12673
26 0.739235 -0.709541 0.423083 0.392569 -0.00921105 1.37286 0.104667 -1.30728 -1.17684 -0.389979 0.441923 -0.582544 0.878195 -0.384552 0.282663 2.2429 -0.124579 -0.689123 -0.811769 -0.154164 0.412635 0.155438 0.894838 -0.125463 0.591568 -0.797584 0.0532645 0.0720838 -0.223513 -0.214832 -1.20499 0.328569 -0.447531 0.179604 -0.284894 -0.574806 -0.0010018 -0.0821776 0.202134 0.455096 -0.528885 -0.502312 -0.476549 0.2132 -0.492407 -0.273892 0.293614 -0.820302 0.181321 -0.0159549 0.163339 -0.255347 0.0889613 -0.391414 0.0124088 -0.549498 0.196151 -0.081157 0.140327 0.0944551 0.118218 -0.0324478 0.0166675 -0.0320166 0.0548175 0.0380522 -0.149488 0.0636798 0.249593 -0.294445 0.0445445 -0.0241729 0.308137 0.0307012 -0.113942 -0.704884 0.206153 0.326769 -0.407324 -0.404723 0.581202 -0.0409645 -0.00969421 -0.00400952 0.134412 0.0229161 0.578945 0.392476 -0.152335 -0.211796 0.0829384 -0.120016 0.0230449 -0.0420543 0.182497 0.186649 -0.482127 0.166099 0.0537834 0.107745 -0.038349 0.0903509 0.210257 0.0990679 -0.104516 -0.216041 -0.0789024 -0.00426354 0.141631 0.321127 -0.0680625 0.0486949 0.00945689 -0.057212 0.120255 0.0585784 -0.100541 -0.0332276 -0.0426574 0.204135 0.123784 0.178618 0.10034 0.184126 -0.0598607 -0.185458 0.118372 0.108788
16 0.763776 -0.69947 0.478316 0.452653 -0.00278199 1.24788 0.0375793 -1.1536 -1.03279 -0.357598 0.466999 -0.489753 0.826224 -0.383753 0.241719 2.23929 -0.151243 -0.746289 -1.05204 -0.0360589 0.327894 0.191047 0.894664 -0.147316 0.493066 -0.672185 0.123502 0.0374924 -0.219089 -0.161024 -1.19334 0.339532 -0.43374 0.181795 -0.252014 -0.435623 -0.00664642 -0.008083 0.12323 0.301621 -0.403031 -0.320195 -0.42587 0.1606 -0.347032 -0.205842 0.191918 -0.590076 0.119602 0.00543256 0.0617058 -0.171601 0.0426274 -0.271694 -0.0191255 -0.363827 0.165826 -0.00611296 0.0343953 0.043773 0.188514 -0.0652258 0.0910978 -0.0978133 0.0998438 0.101235 0.00978974 0.069189 0.251908 -0.320837 0.12548 -0.0237042 0.147914 -0.0173752 -0.0169047 -0.653626 0.159321 0.349961 -0.384326 -0.340322 0.483954 0.0425232 -0.0815895 0.0508082 0.204721 0.167839 0.5019 0.376756 -0.0831072 -0.178185 0.0184398 -0.0171428 0.0430952 -0.0442868 0.19237 0.366726 -0.620447 0.241255 -0.125136 0.336063 -0.297899 0.357707 0.34285 0.23552 0.0378667 -0.140566 0.0122597 0.0102265 0.0786079 0.299961 0.0169157 0.0284179 -0.0107345 -0.0144802 0.0543368 -0.00560371 -0.0584297 -0.0181555 -0.0370696 0.0904644 -0.0233548 0.25981 0.0387865 0.0811244 0.0101957 -0.02127 -0.0585399 0.0761706
24 0.699614 -0.724952 0.358963 0.344774 0.00570086 1.37558 0.128535 -1.23871 -1.23928 -0.419602 0.61778 -0.651209 0.992107 -0.400741 0.346979 2.48169 -0.176403 -0.816516 -0.940116 -0.104809 0.33501 0.201675 0.787819 -0.0918432 0.518975 -0.766205 0.0849757 0.0228533 -0.207823 -0.157741 -1.05184 0.286069 -0.394825 0.186578 -0.182768 -0.456777 0.0174321 -0.0733267 0.194686 0.373638 -0.495994 -0.398378 -0.314224 0.214512 -0.346919 -0.23242 0.248106 -0.71171 0.116525 -0.00500383 0.0750109 -0.148087 0.109282 -0.341657 -0.0205552 -0.409872 0.185066 -0.0494097 0.0934019 0.0476264 0.119642 -0.104237 0.17221 -0.186462 0.120492 0.126839 -0.0423279 0.0907191 0.310111 -0.408214 0.167923 -0.0369983 0.24202 -0.0146804 0.0254053 -0.552835 0.194065 0.277362 -0.397636 -0.360769 0.561074 0.00943294 0.0659729 -0.0508139 0.0604047 0.026166 0.422135 0.271869 -0.0732403 -0.132051 0.0617932 -0.163765 0.0452764 0.0118138 0.198043 0.20395 -0.643267 0.211664 0.0942189 0.0323024 -0.172797 0.240674 0.288084 0.105521 -0.0784271 -0.254229 -0.072817 0.00919781 0.115035 0.304347 -0.034555 0.0702939 -0.0329653 -0.0670288 0.10096 -0.0288205 -0.0663736 0.0448261 0.026204 0.124172 0.0707133 0.157192 0.0379753 0.154179 -0.0376977 -0.10768 -0.0418491 0.125508
13 0.88541 -0.829942 0.295987 0.246541 0.0060668 1.11023 0.0699698 -1.05942 -0.8678 -0.328793 0.545885 -0.637221 0.894044 -0.399355 0.263658 2.17198 -0.137242 -0.671027 -0.973532 -0.0546201 0.318005 0.249259 0.937178 -0.15038 0.700132 -1.00038 0.180557 0.0710547 -0.201669 -0.244181 -1.39198 0.380931 -0.473958 0.205076 -0.317773 -0.537632 0.0453887 0.0187894 0.117829 0.423554 -0.507637 -0.404644 -0.449757 0.148543 -0.400115 -0.278581 0.237038 -0.661658 0.150944 0.0199421 0.0201112 -0.133823 -0.0134768 -0.329528 -0.0661958 -0.442553 0.305816 0.0512177 0.0352016 0.0604599 -0.0245702 -0.117175 0.0831741 -0.0278144 0.118852 -0.0184524 0.029681 0.0304743 0.371946 -0.472055 0.164499 -0.0671199 0.169215 -0.0270918 0.0121073 -0.759585 0.256792 0.471749 -0.362186 -0.334288 0.44338 0.00996077 -0.00413883 0.00426751 0.107742 0.0615587 0.52906 0.316257 -0.111623 -0.203232 -0.0778585 -0.0757399 -0.0808511 -0.0504213 0.0700636 0.106855 -0.414573 0.160476 -0.0227213 0.160016 -0.0927909 0.180262 0.107071 -0.00604944 -0.0440808 -0.106227 -0.0477142 0.0761294 0.116155 0.263745 -0.00994257 -0.00450719 -0.061231 -0.0361456 0.113996 -0.0252335 -0.0258613 0.00488951 -0.0180039 0.0644224 0.0490579 0.112503 0.0416871 0.0520884 -0.0290018 -0.0280147 0.00149466 0.0861555
15 0.786232 -0.751905 0.516289 0.472042 -0.00830865 1.33164 0.0650517 -1.16134 -0.977787 -0.328208 0.516689 -0.552993 0.831277 -0.380989 0.246705 2.05528 -0.140847 -0.67498 -0.94768 -0.0516149 0.322393 0.19221 0.877563 -0.127523 0.528821 -0.737875 0.112099 0.0348569 -0.202559 -0.154979 -1.21726 0.331482 -0.459736 0.196689 -0.214605 -0.386368 -0.00239703 -0.0251562 0.129497 0.29833 -0.389208 -0.307185 -0.419115 0.163211 -0.346612 -0.221724 0.21319 -0.592436 0.120736 0.00949743 0.0496876 -0.13807 0.0511841 -0.323924 -0.0125798 -0.468801 0.231381 -0.0132189 0.0203716 0.0426231 0.115459 -0.0924671 0.110807 -0.0963008 0.103113 0.0836928 0.0117123 0.0502955 0.278081 -0.350227 0.122557 -0.0405159 0.161869 -0.00562657 -0.00684605 -0.607236 0.177144 0.348849 -0.370193 -0.346421 0.454749 0.0243957 -0.0601748 0.0356028 0.209205 0.174597 0.505506 0.365653 -0.0792793 -0.175789 0.0158341 -0.0527113 0.040807 -0.0499403 0.180168 0.315984 -0.631848 0.239655 -0.0975177 0.298877 -0.273244 0.344736 0.299495 0.175764 0.013692 -0.13134 0.00268174 0.0382336 0.108129 0.332177 0.0139122 -0.0180307 -0.0707218 -0.011602 0.07438 -0.0143825 -0.0587624 -0.0142989 -0.059575 0.106812 -0.0281446 0.304429 0.0284733 0.0531978 0.010107 0.00558829 -0.0719174 0.0791806
19 0.756166 -0.74839 0.578896 0.553029 -0.0172702 1.39901 0.0826472 -1.33696 -1.16889 -0.374184 0.532638 -0.550129 0.833817 -0.374849 0.26933 2.18562 -0.153582 -0.742338 -0.884992 -0.0683664 0.349861 0.175763 0.854326 -0.114217 0.507282 -0.710667 0.0957935 0.0215164 -0.205658 -0.134431 -1.13608 0.305292 -0.440335 0.188296 -0.132724 -0.307085 -0.0116172 -0.0555074 0.15188 0.283273 -0.378363 -0.306359 -0.31882 0.168535 -0.291031 -0.180778 0.192946 -0.534681 0.0951195 0.00120511 0.085385 -0.125966 0.117183 -0.306824 0.020414 -0.50405 0.207509 -0.0497592 0.0653238 0.0573897 0.0586194 -0.095476 0.110603 -0.090359 0.109356 0.0869722 -0.0111966 0.0566887 0.241739 -0.303532 0.128863 -0.0323213 0.150302 0.00508085 -0.00204049 -0.592 0.195115 0.361246 -0.407474 -0.356348 0.529821 0.0418322 -0.0449383 0.0381896 0.219014 0.19009 0.420554 0.282188 -0.0633498 -0.172516 0.011674 -0.0657252 0.032464 -0.0249276 0.159948 0.276322 -0.537754 0.200431 -0.02468 0.168709 -0.198747 0.257371 0.28646 0.139057 0.00109228 -0.124949 -0.00857982 0.0218668 0.0863944 0.279969 0.0384505 -0.010741 -0.0102663 0.000113522 0.0699143 -0.0291706 -0.0521486 0.0122459 -0.0324705 0.0906187 -0.020636 0.27441 0.0447304 0.0759322 -0.00196951 -0.018905 -0.0523255 0.0960832
