34 128
10 -0.266545 -0.00942191 0.00582649 -0.0327379 -0.136636 0.0546419 -0.123999 0.200729 0.0631775 0.0945692 0.118674 -0.0910339 0.213205 0.0649023 0.0677377 -0.0374758 0.311472 0.0327477 -0.0244885 -0.205215 -0.112833 0.0976757 0.000437207 -0.129638 0.0706864 -0.177604 0.0815284 -0.0316732 0.112782 0.120587 0.159067 0.0859959 -0.246963 0.0763265 -0.0997316 -0.0946621 -0.246128 -0.275857 0.0162332 0.258719 0.0870705 0.00129352 0.161882 -0.136445 0.0333688 -0.0260804 -0.143844 0.0658439 0.0959206 0.111119 -0.0652904 -0.145099 0.0994086 0.0518268 -0.301305 0.08026 0.0423544 -0.112265 0.0435168 -0.00808609 0.0339547 0.0446115 0.133349 -0.165491 -0.157652 -0.132781 0.00110139 -0.0560394 -0.312403 0.224011 0.292507 0.497053 -0.250508 -0.114964 0.0333153 -0.194201 0.434196 -0.243872 0.112546 0.00579797 0.246879 -0.479701 0.126195 -0.211041 -0.28632 -0.528796 1.03975 0.184503 -0.387348 0.067641 0.0505378 0.225775 -0.160091 0.490612 -0.0489649 0.36836 0.0567521 0.109263 0.769012 0.138382 -0.0247624 -0.302647 -0.567247 0.631458 -0.377649 -0.0626904 -1.06915 -0.37833 -0.452054 0.0740128 -0.106785 0.936306 0.438094 -0.0470211 1.04831 -0.0185145 -0.809558 -1.64304 -1.83169 1.0619 1.57868 -0.256842 -0.379178 0.39651 -0.0673086 0.644639 1.41198 -0.985975
34 0.0236312 0.00678597 -0.020566 -0.0300493 -0.0819604 0.129535 0.125424 0.00466356 0.0898768 0.0891743 -0.0149066 0.0616424 0.234065 0.027621 0.0830109 -0.0878847 0.216699 -0.0154581 0.00354408 -0.0548033 -0.0192796 0.0166335 -0.0246307 -0.0749402 0.0657267 -0.133768 0.0365408 -0.0206674 0.0787236 0.0205087 0.171084 0.0865627 -0.182451 0.116553 -0.0376356 -0.0406198 -0.107651 -0.0360188 -0.0753512 0.0505791 -0.00875489 0.0572499 0.0690113 -0.0371034 0.0158003 -0.0424009 -0.105126 0.0491745 0.0471933 0.107421 -0.0183511 -0.0773135 -0.00593089 -0.0172679 -0.0881643 0.0983896 0.0135864 0.0860816 0.0608313 0.0473236 0.0373055 0.0872754 0.30304 -0.334561 -0.235235 -0.00949836 0.0129498 -0.0588729 -0.204672 0.174148 0.217236 0.367142 -0.177789 -0.1284 0.0226858 -0.144247 0.420734 -0.242327 0.127065 0.0649604 0.167759 -0.278988 0.0349288 -0.155319 -0.17618 -0.383198 0.940632 0.213655 -0.25906 -0.0122807 0.0188699 0.176504 -0.0367427 0.204723 -0.0282599 0.0497889 0.0136861 0.0118715 0.519984 0.00301409 0.00360315 -0.347124 -0.351067 0.410154 -0.290407 -0.0559452 -1.03592 -0.398244 -0.498213 0.0766353 -0.0962378 1.04205 0.549143 -0.0275094 1.65776 -0.0132543 -1.07807 -2.12454 -2.5664 1.46896 2.15795 -0.355341 -0.443941 0.481117 -0.0800976 0.689332 2.04817 -1.41687
19 -0.259686 -0.00513214 0.0242108 0.00470012 -0.16408 0.0833419 -0.102546 0.181555 0.0605077 0.0917232 0.165911 -0.149157 0.310495 0.0456333 0.122221 -0.125137 0.403071 -0.0269343 -0.0289809 -0.231761 -0.138723 0.106309 0.0187595 -0.121602 -0.0565626 -0.020342 0.109953 0.00607438 0.261805 0.11854 0.387043 0.173959 -0.346449 0.119725 -0.0560581 -0.0414685 -0.0447218 -0.09671 0.0152633 0.184442 0.0243326 0.0546016 0.0837871 -0.118186 -0.010408 0.00270524 -0.177947 0.0991977 0.0813732 0.0887382 -0.0646058 -0.153425 0.048108 0.0154222 -0.246119 0.0325229 0.0376238 -0.0706546 -0.00521988 -0.0542987 0.0218089 0.0463076 0.196444 -0.229464 -0.165948 -0.0451586 0.0337235 -0.0842304 -0.251552 0.21013 0.272544 0.43438 -0.223158 -0.0530708 0.173321 -0.301458 0.546568 -0.314909 0.133218 0.0598714 0.218536 -0.362871 0.03833 -0.152365 -0.31776 -0.533486 1.0658 0.192828 -0.279158 0.0514465 0.0460476 0.204929 -0.107539 0.331507 -0.0298406 0.173371 0.0532961 0.0498645 0.662511 0.104989 -0.0208756 -0.346028 -0.481777 0.521854 -0.310476 -0.0218157 -1.26 -0.452957 -0.439958 0.0751765 -0.131889 0.98056 0.456602 -0.0363444 1.49767 0.018981 -1.00524 -1.98629 -1.97379 1.13613 1.69103 -0.296361 -0.437302 0.514475 -0.0918725 0.749871 1.67985 -1.10161
33 -0.0966232 -0.0190795 0.00504964 0.0279613 -0.109001 0.109858 0.0526006 0.0550786 0.11937 0.114213 0.00524204 0.0268019 0.103049 0.0493879 0.0327017 -0.00819708 0.148355 0.0348535 0.0208266 -0.133634 -0.0496117 0.0179375 0.0224809 -0.0739084 0.0561235 -0.116293 0.0219139 -0.0218161 0.0366621 0.0424971 0.0488165 0.0288258 -0.118717 0.060528 -0.0452688 -0.0955554 -0.104675 -0.09869 -0.0488693 0.0130164 0.031051 0.0220285 0.0649356 -0.0834353 0.00706133 -0.0282443 -0.0911416 0.0426666 0.0480049 0.125214 -0.0208711 -0.0971124 -0.00241975 -0.0182254 -0.0702949 0.162657 0.00767139 0.109265 0.0619193 0.0369275 0.0312727 0.0714985 0.304852 -0.336721 -0.240239 -0.028105 -0.000446916 -0.0508449 -0.322832 0.251754 0.244434 0.448819 -0.182081 -0.158719 -0.0441864 -0.107167 0.409256 -0.236735 0.109237 0.0245534 0.166955 -0.30737 -0.00124007 -0.118413 -0.180878 -0.421046 0.985959 0.196274 -0.264156 -0.0118291 0.0160461 0.191071 -0.0768611 0.282473 -0.0341212 0.164711 0.0193275 0.0409996 0.650488 0.0286365 -0.0103274 -0.352524 -0.359465 0.423657 -0.319251 -0.058824 -1.16769 -0.437592 -0.528901 0.0735463 -0.0930541 1.04088 0.558643 -0.0301462 1.66586 -0.057898 -1.13792 -2.29337 -2.61321 1.47734 2.22204 -0.370247 -0.523276 0.522974 -0.0578733 0.768344 2.02679 -1.48553
32 -0.171049 -0.0158726 0.0181491 0.0228926 -0.12731 0.0838958 -0.0230096 0.110597 0.101793 0.10464 0.0413885 0.0463244 0.389075 0.042556 0.0696848 -0.0728374 0.294066 0.0488227 -0.0052414 -0.145468 -0.106383 0.0682349 0.00845573 -0.160839 0.027211 -0.150864 0.0554008 -0.0267158 0.13504 0.0847515 0.228056 0.1037 -0.327795 0.190421 -0.0851464 -0.0502207 -0.175518 -0.105693 -0.0955846 0.160146 0.00993571 0.0711065 0.136975 -0.118767 0.065056 -0.0537057 -0.198258 0.129006 0.0983112 0.211982 -0.0466473 -0.169047 0.0832702 0.0496231 -0.264195 0.0919756 0.0139867 -0.0597171 -0.0016785 -0.0706706 0.0275034 0.0420737 0.297616 -0.346234 -0.285384 -0.0636765 0.012343 -0.0849524 -0.255686 0.245992 0.304744 0.52384 -0.246264 -0.144559 0.0452936 -0.224488 0.514515 -0.280067 0.152721 0.0854904 0.245766 -0.348904 0.0974359 -0.272291 -0.31731 -0.561911 1.22734 0.244142 -0.381195 0.0365691 0.02552 0.217699 -0.0738288 0.344073 0.00439181 0.200096 0.00761462 0.0706551 0.680498 0.0359218 -0.00160434 -0.38232 -0.457803 0.524418 -0.337938 -0.051562 -1.12521 -0.433515 -0.480593 0.0663135 -0.105703 0.928912 0.493134 -0.0364898 1.61862 -0.0277785 -1.07663 -2.14128 -2.29779 1.31701 1.93321 -0.322675 -0.472344 0.516349 -0.0480408 0.707652 1.93057 -1.36016
3 0.0827423 0.00870696 0.0699237 0.0943251 -0.0315725 0.0211899 0.0116422 0.021803 0.0643078 0.0444469 0.00938036 0.0673434 0.301819 -0.0165352 0.114123 -0.146982 0.28333 -0.0119045 -0.00600556 -0.0372314 -0.055433 0.0375898 0.0356442 -0.0828223 -0.0274508 -0.04077 0.00665421 0.00418107 0.0618954 0.0442409 0.127549 0.0618656 -0.112345 0.0326793 -0.0201508 0.0178665 -0.099245 -0.059413 -0.0304791 0.155574 -0.023636 0.0366235 0.0586283 -0.022422 0.0315508 -0.0544293 -0.141755 0.0818291 0.0623739 0.141905 -0.0243471 -0.0978451 0.0396399 0.00745531 -0.274756 0.000910742 0.0351455 -0.179597 0.00253325 -0.0244054 0.0224901 0.0390788 0.199541 -0.237215 -0.154449 -0.0248318 0.0161402 -0.0525795 -0.12122 0.133368 0.250899 0.385198 -0.224743 -0.0726789 0.0778884 -0.187822 0.416145 -0.239087 0.146701 0.0996936 0.208841 -0.269456 0.119882 -0.243703 -0.275927 -0.442125 1.09513 0.250952 -0.28695 0.0365165 0.0299882 0.140579 -0.0485278 0.249837 -0.0180995 0.136764 0.0274161 0.07508 0.515586 0.0543111 0.0209776 -0.329269 -0.389739 0.441672 -0.27098 -0.0456646 -1.03319 -0.399801 -0.422497 0.0719539 -0.150467 1.03409 0.543487 -0.0624895 1.45127 0.0333422 -0.887009 -1.64613 -2.12352 1.26618 1.85041 -0.314873 -0.346704 0.469224 -0.126909 0.692362 1.8615 -1.11573
9 -0.130615 0.0378309 -0.0273087 -0.0839101 -0.0987142 0.0243832 -0.113244 0.168198 -0.00254855 0.0548274 0.12039 -0.103158 0.35515 0.0185879 0.105669 -0.123794 0.322325 -0.0318018 -0.0373769 -0.148097 -0.0569653 0.0937423 -0.0364084 -0.0877511 0.0178671 -0.0801892 0.089275 -0.00273442 0.203807 0.0758355 0.241401 0.125786 -0.257791 0.100256 -0.0542297 -0.0131117 -0.0913943 -0.102451 0.0180915 0.154946 0.0209033 0.0435602 0.111929 -0.0663218 0.0143641 -0.00198127 -0.12727 0.066241 0.0793029 0.0794826 -0.0587724 -0.139333 0.047664 0.0366527 -0.20154 0.0377724 0.0275364 0.00294162 0.0490188 0.022128 0.0455426 0.0816714 0.261845 -0.293934 -0.201512 -0.0281601 0.0242063 -0.0803626 -0.26219 0.197397 0.260576 0.413993 -0.258415 -0.0836476 0.0971764 -0.275923 0.607847 -0.341566 0.14977 0.0247914 0.24117 -0.448693 0.284038 -0.319887 -0.562166 -0.887854 0.974041 0.17261 -0.28177 0.0140303 0.0405463 0.194394 -0.0778951 0.252522 -0.0874934 0.149871 0.057618 0.0204969 0.689822 0.0881354 -0.0425427 -0.353704 -0.501804 0.557909 -0.342461 -0.0501396 -1.18717 -0.427634 -0.464724 0.087535 -0.113719 0.942247 0.433866 -0.0256908 1.51733 0.0302483 -1.02056 -2.08489 -2.00691 1.14657 1.593 -0.273772 -0.389591 0.448292 -0.0940996 0.736118 1.7676 -1.15536
1 -0.0116781 0.043493 0.0678444 0.0793708 -0.073202 0.0596885 -0.0365812 0.082515 0.0225828 0.0625437 0.0742864 -0.0567535 0.175364 -0.00977011 0.0762956 -0.0906008 0.13418 -0.0477589 -0.0419007 -0.0281206 -0.0486384 0.0525736 0.00620169 0.012539 -0.0637103 0.0905686 0.0607973 0.0177921 0.119211 0.0176696 0.186452 0.0834912 -0.164248 0.0410945 0.0319979 0.0603475 0.133464 -0.00764122 0.0834443 0.0129546 -0.0228602 0.0297574 0.0582759 -0.148145 -0.0570276 -0.00747458 -0.11507 0.0539186 0.0423528 0.050632 -0.0181231 -0.124825 -0.0115094 -0.0355964 -0.112887 0.0836851 0.0373401 0.0751379 0.106258 0.139878 0.0638962 0.0847089 0.244106 -0.252443 -0.200027 0.0436985 0.00400013 -0.0649662 -0.204561 0.137179 0.23533 0.321794 -0.197607 -0.0541886 -0.0369714 -0.127095 0.41518 -0.24005 0.109218 0.0287598 0.131733 -0.275013 0.115547 -0.14338 -0.403246 -0.66703 1.17466 0.147584 -0.199293 0.0116743 0.0141818 0.124661 -0.0454968 0.106003 -0.0973382 0.0230576 0.094147 0.00641707 0.640938 0.0615601 -0.0552332 -0.352468 -0.462103 0.514709 -0.349124 -0.0306413 -1.07354 -0.378801 -0.417447 0.12157 -0.162946 1.13384 0.522334 -0.0099587 1.6819 0.0143758 -1.04827 -2.09223 -2.57079 1.45646 2.1192 -0.352455 -0.47241 0.522376 -0.0925075 0.701672 2.12222 -1.42256
23 -0.108546 0.0132299 0.00756721 -0.0157809 -0.0981183 0.0234059 -0.103183 0.156617 0.0304584 0.056576 0.13731 -0.147759 0.249658 0.0298945 0.103124 -0.111083 0.300629 -0.0360217 -0.0197401 -0.196483 -0.110259 0.0639801 0.0381754 -0.0835735 -0.055782 0.0115281 0.0562228 0.0168819 0.181629 0.099785 0.254897 0.123652 -0.226792 0.0527149 -0.0505803 -0.0356653 -0.079779 -0.11783 0.0268774 0.192856 0.0222852 0.0433857 0.105838 -0.0971093 0.0101092 -0.0150216 -0.147064 0.0827705 0.0845953 0.108678 -0.0711566 -0.132527 0.0628553 0.0362887 -0.271306 0.0395315 0.0364401 -0.102868 0.00268971 -0.0457571 0.0234065 0.041031 0.214082 -0.257839 -0.184029 -0.0607602 0.0254085 -0.0772788 -0.189304 0.16884 0.238115 0.390835 -0.200875 -0.0959484 0.0777914 -0.230275 0.484993 -0.273666 0.13949 0.059215 0.214418 -0.360107 0.117941 -0.242646 -0.328819 -0.567229 1.18165 0.220277 -0.359838 0.0423142 0.0395067 0.210096 -0.100801 0.386061 -0.0404619 0.224623 0.0395699 0.0571934 0.648687 0.0749894 -0.013399 -0.348502 -0.441601 0.489537 -0.28002 -0.047134 -1.18393 -0.433034 -0.467877 0.0741554 -0.112167 0.977592 0.477605 -0.0407325 1.46398 0.0135969 -0.995703 -1.96138 -2.0079 1.16658 1.72074 -0.280082 -0.41869 0.489639 -0.0740627 0.714281 1.6608 -1.1242
20 -0.18234 0.011886 0.0729465 0.0852347 -0.18337 0.130624 0.0206013 0.10811 0.080912 0.112477 0.0911053 -0.0386223 0.239197 0.0609068 -0.00156975 0.0122179 0.167121 0.039529 -0.00832477 -0.256554 -0.136376 0.0443787 0.0590557 -0.101823 -0.090432 0.0310081 0.0997342 -0.01052 0.188951 0.0888195 0.249473 0.119813 -0.290917 0.130548 -0.0533967 -0.0313535 -0.132327 -0.135539 0.00460253 0.192607 0.027147 0.0438172 0.102507 -0.120415 0.0114957 0.00972445 -0.141267 0.0909724 0.0840265 0.0946451 -0.0386858 -0.148362 0.0722017 0.0189516 -0.276202 0.0614553 0.043883 -0.0708061 0.0685678 0.0453275 0.0610409 0.0879773 0.230615 -0.233821 -0.217001 -0.0306945 0.0242085 -0.105986 -0.377643 0.280516 0.43528 0.629066 -0.310027 -0.0442971 0.0238337 -0.165273 0.490138 -0.271358 0.0861803 -0.0172999 0.137767 -0.313416 0.131329 -0.150954 -0.414666 -0.688219 1.08323 0.0847007 -0.257371 0.0478572 0.0314756 0.145773 -0.119966 0.288051 -0.0817507 0.234935 0.0711217 0.0571138 0.494739 0.0501489 -0.0594954 -0.253462 -0.419299 0.46331 -0.337418 -0.0566165 -0.940395 -0.346248 -0.414762 0.0981415 -0.0851634 0.893657 0.391289 0.0205171 1.49248 -0.0184606 -0.958339 -2.00517 -2.01536 1.08731 1.63769 -0.299183 -0.382451 0.392564 -0.102257 0.682684 1.91089 -1.21122
2 -0.0680021 0.0182544 0.0122842 0.0104162 -0.0670911 0.0131785 -0.0898202 0.1229 0.0186209 0.0621333 0.0597561 -0.0277433 0.262811 -0.00614759 0.116617 -0.132923 0.27044 -0.00792572 -0.0329313 -0.0999436 -0.0707032 0.0771679 0.0190858 -0.0649602 -0.000160797 -0.0357484 0.0259022 0.00390399 0.0447548 0.0679521 0.0341926 0.0330457 -0.132744 0.0180862 -0.0380859 -0.016507 -0.0647902 -0.11964 0.0474806 0.159184 0.0273519 0.0198105 0.124456 -0.14867 -0.0140742 -0.0431933 -0.151427 0.0791997 0.068427 0.104679 -0.0340601 -0.130563 -0.0282205 -0.0135771 -0.105812 0.0588769 0.0252236 0.0156058 0.0709871 0.0847188 0.0347531 0.0448008 0.171297 -0.190914 -0.141137 -0.0158182 0.0103249 -0.0465298 -0.218833 0.151876 0.26706 0.372215 -0.219446 -0.0468966 -0.0117948 -0.14245 0.384137 -0.224416 0.11065 0.00847887 0.168236 -0.329347 0.161945 -0.168772 -0.544022 -0.823434 1.12743 0.119273 -0.19599 0.00875312 0.0139855 0.104257 -0.0204064 0.0411184 -0.0751034 0.0319991 0.0758191 0.0224327 0.622055 0.0618445 -0.0522005 -0.326583 -0.43556 0.497979 -0.339237 -0.0502133 -0.987337 -0.349926 -0.419268 0.103539 -0.128657 1.01843 0.47998 -0.00558703 1.50045 -0.00471017 -0.979172 -2.01827 -2.31202 1.28407 1.89078 -0.311072 -0.448583 0.466109 -0.0661866 0.696638 1.99417 -1.36742
14 -0.183043 -0.00666351 0.169846 0.233916 -0.0721106 -0.02921 -0.181641 0.149542 0.049936 0.0212178 0.183618 -0.152979 0.104639 0.02427 0.0383374 -0.0244083 0.253509 0.0272875 -0.0359194 -0.103887 -0.122547 0.124326 0.0305198 -0.107881 -0.0464678 -0.00740483 0.0653461 0.00264174 0.140202 0.10625 0.325981 0.120813 -0.258295 0.0475704 -0.0106666 -0.000939536 0.0330003 -0.127594 0.0838293 0.162633 0.0288369 -0.00705473 0.0507583 -0.167344 -0.0194109 -0.0221115 -0.204022 0.104697 0.0836648 0.132837 -0.0411667 -0.193854 0.0707126 -0.00328538 -0.35171 0.0586505 0.0612273 -0.158713 0.000378484 -0.0438667 0.053952 0.00958885 0.15786 -0.171151 -0.194384 -0.0782243 0.013352 -0.100127 -0.344268 0.257786 0.357804 0.534206 -0.235745 -0.0584572 0.101117 -0.188975 0.455452 -0.26933 0.103075 0.0495214 0.202824 -0.352865 0.257345 -0.31438 -0.419247 -0.68847 1.33364 0.177664 -0.293844 0.0696414 0.0125795 0.151365 -0.132728 0.424536 -0.0404099 0.214826 0.051372 0.0718167 0.565919 0.0671857 -0.019107 -0.300213 -0.475212 0.540266 -0.316721 -0.054331 -0.934408 -0.332121 -0.450943 0.108579 -0.0959012 0.98553 0.464489 -0.0164693 1.50486 -0.0522618 -0.980944 -1.96201 -2.07142 1.15628 1.74582 -0.268415 -0.449021 0.428455 -0.0829286 0.624427 1.67762 -1.16412
25 -0.247787 -0.0370674 0.169387 0.240928 -0.226144 0.23576 0.126942 0.0416097 0.214357 0.180344 -0.0228896 0.251301 0.513764 0.0318047 0.101019 -0.107975 0.30166 0.0711597 0.00852877 -0.141276 -0.163945 0.0360953 0.0408289 -0.191886 -0.00115007 -0.161313 0.0693513 -0.039553 0.126943 0.0724041 0.259469 0.0966012 -0.355742 0.228687 -0.0844329 -0.0519344 -0.237352 -0.12163 -0.133577 0.190221 -0.0184429 0.0694144 0.125519 -0.142714 0.10542 -0.1169 -0.25706 0.179324 0.101375 0.281013 -0.0395247 -0.207187 0.106716 0.0464471 -0.280041 0.108427 0.0142724 -0.0940058 -0.0277442 -0.12599 0.0307551 0.0188152 0.278322 -0.337066 -0.329949 -0.116666 0.00877484 -0.123103 -0.240575 0.26909 0.296198 0.526403 -0.240397 -0.18464 0.00933802 -0.207311 0.547098 -0.275706 0.149509 0.103548 0.224973 -0.290441 0.0940272 -0.32941 -0.352043 -0.6523 1.48988 0.286916 -0.479381 0.0682215 0.0242342 0.26584 -0.0938016 0.508877 0.0391144 0.32428 -0.0236791 0.112073 0.770652 0.025799 0.0287791 -0.426347 -0.471398 0.536767 -0.309159 -0.0588938 -0.990251 -0.408254 -0.533143 0.0597626 -0.0772228 0.935964 0.490617 -0.0332232 1.76919 -0.055973 -1.18683 -2.32781 -2.2338 1.27814 1.90122 -0.302697 -0.481816 0.542667 -0.0286832 0.663358 1.92269 -1.36836
29 -0.210816 -0.0220306 0.0623245 0.0621837 -0.144169 0.0920724 -0.00242582 0.0942909 0.0994331 0.108265 0.0403751 0.0458942 0.223256 0.044743 0.0647287 -0.0598874 0.240127 0.0455185 -0.0169673 -0.0879869 -0.11647 0.0567134 -0.0125768 -0.12016 0.065019 -0.163477 0.101748 -0.0309985 0.158595 0.0732879 0.267947 0.118198 -0.303374 0.149475 -0.0426571 -0.00449763 -0.159132 -0.13727 -0.0289177 0.181458 -0.000232043 0.0366668 0.10771 -0.182622 0.0378556 -0.0864799 -0.205199 0.118093 0.0785426 0.140644 -0.0440318 -0.159782 0.0803363 0.0428271 -0.318972 0.0234203 0.037256 -0.194887 -0.021719 -0.0947252 0.0208965 -0.000551041 0.0410289 -0.085974 -0.153771 -0.10568 0.0230946 -0.103006 -0.214467 0.200164 0.291622 0.464539 -0.264039 -0.0929982 0.0412165 -0.196385 0.455838 -0.242895 0.127051 0.0507559 0.22113 -0.365744 0.0973703 -0.231025 -0.354446 -0.603007 1.13212 0.203047 -0.377 0.0800212 0.0532961 0.225696 -0.0926855 0.337093 -0.00973266 0.328755 0.04458 0.132532 0.775329 0.12498 -0.00632122 -0.338963 -0.525707 0.571156 -0.349477 -0.03642 -1.0182 -0.386222 -0.451323 0.0846807 -0.105734 0.917074 0.413513 -0.0332022 1.38053 -0.0323744 -0.969748 -1.92602 -1.95811 1.11758 1.66843 -0.274539 -0.385712 0.442039 -0.0451689 0.614196 1.58884 -1.09982
21 -0.205496 -0.00240797 0.00647648 -0.0282415 -0.112186 0.029732 -0.0979461 0.153439 0.034763 0.0617271 0.13875 -0.147177 0.222734 0.0592616 0.0674274 -0.0736492 0.280693 -0.0113115 -0.0112645 -0.225019 -0.110344 0.0643892 0.0281697 -0.101442 -0.0551175 -0.0122013 0.0595175 0.00635481 0.190015 0.0937647 0.255825 0.122116 -0.236907 0.090825 -0.0807872 -0.059393 -0.14842 -0.127931 0.000333452 0.214914 0.03192 0.0454927 0.0864157 -0.0478493 0.0179405 0.0068668 -0.128273 0.0762001 0.0837543 0.093174 -0.0653978 -0.105252 0.0795026 0.052864 -0.246578 0.0256418 0.023016 -0.0698537 -0.0321905 -0.0921543 0.0168668 0.0458974 0.255175 -0.295579 -0.216542 -0.058697 0.0321783 -0.0835365 -0.248429 0.217446 0.236019 0.403529 -0.213746 -0.105665 0.118961 -0.256961 0.542626 -0.307684 0.153315 0.0693538 0.249534 -0.410072 0.148251 -0.268108 -0.403726 -0.660618 1.03962 0.21332 -0.327687 0.0335813 0.0383121 0.196692 -0.0750357 0.318378 -0.0213662 0.126382 0.0161944 0.0286811 0.593233 0.0524915 0.00176331 -0.345482 -0.40714 0.450663 -0.258267 -0.0407784 -1.17308 -0.434792 -0.470029 0.071087 -0.085736 0.877515 0.433186 -0.04085 1.48192 0.0115112 -1.01028 -2.00025 -2.00486 1.1611 1.70702 -0.276073 -0.415079 0.486659 -0.0603522 0.67947 1.5987 -1.11663
15 -0.183501 0.0104825 0.0388969 0.035741 -0.150753 0.0717425 -0.114526 0.185974 0.0422819 0.074892 0.147866 -0.114464 0.35991 0.0232072 0.138721 -0.155847 0.43343 -0.0318261 -0.0190021 -0.222389 -0.116562 0.0931669 0.0324438 -0.119439 -0.04801 -0.0237045 0.0704018 0.00766844 0.200149 0.114647 0.266049 0.132334 -0.252758 0.0882164 -0.0702395 -0.0508505 -0.0995027 -0.088673 -0.00313478 0.195277 0.0233512 0.0592996 0.0923035 -0.0447341 0.00505848 5.03006e-06 -0.156115 0.0891691 0.0780546 0.0999146 -0.0682034 -0.125586 0.0383507 0.0227839 -0.251421 0.0300978 0.0373534 -0.106289 -0.0348809 -0.0834763 0.00578607 0.0336192 0.198237 -0.235464 -0.150538 -0.0584076 0.031829 -0.081003 -0.293202 0.241292 0.310899 0.488164 -0.242815 -0.0725064 0.179445 -0.316327 0.549399 -0.316982 0.156838 0.0746277 0.280772 -0.436096 0.0548402 -0.180344 -0.330098 -0.528528 0.990723 0.20303 -0.261244 0.0319437 0.0380349 0.175579 -0.0885313 0.287919 -0.0329117 0.132307 0.0495679 0.0376147 0.653998 0.0961713 -0.0171278 -0.342664 -0.444321 0.491724 -0.295653 -0.0327467 -1.28805 -0.460601 -0.446865 0.0713495 -0.149332 1.07092 0.521319 -0.041939 1.45875 0.0278179 -0.938803 -1.84093 -1.95953 1.14269 1.72152 -0.302885 -0.402161 0.496751 -0.0996781 0.736989 1.68381 -1.07292
28 -0.243345 -0.00234305 0.159727 0.22765 -0.185795 0.156089 -0.0445297 0.141086 0.140224 0.130332 0.0342355 0.13593 0.458267 0.0129344 0.0944923 -0.0809674 0.355796 0.0707574 -0.0121644 -0.178962 -0.123323 0.109248 0.0111287 -0.17928 0.0749464 -0.21413 0.0567887 -0.0502093 0.0359657 0.12702 0.0666305 0.0293089 -0.219929 0.102746 -0.111972 -0.120269 -0.283171 -0.262554 -0.0527161 0.217865 0.089705 -0.00718776 0.150052 -0.0773774 0.0918842 -0.0195947 -0.143183 0.0869828 0.106894 0.186926 -0.0529984 -0.174981 0.121095 0.0619094 -0.29807 0.0995367 0.0300294 -0.132729 0.00739018 -0.066358 0.0212791 0.0140922 0.154266 -0.183592 -0.16266 -0.158107 0.00435065 -0.0756506 -0.417423 0.328888 0.358396 0.618687 -0.266784 -0.11677 0.0860772 -0.22687 0.454493 -0.250939 0.119263 0.0382873 0.265462 -0.418561 0.158266 -0.281863 -0.39491 -0.670127 1.20579 0.225289 -0.369698 0.0543351 0.0384304 0.228637 -0.148913 0.518187 -0.000514707 0.331337 0.00497875 0.111116 0.758381 0.0923787 -0.00400019 -0.327507 -0.449828 0.521725 -0.334268 -0.0736724 -0.919948 -0.341717 -0.478845 0.0501502 -0.0795282 0.895652 0.483754 -0.0490306 1.48523 -0.0615468 -1.05054 -2.13593 -2.21606 1.26427 1.87222 -0.306214 -0.46208 0.454962 -0.0757888 0.735459 1.84822 -1.29405
24 -0.230252 -0.0282966 0.0656447 0.0757881 -0.148387 0.0793474 -0.0323665 0.122324 0.113917 0.119718 0.0458665 0.0600822 0.34832 0.0306644 0.0592324 -0.0593464 0.274154 0.0630938 -0.0105209 -0.138662 -0.121336 0.0673896 -0.00216133 -0.13988 0.0324815 -0.149167 0.0859747 -0.0293259 0.185639 0.0845034 0.268184 0.112152 -0.331311 0.184457 -0.0473397 -0.000266757 -0.118678 -0.0916324 -0.0491477 0.12841 -0.00705194 0.0461553 0.058976 -0.0897168 0.0432959 -0.0323972 -0.159226 0.109656 0.0705666 0.144933 -0.0328746 -0.123915 0.0846007 0.0442052 -0.286679 0.0512335 0.0220355 -0.0986437 -0.00312893 -0.054077 0.0286861 0.0179208 0.2073 -0.244106 -0.246976 -0.0425518 0.00457643 -0.0851347 -0.229255 0.212944 0.280098 0.457023 -0.25254 -0.129069 0.0290937 -0.205284 0.453417 -0.233725 0.143321 0.0837209 0.198962 -0.286505 0.0952314 -0.25289 -0.368984 -0.630148 1.17521 0.242481 -0.34965 0.0305331 0.0411063 0.217011 -0.0610708 0.287853 0.00995822 0.178967 0.0152912 0.0806418 0.766612 0.0688187 0.0053687 -0.407952 -0.54856 0.613081 -0.3769 -0.054872 -1.20431 -0.462512 -0.553559 0.078154 -0.10044 1.10598 0.546618 -0.0428467 1.75239 -0.0420049 -1.15011 -2.28493 -2.37595 1.36321 1.99368 -0.311706 -0.503471 0.559572 -0.0351193 0.723505 2.01859 -1.44971
26 -0.156315 -0.0228816 0.1971 0.305481 -0.214006 0.197819 0.0708481 0.0608806 0.181509 0.156559 -0.0110872 0.233576 0.546295 -0.00817114 0.129821 -0.143886 0.345783 0.0657467 0.000354546 -0.139654 -0.17948 0.0748213 0.0737977 -0.190567 -0.0392045 -0.105803 0.0525634 -0.0244273 0.0812496 0.126869 0.152139 0.0555758 -0.294936 0.154323 -0.104904 -0.0796455 -0.258744 -0.180323 -0.0803631 0.304098 0.0428982 0.0268069 0.113203 -0.108543 0.101201 -0.0433806 -0.222779 0.177764 0.115033 0.267522 -0.0434311 -0.210169 0.10273 0.0473776 -0.32633 0.0960987 0.0221489 -0.144828 -0.0396278 -0.125353 0.0146401 -0.00746915 0.254622 -0.303164 -0.295096 -0.113019 0.00593269 -0.114723 -0.274569 0.289949 0.29424 0.50693 -0.253656 -0.164038 0.0429003 -0.239732 0.514009 -0.268142 0.14509 0.104794 0.223928 -0.265217 0.102462 -0.310729 -0.3966 -0.695109 1.46036 0.264552 -0.407057 0.037493 0.0148343 0.226925 -0.0663938 0.393747 0.0336159 0.236075 -0.0161082 0.088689 0.697869 0.019249 0.0161143 -0.419519 -0.436839 0.505103 -0.296836 -0.061432 -1.02982 -0.413402 -0.493523 0.0424607 -0.0710304 0.924666 0.509365 -0.0373574 1.81288 -0.0415264 -1.17858 -2.31475 -2.27876 1.31229 1.96199 -0.314029 -0.495084 0.556278 -0.0224553 0.71159 1.90821 -1.38097
6 -0.000755369 0.0475816 0.0676639 0.0777748 -0.0945833 0.0627059 -0.00654994 0.104102 0.0579049 0.0852579 0.0721406 -0.0353373 0.297904 0.00365556 0.1623 -0.195708 0.309573 -0.0592601 -0.0317441 -0.0949141 -0.0448319 0.0618064 -0.0103587 -0.0615376 0.0217088 -0.0592791 0.0896248 0.000957591 0.240719 0.0636562 0.280197 0.145951 -0.263748 0.095011 -0.0110356 0.0476781 -0.0267877 -0.0452283 -0.0136333 0.0736278 -0.0593268 0.103977 0.209803 -0.220454 -0.0113956 -0.139295 -0.301785 0.137731 0.0992784 0.214771 -0.0591379 -0.226072 -0.0370559 -0.0360208 -0.216231 0.0765692 0.0370143 -0.000793987 0.075794 0.0698546 0.0542648 0.112349 0.351975 -0.386832 -0.261545 0.0217938 0.0215533 -0.0765908 -0.256927 0.194982 0.350783 0.519939 -0.272746 -0.11629 -0.0555334 -0.162449 0.616902 -0.356068 0.175043 0.0435557 0.24147 -0.445249 0.234722 -0.340405 -0.516085 -0.847987 1.45471 0.23744 -0.391367 0.0464392 0.0316525 0.196461 -0.077782 0.28927 -0.0817291 0.159341 0.0563571 0.0411293 0.636519 0.0337319 -0.0311582 -0.359701 -0.44142 0.513513 -0.343104 -0.0631344 -1.40801 -0.518766 -0.608463 0.134577 -0.135542 1.30906 0.63742 -0.0220606 1.96126 -0.000179024 -1.21704 -2.42896 -2.68255 1.52693 2.22703 -0.371061 -0.533427 0.597311 -0.116702 0.872309 2.26394 -1.49198
11 -0.101933 0.0354882 0.0451684 0.0323649 -0.134735 0.0676876 -0.0470222 0.149629 0.0306855 0.0768546 0.103977 -0.0418587 0.482853 -0.0115786 0.217567 -0.268552 0.473601 -0.0674976 -0.0366134 -0.143272 -0.0629885 0.102509 -0.0153686 -0.108022 0.0252629 -0.0896033 0.0812647 -0.000854129 0.216821 0.0938303 0.242289 0.13389 -0.24513 0.0829965 -0.0623453 -0.0157712 -0.131597 -0.0993216 -0.0105889 0.209791 -0.0154743 0.0856776 0.184657 -0.162063 -0.00154878 -0.0976613 -0.292095 0.145876 0.113857 0.210453 -0.0757023 -0.245464 -0.0513306 -0.0385579 -0.21984 0.0566288 0.0431538 -0.0513284 0.0649264 0.0590655 0.0408043 0.0806761 0.246868 -0.283671 -0.163734 -0.00628635 0.0288046 -0.0810982 -0.270564 0.207247 0.341674 0.488643 -0.284097 -0.073232 0.0263586 -0.226445 0.565204 -0.33533 0.166688 0.0480774 0.250111 -0.438124 0.170208 -0.250751 -0.537504 -0.85583 1.19729 0.202354 -0.260258 0.0118146 0.029616 0.16831 -0.0463439 0.163896 -0.0937549 0.0826157 0.0718853 0.0210688 0.677378 0.0716463 -0.0393195 -0.357653 -0.404133 0.460133 -0.313343 -0.0468876 -1.2101 -0.441858 -0.470623 0.117254 -0.159813 1.12852 0.534725 -0.0204901 1.80392 0.0304963 -1.11468 -2.25268 -2.434 1.38 1.96096 -0.340491 -0.488666 0.560465 -0.131644 0.877095 2.16853 -1.38465
18 -0.141648 0.00895976 0.110967 0.153578 -0.183763 0.169781 -0.00744343 0.106101 0.106093 0.105504 0.080176 0.0333638 0.41451 0.00567636 0.0877249 -0.0942825 0.28683 -0.00657949 -0.00588538 -0.227383 -0.130258 0.0724664 0.0500003 -0.100586 -0.119403 0.0622345 0.0701163 -0.00454688 0.181271 0.0847298 0.284257 0.117996 -0.290262 0.140052 -0.0412573 -0.0413853 0.000590728 -0.0447116 -0.0137214 0.0813438 0.0276605 0.029361 0.0179551 -0.0068483 0.00455525 0.0588232 -0.0653348 0.0569148 0.0482088 0.0525584 -0.0303894 -0.10553 0.0948462 0.0337048 -0.182107 0.0458042 0.0220232 -0.0339935 -0.00100992 -0.0370228 0.0304802 0.0443273 0.233315 -0.228656 -0.161607 -0.0371488 0.0268675 -0.0876546 -0.329231 0.268828 0.342995 0.513442 -0.200826 -0.0201956 0.2289 -0.298375 0.525604 -0.285236 0.0869221 0.033478 0.177632 -0.279496 0.165307 -0.217239 -0.437228 -0.697639 1.20004 0.126114 -0.275736 0.0697751 0.0207522 0.154335 -0.162161 0.468985 -0.0194131 0.25825 0.0225004 0.0483708 0.501224 0.0757323 -0.0376961 -0.282126 -0.405716 0.448998 -0.268018 -0.0422294 -1.03466 -0.372133 -0.424426 0.0724499 -0.0978379 0.922208 0.429892 0.0029814 1.54736 -0.0142825 -0.949336 -1.9706 -1.98017 1.0774 1.67333 -0.310966 -0.388892 0.416113 -0.111691 0.696891 1.93924 -1.21271
8 -0.218549 -0.0306094 0.0439729 0.0590239 -0.129356 0.11072 -0.0161229 0.106563 0.0969938 0.0903637 0.0825371 0.0088586 0.278981 0.0385071 0.0693173 -0.0655852 0.296547 0.0264202 -0.00807521 -0.15404 -0.128876 0.0724285 0.0414952 -0.123544 -0.0523482 -0.0375384 0.0219264 -0.00713969 0.0609099 0.0881831 0.211121 0.0846615 -0.221887 0.0782109 -0.0761456 -0.086048 -0.137266 -0.158336 0.0243724 0.260998 0.0683097 -0.0136019 0.0157477 -0.00114537 0.0292129 0.0509036 -0.085089 0.0741738 0.0689998 0.0979304 -0.0369918 -0.0887402 0.113748 0.0463787 -0.301407 0.0773355 0.0507559 -0.128862 -0.0155739 -0.067328 0.0276943 0.00391334 0.169057 -0.190844 -0.177468 -0.118577 0.0183651 -0.0996887 -0.366863 0.303249 0.32968 0.517148 -0.251545 -0.0606475 0.220938 -0.322354 0.515047 -0.291704 0.119325 0.0786817 0.273167 -0.417722 0.187808 -0.280321 -0.452985 -0.731347 1.42025 0.188597 -0.349093 0.0684897 0.00774936 0.16566 -0.0996719 0.372471 -0.0298564 0.169751 0.0223978 0.0387003 0.630999 0.073227 -0.0245173 -0.345864 -0.454984 0.524882 -0.28761 -0.0463594 -1.01775 -0.376338 -0.423225 0.0696542 -0.0934825 0.953558 0.484062 -0.0219197 1.58336 -0.0246382 -1.00169 -1.98551 -2.13102 1.21208 1.83296 -0.295638 -0.408223 0.432874 -0.0381324 0.575634 1.65056 -1.17741
4 0.0171812 0.0418356 0.00704861 0.00425194 -0.108355 0.110002 -0.0255066 0.0820788 0.0151921 0.0638271 0.000693974 0.0810632 0.419739 -0.0329019 0.11496 -0.147238 0.234479 -0.0259416 -0.0289537 -0.115881 -0.0816208 0.0534099 0.0565157 -0.0495518 -0.0827799 0.0491096 0.0371708 0.00698924 0.0646213 0.072101 0.0192967 0.0316159 -0.124421 0.0274721 -0.0368442 0.00455736 -0.0370709 -0.0643541 0.0273613 0.133413 0.0293636 0.0232581 0.126588 -0.057049 0.0150192 0.0176741 -0.0637849 0.04409 0.0652434 0.0590325 -0.0359672 -0.107929 0.0693603 0.0439464 -0.200056 0.0379417 0.0307099 -0.0508302 0.0606202 0.0672235 0.0296011 0.0540511 0.191735 -0.198996 -0.135058 -0.039229 0.0120297 -0.0448589 -0.238898 0.17245 0.320334 0.446613 -0.24318 -0.0292743 0.0758207 -0.230818 0.46247 -0.256415 0.11304 0.0172192 0.198347 -0.358167 0.183379 -0.214682 -0.511072 -0.773599 1.11513 0.130965 -0.261828 0.0349555 0.026814 0.128881 -0.0673071 0.210698 -0.0526263 0.142607 0.0557339 0.0334769 0.503179 0.0483329 -0.0489734 -0.287394 -0.502484 0.562097 -0.330485 -0.0683518 -1.05054 -0.378472 -0.40308 0.072874 -0.115543 0.977523 0.470256 -0.0161996 1.43551 0.0230868 -0.971163 -2.002 -2.17721 1.21613 1.77397 -0.309777 -0.394167 0.44161 -0.0997956 0.7435 2.03443 -1.30103
13 -0.0215936 0.00420308 0.153472 0.225314 -0.0495961 -0.0173622 -0.037893 0.0611335 0.0471884 0.0262052 0.115836 -0.0871586 0.153913 0.00883571 0.0850573 -0.107166 0.268606 -0.00631165 -0.00482413 -0.0811707 -0.0581289 0.0757225 -0.00247462 -0.116347 0.00342617 -0.056315 0.0225391 0.0070037 0.10914 0.0647148 0.235742 0.101779 -0.155893 0.0395866 -0.0464132 -0.0548378 -0.119315 -0.0955904 -0.00795124 0.219946 0.00953392 0.0268828 0.0474477 -0.0928974 0.00343387 -0.0830194 -0.283525 0.158825 0.0862869 0.210333 -0.0473278 -0.187437 -0.0388949 -0.0316456 -0.27156 0.0148161 0.0460107 -0.234581 -0.0830776 -0.153981 -0.0103088 -0.0432782 0.0247297 -0.0595514 -0.0298112 -0.122712 0.0521279 -0.111796 -0.298436 0.278395 0.355079 0.519219 -0.272877 -0.0153914 0.198306 -0.267971 0.501864 -0.297685 0.158308 0.0931811 0.316271 -0.40693 0.216271 -0.352312 -0.491964 -0.717467 1.27887 0.235769 -0.306622 0.0639978 0.0151845 0.152268 -0.0344751 0.215049 0.00758965 0.0886497 0.0101823 0.0682845 0.565212 0.0830965 0.00281779 -0.315183 -0.328116 0.390909 -0.257975 -0.0297623 -0.955582 -0.362933 -0.431336 0.092019 -0.118988 0.934818 0.471774 -0.0204168 1.68582 -0.0346858 -1.01423 -2.00187 -2.11851 1.19663 1.75603 -0.298723 -0.438772 0.49497 -0.0492452 0.652813 1.72363 -1.19447
7 0.010288 0.0662517 0.0711769 0.0779441 -0.104975 0.0583043 -0.0746364 0.15542 0.0131362 0.0613977 0.115977 -0.0991131 0.379074 -0.0147019 0.215055 -0.252174 0.421634 -0.0933823 -0.0446721 -0.160459 -0.07086 0.104243 0.0290235 -0.0628812 -0.0314591 0.000152 0.065491 0.0198191 0.183235 0.114249 0.214169 0.131249 -0.207595 0.00252185 -0.0474706 -0.0112738 -0.0475256 -0.132017 0.0592554 0.198217 0.00796284 0.0685776 0.219945 -0.187929 -0.0244566 -0.0753305 -0.261589 0.115463 0.114307 0.174591 -0.0811212 -0.243447 -0.0267937 -0.0278358 -0.230966 0.090734 0.0492306 0.0133014 0.139578 0.164018 0.0679639 0.126538 0.379703 -0.406762 -0.252725 0.00583582 0.0140024 -0.0578272 -0.266258 0.171885 0.329819 0.478149 -0.246198 -0.115203 -0.0504993 -0.171571 0.539957 -0.325812 0.149995 0.0190511 0.201747 -0.417346 0.289492 -0.34205 -0.511538 -0.853368 1.3658 0.184186 -0.356152 0.00674976 0.00577812 0.143394 -0.0710695 0.264403 -0.13338 0.112671 0.0658477 -0.0152709 0.544026 -0.00476372 -0.0609258 -0.351856 -0.436983 0.523099 -0.3123 -0.0960409 -1.28177 -0.462877 -0.568152 0.118979 -0.111079 1.23433 0.612419 -0.0133732 1.86586 0.00653578 -1.21646 -2.46036 -2.68274 1.52135 2.21996 -0.351588 -0.5655 0.578522 -0.102666 0.887706 2.14325 -1.47491
17 -0.0433462 0.0656851 0.109509 0.125729 -0.183417 0.150184 -0.0884385 0.198116 0.0358372 0.0950292 0.117376 -0.0382118 0.492537 -0.033206 0.262664 -0.300975 0.525337 -0.098518 -0.0703691 -0.134904 -0.123347 0.133851 0.0544809 -0.0744974 -0.066163 0.0315298 0.1132 0.019006 0.20236 0.167673 0.258651 0.147838 -0.242816 -0.0198238 -0.0505574 0.00094283 -0.0485117 -0.189907 0.11748 0.328518 0.05495 0.0258886 0.236236 -0.232251 -0.0226565 -0.0605743 -0.285239 0.133236 0.134446 0.159144 -0.0863947 -0.297214 0.0336228 -0.00934181 -0.368197 0.0693026 0.0665712 -0.0865493 0.123683 0.136623 0.0654327 0.110413 0.30374 -0.328721 -0.244962 -0.0197969 0.0129612 -0.0766015 -0.25138 0.170448 0.311866 0.460326 -0.256975 -0.128625 -0.0305954 -0.22377 0.602843 -0.363886 0.158613 0.0249468 0.194103 -0.425923 0.279085 -0.363324 -0.492746 -0.852252 1.45288 0.203392 -0.399215 0.00818499 0.0198637 0.193633 -0.113548 0.411672 -0.142215 0.246367 0.0805353 0.0158887 0.603834 0.0155656 -0.0642587 -0.373255 -0.544959 0.625179 -0.344512 -0.107135 -1.32094 -0.470769 -0.586901 0.120378 -0.0966324 1.22517 0.583953 -0.0153501 1.8754 0.00931112 -1.21348 -2.43692 -2.55121 1.44983 2.12361 -0.317542 -0.543795 0.555552 -0.0830975 0.878875 2.02482 -1.43792
27 -0.171208 -0.0123626 0.120338 0.155152 -0.189146 0.0682764 -0.0548445 0.161523 0.110616 0.13241 0.150742 -0.0874299 0.387985 0.0421589 0.0852486 -0.0867133 0.377293 0.0392574 -0.0169007 -0.321835 -0.224003 0.109717 0.129977 -0.16832 -0.134587 0.0300738 0.0651563 0.0151832 0.145395 0.187774 0.240205 0.120276 -0.295127 0.0477389 -0.121112 -0.135797 -0.279326 -0.32929 0.0747906 0.501919 0.124015 -0.0264739 0.0432314 -0.0568958 0.0217584 0.0906359 -0.128725 0.117137 0.118336 0.135421 -0.0638703 -0.178609 0.0972716 0.0212748 -0.352261 0.0886551 0.0504044 -0.0907494 0.0505009 0.0269839 0.0576093 0.0722758 0.311284 -0.349455 -0.273207 -0.0595837 0.0209023 -0.107952 -0.349858 0.28871 0.374809 0.566202 -0.303553 -0.109737 0.0551076 -0.249189 0.565871 -0.324541 0.122792 0.0525303 0.179118 -0.298996 0.0953327 -0.213659 -0.321153 -0.602264 1.35785 0.203967 -0.324673 0.00875513 0.0145469 0.189224 -0.0541581 0.275389 -0.0429293 0.140969 0.0462822 0.0554302 0.6631 0.0327692 -0.0344189 -0.395026 -0.488421 0.557931 -0.355327 -0.0738504 -1.00734 -0.389972 -0.440489 0.0741509 -0.11571 0.932713 0.478383 -0.0144855 1.63474 -0.00460089 -1.0089 -1.99213 -2.19073 1.25514 1.85195 -0.311714 -0.481363 0.515061 -0.0551244 0.749402 1.87599 -1.28621
30 -0.0731578 0.00131146 0.151788 0.231048 -0.170813 0.0977281 -0.0407587 0.1387 0.10531 0.117327 0.08131 0.00249582 0.470657 -0.0219871 0.181066 -0.197523 0.466558 -0.00482109 -0.0171068 -0.218152 -0.173475 0.122939 0.119924 -0.148945 -0.0962295 0.00769954 0.0261857 0.0196577 0.075782 0.184833 0.118578 0.0694991 -0.197226 -0.00395079 -0.11018 -0.136061 -0.19718 -0.242768 0.0468096 0.402006 0.117998 -0.0226354 0.0545275 -0.0221545 0.0224847 0.0701926 -0.134552 0.113096 0.107746 0.167181 -0.0555058 -0.170756 0.0315155 -0.00803719 -0.264218 0.111032 0.0325727 -0.0344973 0.0359319 0.0188923 0.025652 0.0475464 0.340399 -0.38148 -0.254698 -0.0464253 0.00814862 -0.0787334 -0.333144 0.28349 0.328906 0.530418 -0.272723 -0.14595 0.081868 -0.280288 0.541915 -0.318763 0.149073 0.0902254 0.228497 -0.31537 0.0796721 -0.244703 -0.306435 -0.554293 1.28308 0.236952 -0.296862 -0.0258268 -8.56898e-05 0.181195 -0.0319937 0.252922 -0.0332903 0.0479141 0.0178502 0.00386717 0.618987 0.00106094 -0.0158139 -0.420467 -0.424011 0.507889 -0.299717 -0.0862267 -1.15414 -0.437764 -0.466807 0.0426733 -0.109819 1.00398 0.584137 -0.0486695 1.77243 0.0101378 -1.09238 -2.11187 -2.41259 1.4258 2.08738 -0.330765 -0.560655 0.612571 -0.0406067 0.847667 1.99721 -1.47038
5 -0.0720522 0.0407278 0.113153 0.137873 -0.1168 0.0378092 -0.0696857 0.143613 0.0449467 0.073655 0.114839 -0.0574952 0.400347 -0.00461414 0.174368 -0.212976 0.397275 -0.0465555 -0.0281396 -0.146578 -0.0592287 0.103385 -0.025634 -0.11293 0.0467963 -0.119352 0.0931615 -0.00963925 0.276483 0.0928236 0.326768 0.16328 -0.313332 0.136483 -0.0572192 -0.0048191 -0.0834989 -0.0580897 -0.0431073 0.117342 -0.0403475 0.10583 0.177922 -0.177244 0.0105127 -0.113 -0.320041 0.160366 0.111847 0.240459 -0.0763574 -0.2684 -0.0472203 -0.0371495 -0.20336 0.0801119 0.0297915 -0.0101429 0.0635562 0.0460816 0.0365362 0.0765771 0.308427 -0.342529 -0.210395 -0.0155043 0.0260251 -0.0881227 -0.323518 0.246804 0.37754 0.562311 -0.293703 -0.0973591 0.00964114 -0.223325 0.605947 -0.345868 0.175575 0.0529391 0.270162 -0.451186 0.199203 -0.316209 -0.539605 -0.874281 1.319 0.235862 -0.337967 0.0320061 0.034243 0.198571 -0.0629631 0.256573 -0.0630952 0.121175 0.0494949 0.0362223 0.695281 0.0661324 -0.026465 -0.370273 -0.396254 0.458105 -0.316128 -0.04556 -1.29224 -0.469224 -0.533711 0.116373 -0.148323 1.16274 0.572846 -0.0295838 1.84718 0.00863978 -1.1333 -2.27366 -2.42394 1.37917 1.9557 -0.334206 -0.496144 0.570779 -0.117123 0.857365 2.15634 -1.39989
22 -0.247236 -0.00893501 0.0679318 0.0793727 -0.217511 0.2185 0.0537077 0.0858705 0.113909 0.11777 0.0600188 0.0558257 0.362368 0.0471437 0.0414939 -0.0436123 0.211975 0.00578557 0.0059515 -0.23612 -0.142619 0.0219269 0.0676152 -0.0892635 -0.168572 0.111021 0.0767707 0.00340876 0.199058 0.0468168 0.280587 0.116829 -0.24407 0.149309 -0.0302752 -0.010496 0.00284384 0.0354942 -0.0507718 0.0287274 -0.017082 0.0650241 -0.00468032 0.012151 0.0170643 0.0589487 -0.0402487 0.0491461 0.0306785 0.0262438 -0.0259823 -0.0541733 0.108276 0.0381322 -0.152975 0.0399206 0.0144044 -0.00437512 -0.0214018 -0.0682115 0.0304824 0.0548317 0.253096 -0.257558 -0.196836 -0.0336402 0.0316252 -0.114671 -0.34425 0.281406 0.363064 0.53609 -0.238123 -0.00991158 0.207034 -0.276874 0.549279 -0.301416 0.086898 0.0322627 0.188835 -0.317817 0.0993411 -0.149777 -0.471869 -0.751891 1.21765 0.121135 -0.278348 0.0780485 0.0275895 0.151746 -0.139113 0.392701 -0.0328066 0.238246 0.0262983 0.0301166 0.432024 0.0650842 -0.0367495 -0.252025 -0.396624 0.431431 -0.253574 -0.0284355 -0.973528 -0.346352 -0.397994 0.0842047 -0.0908081 0.925036 0.40016 0.0106985 1.59864 -0.00649238 -0.982077 -2.03686 -2.02942 1.09002 1.68169 -0.317509 -0.35646 0.403129 -0.127794 0.668412 1.8772 -1.11691
12 -0.0936332 0.0216546 0.107375 0.153843 -0.12514 0.0933648 0.0215591 0.0648648 0.0626285 0.0659687 0.0544743 0.0440353 0.415077 -0.00251665 0.106783 -0.143272 0.282244 -0.016367 -0.00546134 -0.126184 -0.0390148 0.0597289 -0.0232095 -0.102759 0.000964822 -0.0632704 0.0556024 -0.0141891 0.189078 0.0425801 0.226999 0.109691 -0.221265 0.137948 -0.0553109 -0.0194077 -0.0786318 0.00413379 -0.0853408 0.0657552 -0.0258569 0.0838731 0.0841739 -0.0346433 0.0359685 -0.0486503 -0.190706 0.116965 0.0706773 0.173627 -0.0406948 -0.154831 -0.0111619 -0.00944589 -0.160166 0.0334793 0.0190783 -0.0827245 -0.0322984 -0.0809599 0.00160211 0.0251682 0.187187 -0.206068 -0.112094 -0.0522634 0.040664 -0.0894961 -0.303972 0.263026 0.3467 0.52185 -0.246246 -0.017598 0.194435 -0.285663 0.547526 -0.308664 0.139051 0.0600733 0.280051 -0.396456 0.177003 -0.269437 -0.511987 -0.772978 1.12304 0.197173 -0.272225 0.0461389 0.0288682 0.160223 -0.0775166 0.27491 -0.00681107 0.139171 0.00946887 0.0532007 0.509519 0.0857304 -0.0105403 -0.266049 -0.275357 0.311988 -0.204905 -0.0213149 -0.849753 -0.313497 -0.340095 0.0590926 -0.104019 0.736133 0.381687 -0.0217711 1.4298 0.00906362 -0.883459 -1.7824 -1.71567 0.975737 1.41025 -0.270159 -0.307521 0.382354 -0.0894204 0.591985 1.56805 -0.95667
16 -0.229328 -0.0147892 -0.0118788 -0.0397625 -0.182415 0.139392 -0.0388033 0.155034 0.0705115 0.10227 0.0929218 -0.0364558 0.417821 0.0554179 0.114356 -0.124717 0.374017 -0.0187657 -0.00846965 -0.2369 -0.158092 0.0552974 0.0617948 -0.132255 -0.112637 0.0164247 0.0630862 0.0150209 0.173545 0.0996733 0.286539 0.130025 -0.274641 0.119744 -0.0746595 -0.0541183 -0.116995 -0.0781623 -0.00946104 0.248439 0.0346533 0.0372993 0.0383743 0.0117085 0.0347118 0.0424762 -0.0892508 0.0754721 0.0683734 0.0684139 -0.0617931 -0.0721664 0.122584 0.083742 -0.263637 0.0141708 0.0180083 -0.0685229 -0.0726423 -0.141001 0.00275209 0.0226041 0.217981 -0.259784 -0.208013 -0.0723397 0.030792 -0.090966 -0.188117 0.198425 0.225275 0.389663 -0.209377 -0.106312 0.220274 -0.346652 0.545993 -0.300771 0.145906 0.0985389 0.231988 -0.335517 0.0999543 -0.251271 -0.331409 -0.546496 1.0465 0.215712 -0.367362 0.0441014 0.0336368 0.192281 -0.0513924 0.295619 0.00831222 0.105863 -0.00784136 0.0164289 0.558252 0.0366742 0.0114609 -0.372685 -0.484831 0.542012 -0.264185 -0.0425384 -1.24105 -0.476648 -0.483105 0.0427156 -0.0735863 0.911674 0.462684 -0.0488322 1.49906 0.0142946 -1.0242 -1.97951 -1.98614 1.16994 1.74053 -0.277486 -0.40269 0.49229 -0.00994354 0.597748 1.53547 -1.14118
31 -0.221633 -0.0114883 -0.0390335 -0.078694 -0.202553 0.188981 0.00377746 0.146522 0.0943651 0.126899 0.107627 -0.0544941 0.433458 0.0601944 0.105708 -0.115818 0.375355 -0.0402363 -0.00226505 -0.315769 -0.171363 0.0498503 0.0875398 -0.116074 -0.186444 0.111221 0.0679935 0.0239051 0.217191 0.118805 0.340338 0.164174 -0.312961 0.116801 -0.0966024 -0.0890747 -0.110804 -0.110953 0.00511082 0.283736 0.0627288 0.0400184 0.0377639 0.0291173 0.0224273 0.106826 -0.0407422 0.0589765 0.080742 0.0464074 -0.0651717 -0.0728812 0.147033 0.0792827 -0.275512 0.0346436 0.0291395 -0.0560085 -0.0288221 -0.0824874 0.0172654 0.0666617 0.278931 -0.303197 -0.197443 -0.0439613 0.0356447 -0.0923427 -0.195791 0.194064 0.20806 0.357685 -0.179304 -0.0507918 0.236689 -0.339498 0.550751 -0.313091 0.116097 0.0706679 0.179261 -0.290743 0.0500103 -0.157618 -0.297854 -0.505826 1.24645 0.179572 -0.326062 0.0476345 0.0339111 0.200932 -0.133662 0.440553 -0.0478206 0.210891 0.0386828 0.0194986 0.474357 0.0609977 -0.0320152 -0.322728 -0.442995 0.475915 -0.256697 -0.0313474 -1.12574 -0.410606 -0.381892 0.0503448 -0.111312 0.857337 0.405761 -0.0177045 1.56931 0.0443223 -0.96783 -1.91156 -1.99316 1.13526 1.70177 -0.313353 -0.339304 0.427255 -0.101288 0.680892 1.63206 -1.00372
